{"learner":{"attributes":{"best_iteration":"499","best_ntree_limit":"500","scikit_learn":"{\"use_label_encoder\": false, \"n_estimators\": 500, \"objective\": \"binary:logistic\", \"max_depth\": 5, \"max_leaves\": null, \"max_bin\": null, \"grow_policy\": null, \"learning_rate\": 0.05, \"verbosity\": null, \"booster\": null, \"tree_method\": null, \"gamma\": null, \"min_child_weight\": 5, \"max_delta_step\": null, \"subsample\": 0.8, \"sampling_method\": null, \"colsample_bytree\": 0.4, \"colsample_bylevel\": 0.7, \"colsample_bynode\": null, \"reg_alpha\": 0.1, \"reg_lambda\": 2.0, \"scale_pos_weight\": null, \"base_score\": null, \"missing\": NaN, \"num_parallel_tree\": null, \"random_state\": 42, \"n_jobs\": null, \"monotone_constraints\": null, \"interaction_constraints\": null, \"importance_type\": null, \"gpu_id\": null, \"validate_parameters\": null, \"predictor\": null, \"enable_categorical\": false, \"max_cat_to_onehot\": null, \"eval_metric\": \"auc\", \"early_stopping_rounds\": null, \"callbacks\": null, \"classes_\": [0, 1], \"n_classes_\": 2, \"_estimator_type\": \"classifier\"}"},"feature_names":["HTTP","URL Length","Popular tld in URL","IP","Non-latin characters","Entropy","@ in url","Suspicious characters","Digits","Subdomains","Sus domains","Number of phishing words","Levenshtein Distance","URL is shortened"],"feature_types":["int","int","int","int","int","float","int","int","int","int","int","int","int","int"],"gradient_booster":{"model":{"gbtree_model_param":{"num_parallel_tree":"1","num_trees":"500","size_leaf_vector":"0"},"tree_info":[0,0,0,0,0,0,0,0,0,0,0,0,0,0,0,0,0,0,0,0,0,0,0,0,0,0,0,0,0,0,0,0,0,0,0,0,0,0,0,0,0,0,0,0,0,0,0,0,0,0,0,0,0,0,0,0,0,0,0,0,0,0,0,0,0,0,0,0,0,0,0,0,0,0,0,0,0,0,0,0,0,0,0,0,0,0,0,0,0,0,0,0,0,0,0,0,0,0,0,0,0,0,0,0,0,0,0,0,0,0,0,0,0,0,0,0,0,0,0,0,0,0,0,0,0,0,0,0,0,0,0,0,0,0,0,0,0,0,0,0,0,0,0,0,0,0,0,0,0,0,0,0,0,0,0,0,0,0,0,0,0,0,0,0,0,0,0,0,0,0,0,0,0,0,0,0,0,0,0,0,0,0,0,0,0,0,0,0,0,0,0,0,0,0,0,0,0,0,0,0,0,0,0,0,0,0,0,0,0,0,0,0,0,0,0,0,0,0,0,0,0,0,0,0,0,0,0,0,0,0,0,0,0,0,0,0,0,0,0,0,0,0,0,0,0,0,0,0,0,0,0,0,0,0,0,0,0,0,0,0,0,0,0,0,0,0,0,0,0,0,0,0,0,0,0,0,0,0,0,0,0,0,0,0,0,0,0,0,0,0,0,0,0,0,0,0,0,0,0,0,0,0,0,0,0,0,0,0,0,0,0,0,0,0,0,0,0,0,0,0,0,0,0,0,0,0,0,0,0,0,0,0,0,0,0,0,0,0,0,0,0,0,0,0,0,0,0,0,0,0,0,0,0,0,0,0,0,0,0,0,0,0,0,0,0,0,0,0,0,0,0,0,0,0,0,0,0,0,0,0,0,0,0,0,0,0,0,0,0,0,0,0,0,0,0,0,0,0,0,0,0,0,0,0,0,0,0,0,0,0,0,0,0,0,0,0,0,0,0,0,0,0,0,0,0,0,0,0,0,0,0,0,0,0,0,0,0,0,0,0,0,0,0,0,0,0,0,0,0,0,0,0,0,0,0,0,0,0,0,0,0,0,0,0,0,0,0,0,0,0,0,0,0,0,0,0,0,0,0,0,0,0,0,0,0,0,0,0,0,0,0,0,0,0,0,0,0,0,0,0],"trees":[{"base_weights":[1.6934189E-1,-1.04521304E-1,1.4869517E0,-7.7091557E-1,6.9418186E-1,-1.2143655E0,1.9242417E0,6.4314103E-1,1.7503893E0,-1.444863E0,1.7806451E0,1.7536569E0,1.9615914E0,5.146574E-1,1.3444867E0,-1.4971981E0,-9.758865E-1,1.5349727E0,1.9507443E0,1.1786692E0,1.7795396E0,-1.5301775E0,5.5172414E-2,-1.2342857E0,-1.7272727E-1],"categories":[],"categories_nodes":[],"categories_segments":[],"categories_sizes":[],"default_left":[1,1,1,0,1,1,1,1,0,1,0,1,0,0,1,1,1,0,0,0,0,0,0,0,0],"id":0,"left_children":[1,3,5,-1,7,9,11,13,-1,15,-1,17,-1,-1,19,21,23,-1,-1,-1,-1,-1,-1,-1,-1],"loss_changes":[4.6966646E3,5.737016E3,2.6504692E3,0E0,2.6181494E2,2.2136176E2,5.0351562E0,4.2015173E2,0E0,3.9973145E0,0E0,9.426514E0,0E0,0E0,4.7684082E1,1.3563416E1,6.748543E0,0E0,0E0,0E0,0E0,0E0,0E0,0E0,0E0],"parents":[2147483647,0,0,1,1,2,2,4,4,5,5,6,6,7,7,9,9,11,11,14,14,15,15,16,16],"right_children":[2,4,6,-1,8,10,12,14,-1,16,-1,18,-1,-1,20,22,24,-1,-1,-1,-1,-1,-1,-1,-1],"split_conditions":[5E-1,5E-1,5E-1,-3.854578E-2,1.5E0,7.5E0,1.5E0,5E-1,8.751947E-2,5E-1,8.9032255E-2,5E-1,9.807957E-2,2.573287E-2,1.5E0,4.5E0,2.5E0,7.674863E-2,9.753721E-2,5.8933463E-2,8.897698E-2,-7.650887E-2,2.7586208E-3,-6.1714288E-2,-8.636364E-3],"split_indices":[8,9,9,0,9,8,8,7,0,7,0,7,0,0,7,8,8,0,0,0,0,0,0,0,0],"split_type":[0,0,0,0,0,0,0,0,0,0,0,0,0,0,0,0,0,0,0,0,0,0,0,0,0],"sum_hessian":[1.30125E4,1.077475E4,2.23775E3,5.874E3,4.90075E3,3.1125E2,1.9265E3,4.678E3,2.2275E2,2.9E2,2.125E1,3.6375E2,1.56275E3,3.95675E3,7.2125E2,2.5675E2,3.325E1,1.81E2,1.8275E2,5.2775E2,1.935E2,2.515E2,5.25E0,2.425E1,9E0],"tree_param":{"num_deleted":"0","num_feature":"14","num_nodes":"25","size_leaf_vector":"0"}},{"base_weights":[1.6603929E-1,7.121638E-1,-1.9452186E-1,7.0489246E-1,1.8519105E0,-2.1009381E-1,1.9649855E0,6.9915617E-1,1.708424E0,-2.2031899E-1,1.8702668E0,1.4867972E0,-2.729287E-1,4.2897847E-1,-7.430651E-1,-2.945885E-1,1.7550666E0],"categories":[],"categories_nodes":[],"categories_segments":[],"categories_sizes":[],"default_left":[1,1,1,1,0,1,0,1,0,1,0,0,1,0,0,0,0],"id":1,"left_children":[1,3,5,7,-1,9,-1,11,-1,13,-1,-1,15,-1,-1,-1,-1],"loss_changes":[2.5607712E3,3.9992188E1,2.6407593E2,2.6970215E1,0E0,1.6614194E2,0E0,3.9181992E3,0E0,2.6288276E3,0E0,0E0,1.015497E2,0E0,0E0,0E0,0E0],"parents":[2147483647,0,0,1,1,2,2,3,3,5,5,7,7,9,9,12,12],"right_children":[2,4,6,8,-1,10,-1,12,-1,14,-1,-1,16,-1,-1,-1,-1],"split_conditions":[5E-1,5E-1,5E-1,5E-1,9.2595525E-2,5E-1,9.824928E-2,4.5E0,8.54212E-2,7.5E0,9.351334E-2,7.433986E-2,5E-1,2.1448923E-2,-3.7153255E-2,-1.4729425E-2,8.775333E-2],"split_indices":[2,6,13,13,0,6,0,1,0,1,0,0,3,0,0,0,0],"split_type":[0,0,0,0,0,0,0,0,0,0,0,0,0,0,0,0,0],"sum_hessian":[1.3001025E4,5.1694443E3,7.831581E3,5.139977E3,2.9467453E1,7.777351E3,5.422985E1,5.114237E3,2.5740437E1,7.7411387E3,3.6212204E1,2.8246118E3,2.2896248E3,3.4527195E3,4.2884194E3,2.2671692E3,2.2455452E1],"tree_param":{"num_deleted":"0","num_feature":"14","num_nodes":"17","size_leaf_vector":"0"}},{"base_weights":[1.5282482E-1,8.411946E-2,1.5116366E0,6.3445383E-1,-2.831728E-1,1.4239155E0,1.8734224E0,7.1660644E-1,-7.117479E-1,-4.579427E-1,1.8859998E0,1.3579036E0,1.7334948E0,1.2484251E0,-8.5631627E-1,-1.2105054E0,4.0818E-1,1.7143248E0,-6.053652E-1,1.9118483E0,1.4482683E0,1.6230127E0,4.4842514E-1,-8.001471E-2,1.8797079E0,1.0292466E0,1.3149856E0,-4.9473348E-1,-1.0691876E0,-2.443808E-1,-1.4039344E0,7.6298314E-1,-3.782315E-1,-4.3568814E-1,-1.0619473E0,1.779689E0,1.1501799E0,4.1244125E-1,7.266288E-1],"categories":[],"categories_nodes":[],"categories_segments":[],"categories_sizes":[],"default_left":[1,1,1,1,1,1,0,1,1,1,1,1,1,1,1,1,1,0,1,0,0,1,1,0,0,0,0,0,0,0,0,0,0,0,0,0,0,0,0],"id":2,"left_children":[1,3,5,7,9,11,-1,13,15,17,19,21,23,25,27,29,31,-1,33,-1,-1,35,37,-1,-1,-1,-1,-1,-1,-1,-1,-1,-1,-1,-1,-1,-1,-1,-1],"loss_changes":[1.2083823E3,2.4920994E3,1.4106567E1,5.4677747E2,2.804787E3,5.404785E0,0E0,3.893637E3,1.6012758E2,2.193875E3,3.6828613E-1,1.019762E2,2.2259064E1,4.778955E1,8.9349E1,3.6072876E1,2.5497528E1,0E0,4.9560205E2,0E0,0E0,2.0206238E1,2.8644562E-1,0E0,0E0,0E0,0E0,0E0,0E0,0E0,0E0,0E0,0E0,0E0,0E0,0E0,0E0,0E0,0E0],"parents":[2147483647,0,0,1,1,2,2,3,3,4,4,5,5,7,7,8,8,9,9,10,10,11,11,12,12,13,13,14,14,15,15,16,16,18,18,21,21,22,22],"right_children":[2,4,6,8,10,12,-1,14,16,18,20,22,24,26,28,30,32,-1,34,-1,-1,36,38,-1,-1,-1,-1,-1,-1,-1,-1,-1,-1,-1,-1,-1,-1,-1,-1],"split_conditions":[5E-1,5E-1,1.5E0,5E-1,5E-1,5E-1,9.367112E-2,4.5E0,7.5E0,2.5E0,4.5E0,7.5E0,5E-1,3.5E0,5.5E0,3.5E0,9.5E0,8.571624E-2,7.5E0,9.559242E-2,7.2413415E-2,5.5E0,1.65E1,-4.000736E-3,9.39854E-2,5.146233E-2,6.574928E-2,-2.4736675E-2,-5.3459384E-2,-1.2219041E-2,-7.019672E-2,3.814916E-2,-1.8911576E-2,-2.1784408E-2,-5.3097367E-2,8.898445E-2,5.7508994E-2,2.0622063E-2,3.633144E-2],"split_indices":[11,2,11,10,10,10,0,12,12,12,12,12,2,12,12,12,12,0,12,0,0,12,12,0,0,0,0,0,0,0,0,0,0,0,0,0,0,0,0],"split_type":[0,0,0,0,0,0,0,0,0,0,0,0,0,0,0,0,0,0,0,0,0,0,0,0,0,0,0,0,0,0,0,0,0,0,0,0,0,0,0],"sum_hessian":[1.2946014E4,1.2325022E4,6.2099054E2,4.932781E3,7.392242E3,5.0797205E2,1.13018524E2,4.6500205E3,2.8276007E2,6.842562E3,5.496803E2,4.2783908E2,8.0132965E1,3.4754255E3,1.174595E3,1.9558449E2,8.717559E1,4.3346906E2,6.409093E3,5.124556E2,3.72247E1,3.29974E2,9.7865074E1,5.9951835E0,7.413779E1,8.175919E2,2.6578337E3,4.3789893E2,7.3669604E2,3.3467487E1,1.62117E2,6.020142E1,2.6974169E1,4.675639E3,1.7334539E3,2.4353712E2,8.643687E1,9.1371254E1,6.4938197E0],"tree_param":{"num_deleted":"0","num_feature":"14","num_nodes":"39","size_leaf_vector":"0"}},{"base_weights":[1.3960701E-1,-1.9645883E-1,1.347322E0,9.5389344E-2,-1.5702851E0,1.4860494E0,-3.440982E-1,-8.615659E-2,1.231077E0,1.1943127E0,-1.6015303E0,1.2859371E0,1.8066167E0,-1.1598909E0,8.119282E-1,1.2322052E0,-3.113982E-1,8.478745E-1,1.6563728E0,1.6214296E0,4.7536445E-1,-1.6204563E0,5.279171E-1,1.8835294E0,9.626142E-1,6.368171E-1,-1.2639729E0,1.9584966E-1,1.3791975E0,9.0229315E-1,1.2131428E0,-1.3574153E0,-2.9007456E-1,-9.9160254E-2,1.0756701E0],"categories":[],"categories_nodes":[],"categories_segments":[],"categories_sizes":[],"default_left":[1,1,1,1,1,1,1,1,1,1,1,1,0,1,1,0,0,0,0,0,0,0,0,0,1,0,1,1,0,0,0,0,0,0,0],"id":3,"left_children":[1,3,5,7,9,11,13,15,17,19,21,23,-1,25,27,-1,-1,-1,-1,-1,-1,-1,-1,-1,29,-1,31,33,-1,-1,-1,-1,-1,-1,-1],"loss_changes":[5.2583135E3,4.0643567E3,6.629053E2,1.7243263E3,1.5728516E2,1.6227734E2,2.0501007E2,2.141983E3,1.847915E2,4.684677E0,7.263623E1,3.0757983E2,0E0,2.5446182E1,3.0833134E1,0E0,0E0,0E0,0E0,0E0,0E0,0E0,0E0,0E0,1.3472046E1,0E0,1.0049149E1,1.216376E1,0E0,0E0,0E0,0E0,0E0,0E0,0E0],"parents":[2147483647,0,0,1,1,2,2,3,3,4,4,5,5,6,6,7,7,8,8,9,9,10,10,11,11,13,13,14,14,24,24,26,26,27,27],"right_children":[2,4,6,8,10,12,14,16,18,20,22,24,-1,26,28,-1,-1,-1,-1,-1,-1,-1,-1,-1,30,-1,32,34,-1,-1,-1,-1,-1,-1,-1],"split_conditions":[5E-1,5E-1,5E-1,3.6646075E0,2.4086208E0,3.8525867E0,3.712009E0,2.501629E0,3.8526127E0,2.0201867E0,3.990557E0,2.5899346E0,9.033083E-2,2.884716E0,3.8855128E0,6.161026E-2,-1.556991E-2,4.2393725E-2,8.281864E-2,8.107148E-2,2.3768222E-2,-8.102282E-2,2.6395855E-2,9.417647E-2,1.5E0,3.1840857E-2,1.5E0,1.5E0,6.895988E-2,4.511466E-2,6.065714E-2,-6.7870766E-2,-1.4503728E-2,-4.9580126E-3,5.3783506E-2],"split_indices":[7,0,0,5,5,5,5,5,5,5,5,5,0,5,5,0,0,0,0,0,0,0,0,0,7,0,7,7,0,0,0,0,0,0,0],"split_type":[0,0,0,0,0,0,0,0,0,0,0,0,0,0,0,0,0,0,0,0,0,0,0,0,0,0,0,0,0,0,0,0,0,0,0],"sum_hessian":[1.2952015E4,1.0133734E4,2.8182805E3,8.3596455E3,1.7740892E3,2.6049304E3,2.1334995E2,7.2090063E3,1.1506392E3,1.8958715E1,1.7551305E3,1.610143E3,9.9478754E2,1.25128334E2,8.822161E1,1.0505641E3,6.1584424E3,6.085459E2,5.4209326E2,1.0230983E1,8.727732E0,1.7401891E3,1.4941411E1,5.61806E2,1.0483369E3,6.2385297E0,1.188898E2,4.366565E1,4.4555965E1,8.526439E2,1.9569301E2,1.0766903E2,1.1220775E1,3.3944687E1,9.72096E0],"tree_param":{"num_deleted":"0","num_feature":"14","num_nodes":"35","size_leaf_vector":"0"}},{"base_weights":[1.4185199E-1,4.1600123E-1,-1.3724141E0,9.957498E-2,1.4171995E0,-5.222568E-1,-1.5720035E0,-7.3308915E-2,1.1847852E0,1.2170714E0,1.7317643E0,-7.8404754E-1,1.3395165E0,-1.5960313E0,6.0525566E-1,2.1377012E-1,-2.6150703E-1,1.0099207E0,1.7437743E0,1.3947128E0,9.1963184E-1,-8.790019E-1,1.1244355E0,-1.5987649E0,-6.426223E-1,1.3134677E0,-2.9958296E-1,1.9627109E-1,-4.6328178E-1,5.434505E-1,1.5367055E0,3.4530059E-1,1.7833881E0,1.8074199E0,8.517361E-1,2.552911E-2,1.1811779E0,7.782258E-2,-1.1736968E0,5.704546E-1,1.3356699E0,2.6798964E-1,-1.6131002E0],"categories":[],"categories_nodes":[],"categories_segments":[],"categories_sizes":[],"default_left":[1,1,1,1,1,1,1,1,1,1,0,1,0,1,0,1,1,1,1,1,1,1,1,1,0,0,0,0,0,0,0,0,0,0,0,0,0,0,0,0,0,0,0],"id":4,"left_children":[1,3,5,7,9,11,13,15,17,19,-1,21,-1,23,-1,25,27,29,31,33,35,37,39,41,-1,-1,-1,-1,-1,-1,-1,-1,-1,-1,-1,-1,-1,-1,-1,-1,-1,-1,-1],"loss_changes":[5.3751807E3,3.4725977E3,3.3494238E2,1.5635372E3,1.6121094E2,1.8748492E2,8.60686E1,3.8852365E2,1.0814148E2,8.257788E1,0E0,6.2638077E1,0E0,1.8635254E0,0E0,1.6084364E3,4.014057E2,2.1367487E2,1.3512695E1,2.2243481E2,1.4252716E2,9.057294E1,2.3965454E-1,4.3373047E1,0E0,0E0,0E0,0E0,0E0,0E0,0E0,0E0,0E0,0E0,0E0,0E0,0E0,0E0,0E0,0E0,0E0,0E0,0E0],"parents":[2147483647,0,0,1,1,2,2,3,3,4,4,5,5,6,6,7,7,8,8,9,9,11,11,13,13,15,15,16,16,17,17,18,18,19,19,20,20,21,21,22,22,23,23],"right_children":[2,4,6,8,10,12,14,16,18,20,-1,22,-1,24,-1,26,28,30,32,34,36,38,40,42,-1,-1,-1,-1,-1,-1,-1,-1,-1,-1,-1,-1,-1,-1,-1,-1,-1,-1,-1],"split_conditions":[5E-1,5E-1,5E-1,3.666213E0,3.852333E0,3.858389E0,3.9984744E0,5E-1,5E-1,5E-1,8.658822E-2,5E-1,6.6975825E-2,5E-1,3.0262783E-2,2.501629E0,2.9742475E0,3.8528666E0,5E-1,2.6440217E0,3.424326E0,2.9489574E0,3.4045506E0,2.501629E0,-3.2131117E-2,6.567339E-2,-1.4979148E-2,9.813555E-3,-2.316409E-2,2.7172524E-2,7.6835275E-2,1.726503E-2,8.9169405E-2,9.0371E-2,4.2586807E-2,1.2764556E-3,5.9058893E-2,3.891129E-3,-5.8684837E-2,2.852273E-2,6.6783495E-2,1.3399482E-2,-8.065501E-2],"split_indices":[0,7,2,5,5,5,5,2,10,2,0,10,0,10,0,5,5,5,2,5,5,5,5,5,0,0,0,0,0,0,0,0,0,0,0,0,0,0,0,0,0,0,0],"split_type":[0,0,0,0,0,0,0,0,0,0,0,0,0,0,0,0,0,0,0,0,0,0,0,0,0,0,0,0,0,0,0,0,0,0,0,0,0,0,0,0,0,0,0],"sum_hessian":[1.2943515E4,1.0960665E4,1.9828492E3,8.330219E3,2.6304463E3,3.784716E2,1.6043776E3,7.1870317E3,1.143187E3,1.6137958E3,1.0166506E3,3.328761E2,4.5595474E1,1.5874387E3,1.6938887E1,2.8455706E3,4.3414614E3,8.751976E2,2.679894E2,1.00553845E3,6.0825726E2,3.1817685E2,1.4699273E1,1.5814459E3,5.9928284E0,9.0467224E2,1.9408983E3,1.3280336E3,3.013428E3,4.6642722E2,4.087704E2,7.986943E0,2.6000247E2,5.68551E2,4.3698746E2,1.3824396E2,4.700133E2,7.518767E1,2.4298917E2,6.2314076E0,8.467866E0,1.1728962E1,1.5697169E3],"tree_param":{"num_deleted":"0","num_feature":"14","num_nodes":"43","size_leaf_vector":"0"}},{"base_weights":[1.3260777E-1,-1.0602376E-1,1.2994035E0,3.6466867E-1,-3.8629094E-1,9.276278E-1,1.6586909E0,3.5667783E-1,1.4576528E0,-4.0466052E-1,1.9079677E0,8.461427E-1,9.9444604E-1,1.3626447E0,1.7052487E0,9.14758E-1,-8.809424E-1,5.182238E-1,-9.373176E-1,-4.0949598E-1,8.9851457E-1,1.0252582E0,-8.778982E-1,1.4653594E0,4.7835225E-1,1.7112842E0,8.6258996E-1,-0E0,-6.6841567E-1,7.215268E-1,9.5123017E-1,7.5370115E-1,1.1313401E0],"categories":[],"categories_nodes":[],"categories_segments":[],"categories_sizes":[],"default_left":[1,1,1,1,1,1,1,1,0,1,0,1,1,1,1,0,0,0,0,1,1,1,0,0,0,0,0,0,0,0,0,0,0],"id":5,"left_children":[1,3,5,7,9,11,13,15,-1,17,-1,19,21,23,25,-1,-1,-1,-1,27,29,31,-1,-1,-1,-1,-1,-1,-1,-1,-1,-1,-1],"loss_changes":[3.5986592E3,1.4158766E3,2.89792E2,3.376422E1,2.8490027E2,4.0305786E0,1.0390869E1,2.7501484E3,0E0,3.2824385E3,0E0,3.380371E1,3.5452515E1,1.3076263E1,1.6411133E0,0E0,0E0,0E0,0E0,2.2054117E0,2.963745E0,1.4658813E1,0E0,0E0,0E0,0E0,0E0,0E0,0E0,0E0,0E0,0E0,0E0],"parents":[2147483647,0,0,1,1,2,2,3,3,4,4,5,5,6,6,7,7,9,9,11,11,12,12,13,13,14,14,19,19,20,20,21,21],"right_children":[2,4,6,8,10,12,14,16,-1,18,-1,20,22,24,26,-1,-1,-1,-1,28,30,32,-1,-1,-1,-1,-1,-1,-1,-1,-1,-1,-1],"split_conditions":[5E-1,5E-1,3.5E0,5E-1,5E-1,1.5E0,4.5E0,4.5E0,7.2882645E-2,4.5E0,9.539839E-2,3.5E0,1.15E1,7.5E0,1.35E1,4.5737904E-2,-4.404712E-2,2.5911191E-2,-4.686588E-2,5E-1,5E-1,5E-1,-4.3894913E-2,7.3267974E-2,2.3917614E-2,8.556421E-2,4.31295E-2,-0E0,-3.3420783E-2,3.607634E-2,4.7561508E-2,3.768506E-2,5.656701E-2],"split_indices":[8,2,8,13,13,8,8,12,0,12,0,12,12,12,12,0,0,0,0,2,2,2,0,0,0,0,0,0,0,0,0,0,0],"split_type":[0,0,0,0,0,0,0,0,0,0,0,0,0,0,0,0,0,0,0,0,0,0,0,0,0,0,0,0,0,0,0,0,0],"sum_hessian":[1.2921211E4,1.072872E4,2.192491E3,4.0037295E3,6.72499E3,1.0811766E3,1.1113145E3,3.9773945E3,2.6334738E1,6.6732495E3,5.174036E1,5.001116E2,5.8106506E2,1.5953906E2,9.517754E2,2.7416877E3,1.2357069E3,2.4420344E3,4.2312153E3,1.9401613E1,4.8071E2,5.7260034E2,8.464725E0,1.416576E2,1.7881472E1,9.428421E2,8.933272E0,8.4328375E0,1.0968776E1,1.17496796E2,3.632132E2,1.6566652E2,4.069338E2],"tree_param":{"num_deleted":"0","num_feature":"14","num_nodes":"33","size_leaf_vector":"0"}},{"base_weights":[1.2923503E-1,-1.7348611E-1,1.2131978E0,4.092103E-1,-9.3982E-1,1.5966251E0,5.668458E-1,3.3376595E-1,1.4324296E0,-1.0831809E0,6.143406E-1,-2.5003932E-2,1.536537E0,4.029756E-2,1.5703568E0,-1.1768707E-1,1.6469299E0,6.217988E-1,-1.1225786E0,-2.5133598E-1,1.4122694E0,-3.091069E-1,6.164821E-1,1.6356461E0,-9.610807E-2,4.4455993E-1,-2.7709886E-1,1.699225E0,1.0518994E0,-7.968039E-1,1.2898368E0,6.9597983E-1,4.5736244E-1,-1.3231832E0,-9.767093E-1,-5.590346E-1,1.5938424E0,1.5460687E0,4.585162E-1,-7.055515E-1,-1.339086E-1,1.6151048E0,-2.1849877E-1,1.3892261E0,1.6921675E0,-1.2512165E0,9.719984E-1],"categories":[],"categories_nodes":[],"categories_segments":[],"categories_sizes":[],"default_left":[1,1,1,1,1,0,1,1,1,1,1,1,1,1,1,1,0,1,1,1,1,1,1,1,1,0,0,0,0,0,0,0,0,0,0,0,0,0,0,0,0,0,0,0,0,0,0],"id":6,"left_children":[1,3,5,7,9,-1,11,13,15,17,19,21,23,25,27,29,-1,31,33,35,37,39,41,43,45,-1,-1,-1,-1,-1,-1,-1,-1,-1,-1,-1,-1,-1,-1,-1,-1,-1,-1,-1,-1,-1,-1],"loss_changes":[4.220847E3,4.4909453E3,6.938877E2,4.399195E2,9.692388E2,0E0,6.021133E2,1.9317074E3,1.307597E2,2.6865088E2,2.5507565E2,1.1938676E2,6.480182E1,5.526146E2,6.436499E1,4.924138E1,0E0,3.5894394E-1,1.1097998E2,1.0284313E2,2.2869904E1,3.1268253E1,1.6847997E2,2.1331787E-1,3.279312E1,0E0,0E0,0E0,0E0,0E0,0E0,0E0,0E0,0E0,0E0,0E0,0E0,0E0,0E0,0E0,0E0,0E0,0E0,0E0,0E0,0E0,0E0],"parents":[2147483647,0,0,1,1,2,2,3,3,4,4,6,6,7,7,8,8,9,9,10,10,11,11,12,12,13,13,14,14,15,15,17,17,18,18,19,19,20,20,21,21,22,22,23,23,24,24],"right_children":[2,4,6,8,10,-1,12,14,16,18,20,22,24,26,28,30,-1,32,34,36,38,40,42,44,46,-1,-1,-1,-1,-1,-1,-1,-1,-1,-1,-1,-1,-1,-1,-1,-1,-1,-1,-1,-1,-1,-1],"split_conditions":[5E-1,7.5E0,7.5E0,2.5E0,5E-1,7.983126E-2,5E-1,3.3256116E0,3.3225799E0,2.7962627E0,3.6677334E0,3.6901884E0,1.65E1,4.5E0,6.5E0,4.5E0,8.234649E-2,8.5E0,1.05E1,4.5E0,1.25E1,1.05E1,1.25E1,1.05E1,3.5E0,2.2227997E-2,-1.3854943E-2,8.496125E-2,5.259497E-2,-3.9840195E-2,6.449184E-2,3.479899E-2,2.2868123E-2,-6.615916E-2,-4.8835468E-2,-2.795173E-2,7.969212E-2,7.730343E-2,2.292581E-2,-3.5277575E-2,-6.6954303E-3,8.075524E-2,-1.0924938E-2,6.946131E-2,8.4608376E-2,-6.256083E-2,4.859992E-2],"split_indices":[7,1,1,8,8,0,8,5,5,5,5,5,1,1,1,8,0,1,1,8,1,1,1,1,8,0,0,0,0,0,0,0,0,0,0,0,0,0,0,0,0,0,0,0,0,0,0],"split_type":[0,0,0,0,0,0,0,0,0,0,0,0,0,0,0,0,0,0,0,0,0,0,0,0,0,0,0,0,0,0,0,0,0,0,0,0,0,0,0,0,0,0,0,0,0,0,0],"sum_hessian":[1.2859407E4,1.0053365E4,2.8060422E3,5.711398E3,4.3419673E3,1.7592998E3,1.0467424E3,5.321762E3,3.896359E2,3.975889E3,3.6607858E2,6.5115576E2,3.9558667E2,4.302772E3,1.01899005E3,4.741575E1,3.4222015E2,8.907267E1,3.8868162E3,1.7618231E2,1.8989629E2,4.5211435E2,1.9904138E2,3.7300134E2,2.2585312E1,1.8922102E3,2.410562E3,8.1232916E2,2.0666089E2,3.2617134E1,1.4798615E1,5.6507603E1,3.256507E1,1.6293079E3,2.2575083E3,1.5224283E2,2.3939486E1,1.6535254E2,2.454374E1,1.3653445E2,3.155799E2,8.984248E1,1.091989E2,7.9467705E1,2.9353363E2,1.073099E1,1.1854322E1],"tree_param":{"num_deleted":"0","num_feature":"14","num_nodes":"47","size_leaf_vector":"0"}},{"base_weights":[1.1883334E-1,3.7167367E-1,-1.2664114E0,9.2312425E-1,-3.0758676E-1,-4.7502798E-1,-1.4514945E0,1.58837E0,8.1403947E-1,-4.8493937E-1,-1.4757581E-1,-1.3473323E-1,-6.3519925E-1,-1.3436395E0,-1.4921216E0,-7.850208E-1,1.6137412E0,-4.324269E-2,9.294747E-1,-2.3731382E-1,-9.3482584E-1,3.126536E-1,-4.7910967E-1,1.0511088E0,-2.9575336E-1,-8.334166E-1,-1.084407E-1,-1.3752838E0,1.0121711E0,-1.4965868E0,-5.478888E-1,3.8927075E-1,-1.3127618E0,1.0880902E0,7.029764E-1,-3.679222E-1,-1.8054606E-1,-8.226555E-1,5.000406E-1,-8.129191E-1,6.948415E-2,-6.9636804E-1,-1.6031425E-1,-9.1990817E-1,1.2784649E0,-5.263201E-1,1.4969174E0],"categories":[],"categories_nodes":[],"categories_segments":[],"categories_sizes":[],"default_left":[1,1,1,1,1,1,1,1,1,1,1,1,1,1,1,0,0,1,1,1,0,1,1,0,1,1,1,0,0,0,0,0,0,0,0,0,0,0,0,0,0,0,0,0,0,0,0],"id":7,"left_children":[1,3,5,7,9,11,13,15,17,19,21,23,25,27,29,-1,-1,31,33,35,-1,37,39,-1,41,43,45,-1,-1,-1,-1,-1,-1,-1,-1,-1,-1,-1,-1,-1,-1,-1,-1,-1,-1,-1,-1],"loss_changes":[4.47336E3,4.0461636E3,2.8718286E2,4.2978955E2,1.3716559E2,2.0286324E1,2.7028809E0,5.3053223E1,5.0743066E2,2.5508514E2,3.8908676E2,2.4092005E1,2.6395126E1,3.693683E1,2.9663086E0,0E0,0E0,3.361181E2,1.6059766E2,1.0807236E1,0E0,2.2799559E2,2.715738E2,0E0,5.670665E0,3.6136673E1,4.9963818E1,0E0,0E0,0E0,0E0,0E0,0E0,0E0,0E0,0E0,0E0,0E0,0E0,0E0,0E0,0E0,0E0,0E0,0E0,0E0,0E0],"parents":[2147483647,0,0,1,1,2,2,3,3,4,4,5,5,6,6,7,7,8,8,9,9,10,10,11,11,12,12,13,13,14,14,17,17,18,18,19,19,21,21,22,22,24,24,25,25,26,26],"right_children":[2,4,6,8,10,12,14,16,18,20,22,24,26,28,30,-1,-1,32,34,36,-1,38,40,-1,42,44,46,-1,-1,-1,-1,-1,-1,-1,-1,-1,-1,-1,-1,-1,-1,-1,-1,-1,-1,-1,-1],"split_conditions":[5E-1,4.5E0,5E-1,2.5E0,6.5E0,4.5E0,5.5E0,3.5E0,3.5E0,5.5E0,7.5E0,2.5E0,9.5E0,1.15E1,2.45E1,-3.925104E-2,8.068706E-2,5E-1,5E-1,5E-1,-4.6741292E-2,5E-1,1.05E1,5.255544E-2,3.5E0,5E-1,5E-1,-6.8764195E-2,5.0608557E-2,-7.482934E-2,-2.7394442E-2,1.9463537E-2,-6.563809E-2,5.440451E-2,3.514882E-2,-1.839611E-2,-9.027303E-3,-4.1132774E-2,2.500203E-2,-4.0645953E-2,3.4742076E-3,-3.4818403E-2,-8.015713E-3,-4.599541E-2,6.392325E-2,-2.6316006E-2,7.484587E-2],"split_indices":[0,12,2,12,12,12,12,1,12,12,12,1,12,1,1,0,0,2,2,2,0,2,12,0,12,3,3,0,0,0,0,0,0,0,0,0,0,0,0,0,0,0,0,0,0,0,0],"split_type":[0,0,0,0,0,0,0,0,0,0,0,0,0,0,0,0,0,0,0,0,0,0,0,0,0,0,0,0,0,0,0,0,0,0,0,0,0,0,0,0,0,0,0,0,0,0,0],"sum_hessian":[1.276763E4,1.07982295E4,1.9693998E3,5.9595E3,4.8387295E3,3.7474182E2,1.594658E3,8.3560223E2,5.123898E3,2.2927783E3,2.5459512E3,1.2131231E2,2.534295E2,4.5564316E2,1.1390149E3,8.162933E0,8.274393E2,6.0811365E2,4.515784E3,1.480927E3,8.1185144E2,1.0659838E3,1.4799675E3,1.3107167E1,1.0820514E2,1.8315485E2,7.027466E1,4.5046713E2,5.1760044E0,1.132384E3,6.630854E0,4.5455792E2,1.5355571E2,2.6511497E3,1.8646345E3,4.4480908E2,1.0361179E3,1.4998225E2,9.160015E2,9.196163E2,5.603512E2,2.505971E1,8.314543E1,1.7707881E2,6.0760417E0,5.68762E1,1.3398454E1],"tree_param":{"num_deleted":"0","num_feature":"14","num_nodes":"47","size_leaf_vector":"0"}},{"base_weights":[1.1509312E-1,1.0476298E-1,1.7041407E0,-1.12001754E-1,1.1724495E0,-1.2082835E-1,1.8380603E0,8.093612E-1,1.5287828E0,1.1752458E0,-3.1008863E-1,-4.8501426E-1,1.3075403E0,8.075053E-1,1.5613791E0,-4.862751E-1,1.410321E0],"categories":[],"categories_nodes":[],"categories_segments":[],"categories_sizes":[],"default_left":[1,1,0,1,1,1,0,1,1,0,0,0,0,1,0,0,0],"id":8,"left_children":[1,3,-1,5,7,9,-1,11,13,-1,-1,-1,-1,15,-1,-1,-1],"loss_changes":[2.0800826E2,2.9221833E3,0E0,1.809319E2,2.7297534E2,2.564104E3,0E0,6.847332E2,2.2468994E1,0E0,0E0,0E0,0E0,4.0982277E1,0E0,0E0,0E0],"parents":[2147483647,0,0,1,1,3,3,4,4,5,5,7,7,8,8,13,13],"right_children":[2,4,-1,6,8,10,-1,12,14,-1,-1,-1,-1,16,-1,-1,-1],"split_conditions":[5E-1,5E-1,8.520704E-2,5E-1,3.5E0,2.501629E0,9.1903016E-2,3.4222503E0,3.324796E0,5.876229E-2,-1.5504432E-2,-2.4250714E-2,6.537702E-2,5.5E0,7.806896E-2,-2.4313755E-2,7.051605E-2],"split_indices":[13,8,0,6,8,5,0,5,5,0,0,0,0,8,0,0,0],"split_type":[0,0,0,0,0,0,0,0,0,0,0,0,0,0,0,0,0],"sum_hessian":[1.2702541E4,1.2622678E4,7.9863235E1,1.0493878E4,2.1288003E3,1.0448512E4,4.536593E1,1.0577859E3,1.0710143E3,1.3299473E3,9.118564E3,2.9393423E2,7.638517E2,4.867022E1,1.0223441E3,1.5539551E1,3.313067E1],"tree_param":{"num_deleted":"0","num_feature":"14","num_nodes":"17","size_leaf_vector":"0"}},{"base_weights":[1.0948071E-1,3.4388423E-1,-1.201382E0,1.5894488E-1,1.1621907E0,-1.3243626E0,1.1619556E0,1.1455089E0,-9.070356E-3,-3.3963782E-1,1.4354374E0,1.2637712E0,-1.3566992E0,2.191987E-1,1.6014049E0,1.6033612E0,9.4321537E-1,-1.66568E-1,9.0040904E-1,-8.4120023E-1,2.2552569E-1,8.506806E-1,1.4960953E0,1.5458103E0,6.06937E-1,-9.893597E-1,-1.4268616E0,-4.065865E-1,1.1591908E0,-9.568841E-1,7.6918787E-1,1.0122822E-1,9.4759285E-1,7.7078766E-1,1.4381442E0,-1.0221575E0,2.811898E-1,-1.4345896E0,-8.403396E-1],"categories":[],"categories_nodes":[],"categories_segments":[],"categories_sizes":[],"default_left":[1,1,1,1,1,1,1,1,1,1,1,1,1,1,0,0,0,0,0,1,1,1,0,0,0,1,1,0,0,0,0,0,0,0,0,0,0,0,0],"id":9,"left_children":[1,3,5,7,9,11,13,15,17,19,21,23,25,27,-1,-1,-1,-1,-1,29,31,33,-1,-1,-1,35,37,-1,-1,-1,-1,-1,-1,-1,-1,-1,-1,-1,-1],"loss_changes":[3.880164E3,1.6206017E3,5.598374E2,1.4487996E3,8.112456E2,1.5590503E2,3.8794327E1,1.14525024E2,1.0701998E3,8.702911E1,5.648169E1,2.2576637E0,4.333496E1,2.0334957E1,0E0,0E0,0E0,0E0,0E0,3.1736816E1,1.27269535E1,5.1566772E0,0E0,0E0,0E0,1.2961395E1,4.191162E0,0E0,0E0,0E0,0E0,0E0,0E0,0E0,0E0,0E0,0E0,0E0,0E0],"parents":[2147483647,0,0,1,1,2,2,3,3,4,4,5,5,6,6,7,7,8,8,9,9,10,10,11,11,12,12,13,13,19,19,20,20,21,21,25,25,26,26],"right_children":[2,4,6,8,10,12,14,16,18,20,22,24,26,28,-1,-1,-1,-1,-1,30,32,34,-1,-1,-1,36,38,-1,-1,-1,-1,-1,-1,-1,-1,-1,-1,-1,-1],"split_conditions":[5E-1,5E-1,1.5E0,2.501629E0,3.418839E0,2.4086208E0,4.5E0,1.6352189E0,3.6422606E0,3.1814194E0,3.5921295E0,2.0201867E0,5E-1,3.7864695E0,8.007025E-2,8.016806E-2,4.716077E-2,-8.3284E-3,4.5020454E-2,4.5E0,3.5E0,4.5E0,7.480477E-2,7.729052E-2,3.034685E-2,5E-1,5E-1,-2.0329325E-2,5.7959538E-2,-4.7844205E-2,3.8459394E-2,5.0614113E-3,4.7379643E-2,3.8539384E-2,7.1907215E-2,-5.110788E-2,1.40594905E-2,-7.172948E-2,-4.201698E-2],"split_indices":[0,8,8,5,5,5,8,5,5,5,5,5,2,5,0,0,0,0,0,8,8,8,0,0,0,8,8,0,0,0,0,0,0,0,0,0,0,0,0],"split_type":[0,0,0,0,0,0,0,0,0,0,0,0,0,0,0,0,0,0,0,0,0,0,0,0,0,0,0,0,0,0,0,0,0,0,0,0,0,0,0],"sum_hessian":[1.262342E4,1.0709872E4,1.9135474E3,8.737651E3,1.9722212E3,1.8197737E3,9.377367E1,1.269903E3,7.467748E3,3.0346344E2,1.6687577E3,2.1477928E1,1.7982958E3,3.083915E1,6.2934517E1,3.847498E2,8.851531E2,6.366912E3,1.1008362E3,1.6035458E2,1.4310886E2,1.5981339E2,1.5089443E3,1.3025702E1,8.452225E0,2.9346606E2,1.5048297E3,1.9131308E1,1.1707842E1,1.5042253E2,9.932049E0,1.24155464E2,1.8953388E1,1.4490163E2,1.4911767E1,2.8653906E2,6.9269915E0,1.4822374E3,2.2592194E1],"tree_param":{"num_deleted":"0","num_feature":"14","num_nodes":"39","size_leaf_vector":"0"}},{"base_weights":[1.0478704E-1,-1.01609685E-1,1.2330791E0,4.3852744E-1,-8.4307986E-1,1.4113556E0,-7.027077E-1,6.578244E-1,2.1783867E-1,-8.545283E-1,1.4659432E0,-2.9297942E-1,-8.301435E-1,1.1801763E0,3.37892E-1,-2.834704E-1,1.5223055E0,8.3887494E-1,-8.876559E-1,-5.3069025E-1,1.0398083E0,-9.0073305E-1,5.7506084E-1,1.549018E0,1.0009236E0,2.9827014E-2,1.4254271E0,2.2786856E-2,-7.027721E-1,1.7417517E0,1.437177E0,-2.8321706E-2,1.5053184E0,-1.0137655E0,-4.2845345E-1,1.849404E-1,-8.9515835E-1,-9.8224866E-1,-5.0681496E-1],"categories":[],"categories_nodes":[],"categories_segments":[],"categories_sizes":[],"default_left":[1,1,1,1,1,0,1,1,1,1,0,1,1,1,1,1,1,1,1,1,0,1,0,0,0,0,0,0,0,0,0,0,0,0,0,0,0,0,0],"id":10,"left_children":[1,3,5,7,9,-1,11,13,15,17,-1,19,21,23,25,27,29,31,33,35,-1,37,-1,-1,-1,-1,-1,-1,-1,-1,-1,-1,-1,-1,-1,-1,-1,-1,-1],"loss_changes":[2.9220527E3,4.249142E3,6.716848E2,2.966985E2,1.2064526E2,0E0,8.012222E0,5.133801E2,2.0037943E3,2.5117041E2,0E0,1.4486292E1,1.34195175E1,7.3873535E1,6.4020325E2,2.84417E2,1.056604E1,5.014787E1,2.5183936E2,1.0149523E1,0E0,2.6896515E0,0E0,0E0,0E0,0E0,0E0,0E0,0E0,0E0,0E0,0E0,0E0,0E0,0E0,0E0,0E0,0E0,0E0],"parents":[2147483647,0,0,1,1,2,2,3,3,4,4,6,6,7,7,8,8,9,9,11,11,12,12,13,13,14,14,15,15,16,16,17,17,18,18,19,19,21,21],"right_children":[2,4,6,8,10,-1,12,14,16,18,-1,20,22,24,26,28,30,32,34,36,-1,38,-1,-1,-1,-1,-1,-1,-1,-1,-1,-1,-1,-1,-1,-1,-1,-1,-1],"split_conditions":[3.784276E0,7.5E0,1.65E1,5E-1,5E-1,7.056778E-2,5E-1,2.501629E0,3.3256116E0,2.7525318E0,7.3297165E-2,4.1089735E0,4.111434E0,1.6247301E0,3.3225012E0,2.9742475E0,3.3924475E0,2.7206113E0,3.594694E0,3.838574E0,5.1990416E-2,3.9517486E0,2.8753042E-2,7.74509E-2,5.0046183E-2,1.4913507E-3,7.127135E-2,1.1393428E-3,-3.5138603E-2,8.708759E-2,7.1858846E-2,-1.4160853E-3,7.526592E-2,-5.0688274E-2,-2.1422673E-2,9.24702E-3,-4.4757918E-2,-4.9112435E-2,-2.5340749E-2],"split_indices":[5,1,1,2,3,0,2,5,5,5,0,5,5,5,5,5,5,5,5,5,0,5,0,0,0,0,0,0,0,0,0,0,0,0,0,0,0,0,0],"split_type":[0,0,0,0,0,0,0,0,0,0,0,0,0,0,0,0,0,0,0,0,0,0,0,0,0,0,0,0,0,0,0,0,0,0,0,0,0,0,0],"sum_hessian":[1.2544127E4,1.0605763E4,1.9383645E3,6.136328E3,4.4694346E3,1.7754479E3,1.6291667E2,3.0756555E3,3.0606726E3,4.4486807E3,2.075399E1,4.040153E1,1.22515144E2,1.1660924E3,1.909563E3,2.2120618E3,8.486108E2,8.43673E1,4.3643135E3,3.537148E1,5.0300503E0,1.1740647E2,5.1086693E0,3.7618634E2,7.8990607E2,1.4897188E3,4.1984433E2,1.2793093E3,9.3275244E2,2.2597989E2,6.2263086E2,3.742878E1,4.693852E1,3.4219263E3,9.4238715E2,1.2175583E1,2.3195898E1,9.459126E1,2.2815212E1],"tree_param":{"num_deleted":"0","num_feature":"14","num_nodes":"39","size_leaf_vector":"0"}},{"base_weights":[9.495099E-2,-7.5581545E-1,8.92943E-1,2.7141845E-1,-1.2725934E0,7.2591066E-1,1.3886801E0,1.4113525E0,-1.1215669E-1,-1.4385622E0,-9.097626E-1,1.2446768E0,-3.8551965E-1,1.4628606E0,-4.4816905E-1,1.521049E0,1.132107E0,-5.897538E-1,1.0099694E0,-1.4684222E0,1.5597731E0,5.3147197E-1,-9.788919E-1,1.044947E0,1.5520397E0,-8.6937976E-1,-6.501685E-2,-7.4330765E-1,1.2303567E0,2.1718065E-1,1.523574E0,-1.5143646E-1,-1.4396746E0,1.2533482E0,-3.1813473E-1,-1.6001873E0,-1.4389066E0,2.5991425E-1,1.5546429E0,-7.074719E-1,-1.0868863E0,1.36746E0,4.782378E-1,1.7117014E0,1.5153233E0,-6.203115E-1,-9.112271E-1,9.565109E-1,-1.3940232E-1,-8.889097E-1,-1.0128729E-1],"categories":[],"categories_nodes":[],"categories_segments":[],"categories_sizes":[],"default_left":[1,1,1,1,1,1,1,1,1,1,1,1,1,0,1,0,1,1,1,1,0,1,1,1,1,1,1,1,0,0,0,0,0,0,0,0,0,0,0,0,0,0,0,0,0,0,0,0,0,0,0],"id":11,"left_children":[1,3,5,7,9,11,13,15,17,19,21,23,25,-1,27,-1,29,31,33,35,-1,37,39,41,43,45,47,49,-1,-1,-1,-1,-1,-1,-1,-1,-1,-1,-1,-1,-1,-1,-1,-1,-1,-1,-1,-1,-1,-1,-1],"loss_changes":[8.455997E3,3.2009705E3,5.299507E2,8.833743E2,2.3869092E2,2.7752605E3,2.217959E2,1.1870483E1,8.1182367E2,2.5065039E2,1.2707507E2,1.9791211E2,2.3746938E2,0E0,3.36151E1,0E0,5.3434937E1,3.9518054E2,1.4708292E2,5.6796875E0,0E0,1.5433765E1,3.367517E1,3.6313403E2,2.040039E0,5.0783997E0,7.041372E1,4.950987E0,0E0,0E0,0E0,0E0,0E0,0E0,0E0,0E0,0E0,0E0,0E0,0E0,0E0,0E0,0E0,0E0,0E0,0E0,0E0,0E0,0E0,0E0,0E0],"parents":[2147483647,0,0,1,1,2,2,3,3,4,4,5,5,6,6,7,7,8,8,9,9,10,10,11,11,12,12,14,14,16,16,17,17,18,18,19,19,21,21,22,22,23,23,24,24,25,25,26,26,27,27],"right_children":[2,4,6,8,10,12,14,16,18,20,22,24,26,-1,28,-1,30,32,34,36,-1,38,40,42,44,46,48,50,-1,-1,-1,-1,-1,-1,-1,-1,-1,-1,-1,-1,-1,-1,-1,-1,-1,-1,-1,-1,-1,-1,-1],"split_conditions":[5E-1,2.8073726E0,3.8164153E0,2.0272927E0,7.5E0,5.5E0,1.15E1,1.6247301E0,2.8036997E0,5E-1,3.0988383E0,3.3372426E0,3.484706E0,7.314303E-2,4.1089106E0,7.605245E-2,1.975106E0,2.5899346E0,5E-1,2.960869E0,7.7988654E-2,3.081391E0,3.418839E0,2.9803376E0,3.3816004E0,3.18931E0,3.5033987E0,3.9846916E0,6.1517835E-2,1.0859033E-2,7.61787E-2,-7.5718234E-3,-7.198373E-2,6.2667415E-2,-1.5906736E-2,-8.000936E-2,-7.194533E-2,1.2995712E-2,7.7732146E-2,-3.5373595E-2,-5.4344315E-2,6.8373E-2,2.3911892E-2,8.558507E-2,7.576617E-2,-3.1015575E-2,-4.5561355E-2,4.7825545E-2,-6.970116E-3,-4.4445485E-2,-5.0643645E-3],"split_indices":[9,5,5,5,12,12,12,5,5,13,5,5,5,0,5,0,5,5,2,5,0,5,5,5,5,5,5,5,0,0,0,0,0,0,0,0,0,0,0,0,0,0,0,0,0,0,0,0,0,0,0],"split_type":[0,0,0,0,0,0,0,0,0,0,0,0,0,0,0,0,0,0,0,0,0,0,0,0,0,0,0,0,0,0,0,0,0,0,0,0,0,0,0,0,0,0,0,0,0,0,0,0,0,0,0],"sum_hessian":[1.2451341E4,6.0263857E3,6.4249546E3,2.0172732E3,4.0091128E3,4.809563E3,1.6153915E3,5.0660693E2,1.5106663E3,2.7465562E3,1.2625565E3,3.2789468E3,1.5306163E3,1.5531305E3,6.226097E1,3.5708173E2,1.495252E2,1.0603851E3,4.502811E2,2.7205168E3,2.603934E1,5.710877E1,1.2054478E3,1.9929912E3,1.2859557E3,6.083934E2,9.2222296E2,5.394893E1,8.312041E0,4.581428E1,1.0371092E2,7.01226E2,3.5915912E2,3.807039E2,6.9577194E1,4.7777734E2,2.2427395E3,4.718997E1,9.9188E0,3.4767398E2,8.577738E2,1.2682375E3,7.247536E2,2.2286517E2,1.0630906E3,9.2411476E1,5.159819E2,6.0895084E1,8.613279E2,4.3221893E1,1.07270355E1],"tree_param":{"num_deleted":"0","num_feature":"14","num_nodes":"51","size_leaf_vector":"0"}},{"base_weights":[9.7869754E-2,7.0358783E-1,-4.8908287E-1,1.4905427E0,5.7826734E-1,-3.917324E-1,-6.6355014E-1,2.6383585E-1,1.4525272E0,-6.4084405E-1,8.509397E-1,-9.912574E-1,3.3214E-1,3.9222676E-1,-1.185088E0,1.4733552E0,6.997818E-1,-4.7510424E-1,-1.2863703E0,9.881836E-1,-2.9544917E-1,-8.025781E-1,-1.2639714E0,5.289307E-1,-6.4226395E-1,-6.8324333E-1,5.364598E-1,-1.2167392E0,1.7262763E-1,-7.0739913E-1,8.54692E-2,-1.2974885E0,-2.2888547E-2,1.2268445E0,8.038651E-1,1.597292E-1,-5.9744954E-1,-9.190869E-1,-4.982134E-1,-1.2722374E0,-7.645638E-1,1.5945283E-1,7.955811E-1,-7.9618657E-1,1.2838198E0],"categories":[],"categories_nodes":[],"categories_segments":[],"categories_sizes":[],"default_left":[1,1,1,0,1,1,1,1,1,1,1,1,1,1,1,0,0,1,1,1,1,1,1,1,1,0,0,0,0,0,0,0,0,0,0,0,0,0,0,0,0,0,0,0,0],"id":12,"left_children":[1,3,5,-1,7,9,11,13,15,17,19,21,23,25,27,-1,-1,29,31,33,35,37,39,41,43,-1,-1,-1,-1,-1,-1,-1,-1,-1,-1,-1,-1,-1,-1,-1,-1,-1,-1,-1,-1],"loss_changes":[4.3853086E3,5.967224E2,1.0577283E2,0E0,1.4394316E3,1.247407E3,7.3173425E2,7.182208E2,1.9442383E1,3.5755066E2,1.0655652E2,8.452612E1,1.0731903E2,5.5044385E2,1.4032043E1,0E0,0E0,3.482403E2,9.418945E0,2.4292114E1,1.0328529E1,3.4485962E1,6.8200684E-1,4.5356384E1,2.9944042E1,0E0,0E0,0E0,0E0,0E0,0E0,0E0,0E0,0E0,0E0,0E0,0E0,0E0,0E0,0E0,0E0,0E0,0E0,0E0,0E0],"parents":[2147483647,0,0,1,1,2,2,4,4,5,5,6,6,7,7,8,8,9,9,10,10,11,11,12,12,13,13,14,14,17,17,18,18,19,19,20,20,21,21,22,22,23,23,24,24],"right_children":[2,4,6,-1,8,10,12,14,16,18,20,22,24,26,28,-1,-1,30,32,34,36,38,40,42,44,-1,-1,-1,-1,-1,-1,-1,-1,-1,-1,-1,-1,-1,-1,-1,-1,-1,-1,-1,-1],"split_conditions":[4.5E0,2.5E0,7.5E0,7.452714E-2,5E-1,5E-1,5E-1,5E-1,5E-1,5E-1,5E-1,5E-1,5E-1,3.5E0,5E-1,7.366776E-2,3.498909E-2,6.5E0,5E-1,5.5E0,5.5E0,1.05E1,1.55E1,1.05E1,5E-1,-3.4162167E-2,2.682299E-2,-6.083696E-2,8.631381E-3,-3.536996E-2,4.2734602E-3,-6.4874426E-2,-1.1444273E-3,6.134223E-2,4.0193256E-2,7.98646E-3,-2.9872477E-2,-4.5954343E-2,-2.4910672E-2,-6.361187E-2,-3.822819E-2,7.972642E-3,3.9779056E-2,-3.9809328E-2,6.419099E-2],"split_indices":[12,12,12,0,7,7,7,0,0,0,0,0,0,12,10,0,0,12,10,12,12,12,12,12,10,0,0,0,0,0,0,0,0,0,0,0,0,0,0,0,0,0,0,0,0],"split_type":[0,0,0,0,0,0,0,0,0,0,0,0,0,0,0,0,0,0,0,0,0,0,0,0,0,0,0,0,0,0,0,0,0,0,0,0,0,0,0,0,0,0,0,0,0],"sum_hessian":[1.2330646E4,6.0682065E3,6.26244E3,8.304949E2,5.2377114E3,4.024105E3,2.2383347E3,3.8542358E3,1.3834756E3,3.3529973E3,6.711078E2,1.6841477E3,5.541871E2,3.5419104E3,3.123254E2,1.344234E3,3.9241585E1,2.6708735E3,6.8212366E2,5.996784E2,7.142936E1,1.0003208E3,6.838269E2,4.6191553E2,9.227154E1,4.1787427E2,3.1240361E3,3.0548523E2,6.840155E0,1.8881156E3,7.827579E2,6.760418E2,6.081892E0,2.5615146E2,3.4352698E2,2.873329E1,4.2696068E1,7.2024713E2,2.8007364E2,6.694513E2,1.43756075E1,1.9512125E2,2.6679428E2,8.6577866E1,5.6936765E0],"tree_param":{"num_deleted":"0","num_feature":"14","num_nodes":"45","size_leaf_vector":"0"}},{"base_weights":[9.509787E-2,5.421356E-1,-5.109117E-1,6.5447444E-1,-9.4095933E-1,-2.830629E-1,-1.1595228E0,2.618027E-1,1.4394597E0,-1.2670065E0,8.8181436E-1,-7.007857E-1,7.2231907E-1,1.1410017E0,-1.2287223E0,9.9169433E-1,-2.7629253E-2,1.4897357E0,1.2057766E0,1.1533321E0,-1.3889568E0,4.993003E-1,1.0981866E0,6.95832E-1,-7.4113774E-1,1.3109977E0,-1.8428875E-2,3.4478694E-1,1.421072E0,-1.2622957E0,6.964952E-1,1.3650733E0,7.3924106E-1,1.5948552E-1,-4.043129E-1,1.5413868E0,1.4103677E0,6.3100153E-1,1.5129509E0,1.4468505E0,3.1539384E-1,-1.4527901E0,-3.5976347E-1,6.054049E-1,-1.5400833E-2,-3.0991527E-1,1.4068131E0,-9.037743E-1,-3.653907E-1,9.469333E-1,1.528743E0,-6.6948336E-1,8.9052355E-1,1.0535113E0,-3.8561442E-1,-1.2857815E0,7.132443E-1,3.7217587E-1,1.2152228E0],"categories":[],"categories_nodes":[],"categories_segments":[],"categories_sizes":[],"default_left":[1,1,1,1,1,1,1,1,1,1,1,1,1,1,1,1,1,1,1,1,1,1,0,1,1,1,1,1,0,1,1,0,0,0,0,0,0,0,0,0,0,0,0,0,0,0,0,0,0,0,0,0,0,0,0,0,0,0,0],"id":13,"left_children":[1,3,5,7,9,11,13,15,17,19,21,23,25,27,29,31,33,35,37,39,41,43,-1,45,47,49,51,53,-1,55,57,-1,-1,-1,-1,-1,-1,-1,-1,-1,-1,-1,-1,-1,-1,-1,-1,-1,-1,-1,-1,-1,-1,-1,-1,-1,-1,-1,-1],"loss_changes":[3.3158079E3,1.1747185E3,7.6708777E2,2.0176919E3,2.9747357E2,1.6170435E3,2.177284E2,9.2285376E2,2.1785645E1,1.2784772E2,5.0751762E0,1.5430054E2,4.9310468E2,7.856369E0,8.659119E1,1.14687744E2,2.2072246E2,2.6855469E0,6.803369E1,4.1514015E0,2.5242981E1,1.7964697E0,0E0,5.627844E1,1.6080212E2,4.67959E1,2.985074E2,7.738692E0,0E0,6.1737793E1,2.926918E0,0E0,0E0,0E0,0E0,0E0,0E0,0E0,0E0,0E0,0E0,0E0,0E0,0E0,0E0,0E0,0E0,0E0,0E0,0E0,0E0,0E0,0E0,0E0,0E0,0E0,0E0,0E0,0E0],"parents":[2147483647,0,0,1,1,2,2,3,3,4,4,5,5,6,6,7,7,8,8,9,9,10,10,11,11,12,12,13,13,14,14,15,15,16,16,17,17,18,18,19,19,20,20,21,21,23,23,24,24,25,25,26,26,27,27,29,29,30,30],"right_children":[2,4,6,8,10,12,14,16,18,20,22,24,26,28,30,32,34,36,38,40,42,44,-1,46,48,50,52,54,-1,56,58,-1,-1,-1,-1,-1,-1,-1,-1,-1,-1,-1,-1,-1,-1,-1,-1,-1,-1,-1,-1,-1,-1,-1,-1,-1,-1,-1,-1],"split_conditions":[7.5E0,5E-1,5E-1,3.3225012E0,3.475719E0,3.6422606E0,2.950261E0,2.501629E0,6.5E0,2.3452253E0,3.7255657E0,2.7525318E0,1.25E1,9.5E0,3.989954E0,2.029407E0,2.9997907E0,3.851996E0,3.4594512E0,2.0201867E0,3.3263412E0,3.6838632E0,5.490933E-2,2.6959472E0,3.4594615E0,3.7745166E0,3.879922E0,2.8088589E0,7.10536E-2,5E-1,4.129526E0,6.8253666E-2,3.6962055E-2,7.974276E-3,-2.0215645E-2,7.706934E-2,7.051839E-2,3.1550076E-2,7.564755E-2,7.234253E-2,1.5769692E-2,-7.263951E-2,-1.7988173E-2,3.0270247E-2,-7.7004166E-4,-1.5495764E-2,7.0340656E-2,-4.5188718E-2,-1.8269535E-2,4.7346666E-2,7.643715E-2,-3.347417E-2,4.452618E-2,5.2675564E-2,-1.9280722E-2,-6.428908E-2,3.5662215E-2,1.8608794E-2,6.0761143E-2],"split_indices":[1,0,0,5,5,5,5,5,1,5,5,5,1,1,5,5,5,5,5,5,5,5,0,5,5,5,5,5,0,10,5,0,0,0,0,0,0,0,0,0,0,0,0,0,0,0,0,0,0,0,0,0,0,0,0,0,0,0,0],"split_type":[0,0,0,0,0,0,0,0,0,0,0,0,0,0,0,0,0,0,0,0,0,0,0,0,0,0,0,0,0,0,0,0,0,0,0,0,0,0,0,0,0,0,0,0,0,0,0,0,0,0,0,0,0,0,0,0,0,0,0],"sum_hessian":[1.2235499E4,7.041524E3,5.1939756E3,6.5468125E3,4.947113E2,3.8459644E3,1.3480114E3,4.3657407E3,2.1810718E3,4.2021106E2,7.450024E1,2.7175598E3,1.1284044E3,3.8417248E1,1.3095941E3,1.238351E3,3.1273896E3,1.7857057E3,3.9536627E2,1.9306263E1,4.009048E2,2.947325E1,4.5026985E1,7.533085E1,2.642229E3,6.2795703E2,5.0044745E2,1.1250963E1,2.7166283E1,1.2878759E3,2.1718313E1,4.9582062E2,7.4253033E2,2.0900571E3,1.0373324E3,1.0586537E3,7.2705194E2,1.3994307E2,2.554232E2,1.3133188E1,6.173076E0,3.7662515E2,2.4279644E1,2.4304718E1,5.1685333E0,3.1607178E1,4.3723667E1,1.8419092E3,8.003199E2,2.3919165E2,3.8876535E2,2.9196143E2,2.0848601E2,5.3306665E0,5.9202967E0,1.2734852E3,1.4390635E1,1.559545E1,6.122863E0],"tree_param":{"num_deleted":"0","num_feature":"14","num_nodes":"59","size_leaf_vector":"0"}},{"base_weights":[9.269364E-2,-1.5279132E-1,1.0214784E0,5.0920293E-2,-1.1611041E0,1.1218702E0,-1.5235493E-1,4.0065417E-1,-5.469686E-1,-1.8532836E-1,-1.1666014E0,1.3874149E0,6.6522974E-1,4.8543212E-1,-4.2710254E-1,3.9463216E-1,1.5380224E0,-5.6295973E-1,1.8299116E0,6.069456E-1,8.595172E-1,1.027935E-1,1.2857835E0,-5.098499E-1,8.8251196E-2,5.697948E-1,3.4278473E-1,-8.1868E-1,-3.3952463E-1,-5.462384E-2,7.7415985E-1,1.3126254E0,2.4189548E-1,8.346981E-1,-3.620425E-1,-5.6963295E-1,5.2913314E-1,7.606117E-1,-4.9153396E-1],"categories":[],"categories_nodes":[],"categories_segments":[],"categories_sizes":[],"default_left":[1,1,1,1,1,1,1,1,1,0,0,0,1,1,1,1,0,1,0,1,1,1,0,1,1,0,0,0,0,0,0,0,0,0,0,0,0,0,0],"id":14,"left_children":[1,3,5,7,9,11,13,15,17,-1,-1,-1,19,21,23,25,-1,27,-1,29,31,33,-1,35,37,-1,-1,-1,-1,-1,-1,-1,-1,-1,-1,-1,-1,-1,-1],"loss_changes":[2.7705276E3,1.9744377E3,2.9978955E2,1.67276E3,8.098633E0,2.8174585E2,3.5773766E1,3.3163086E1,1.14151794E2,0E0,0E0,0E0,8.600037E0,1.8458668E1,6.19738E0,4.5140137E1,0E0,1.6698224E2,0E0,7.452275E1,5.358522E1,1.5596471E1,0E0,8.247694E0,9.044803E0,0E0,0E0,0E0,0E0,0E0,0E0,0E0,0E0,0E0,0E0,0E0,0E0,0E0,0E0],"parents":[2147483647,0,0,1,1,2,2,3,3,4,4,5,5,6,6,7,7,8,8,12,12,13,13,14,14,15,15,17,17,19,19,20,20,21,21,23,23,24,24],"right_children":[2,4,6,8,10,12,14,16,18,-1,-1,-1,20,22,24,26,-1,28,-1,30,32,34,-1,36,38,-1,-1,-1,-1,-1,-1,-1,-1,-1,-1,-1,-1,-1,-1],"split_conditions":[5E-1,5E-1,5E-1,7.5E0,2.5E0,7.5E0,7.5E0,5E-1,5E-1,-9.266418E-3,-5.833007E-2,6.937075E-2,1.5E0,1.5E0,1.5E0,3.5E0,7.690112E-2,1.05E1,9.149558E-2,1.05E1,1.25E1,5.5E0,6.4289175E-2,2.05E1,1.35E1,2.8489739E-2,1.7139237E-2,-4.0934E-2,-1.6976232E-2,-2.731192E-3,3.8707994E-2,6.563127E-2,1.2094774E-2,4.1734904E-2,-1.8102124E-2,-2.8481647E-2,2.6456658E-2,3.8030587E-2,-2.45767E-2],"split_indices":[7,0,0,1,1,1,1,6,6,0,0,0,7,7,7,1,0,1,0,1,1,1,0,1,1,0,0,0,0,0,0,0,0,0,0,0,0,0,0],"split_type":[0,0,0,0,0,0,0,0,0,0,0,0,0,0,0,0,0,0,0,0,0,0,0,0,0,0,0,0,0,0,0,0,0,0,0,0,0,0,0],"sum_hessian":[1.2147543E4,9.609296E3,2.5382476E3,7.995706E3,1.61359E3,2.338428E3,1.9981956E2,5.045297E3,2.9504092E3,9.53066E0,1.6040593E3,1.4758805E3,8.625475E2,5.9590702E1,1.4022887E2,5.021491E3,2.3805452E1,2.93225E3,1.8159174E1,6.702441E2,1.9230344E2,4.1927483E1,1.766322E1,1.2101378E2,1.9215084E1,1.141868E3,3.879623E3,1.3646451E3,1.5676049E3,1.3537857E2,5.3486554E2,1.0953347E2,8.276996E1,1.5750848E1,2.6176634E1,1.1537485E2,5.638933E0,8.68826E0,1.0526823E1],"tree_param":{"num_deleted":"0","num_feature":"14","num_nodes":"39","size_leaf_vector":"0"}},{"base_weights":[8.340944E-2,-9.197202E-2,1.089662E0,9.2460173E-1,-2.3193604E-1,7.074954E-1,1.2498329E0,1.3130053E0,6.618907E-1,-3.1373572E-1,2.239382E-1,6.4958215E-1,8.868379E-1,1.1247388E0,1.3412253E0,1.4011693E0,1.0807024E0,-5.88959E-1,9.2205995E-1,3.2036267E-2,-4.7623685E-1,5.463347E-1,1.2767722E-1,8.469129E-1,5.6812567E-1,1.1885226E0,7.31999E-1,2.1869105E-1,1.4508944E0,-1.6112684E0,-3.9098558E-1,1.2585154E0,5.274174E-1,-1.35406E-1,1.6150942E0,-6.962544E-1,-1.6449392E-1,4.0813863E-1,6.3201016E-1,2.2394966E-2,3.1041586E-1,8.750392E-1,3.0597258E-1,3.5786554E-1,6.30065E-1,5.3167397E-1,8.768579E-1],"categories":[],"categories_nodes":[],"categories_segments":[],"categories_sizes":[],"default_left":[1,1,1,1,1,1,1,1,1,1,1,1,1,0,0,0,1,1,1,1,1,1,1,1,1,0,1,0,0,0,0,0,0,0,0,0,0,0,0,0,0,0,0,0,0,0,0],"id":15,"left_children":[1,3,5,7,9,11,13,15,17,19,21,23,25,-1,-1,-1,27,29,31,33,35,37,39,41,43,-1,45,-1,-1,-1,-1,-1,-1,-1,-1,-1,-1,-1,-1,-1,-1,-1,-1,-1,-1,-1,-1],"loss_changes":[2.137705E3,1.4681011E3,1.0808618E2,1.2547974E2,3.3833163E2,4.258789E0,1.1188232E1,6.9972534E0,2.4489001E2,4.3217462E2,4.2641617E1,5.5328064E0,3.9014359E0,0E0,0E0,0E0,4.612776E1,2.4876728E1,8.094159E1,6.527466E2,3.585332E2,3.1287537E0,2.0463236E1,1.1144028E0,3.340065E0,0E0,1.4789658E0,0E0,0E0,0E0,0E0,0E0,0E0,0E0,0E0,0E0,0E0,0E0,0E0,0E0,0E0,0E0,0E0,0E0,0E0,0E0,0E0],"parents":[2147483647,0,0,1,1,2,2,3,3,4,4,5,5,6,6,7,7,8,8,9,9,10,10,11,11,12,12,16,16,17,17,18,18,19,19,20,20,21,21,22,22,23,23,24,24,26,26],"right_children":[2,4,6,8,10,12,14,16,18,20,22,24,26,-1,-1,-1,28,30,32,34,36,38,40,42,44,-1,46,-1,-1,-1,-1,-1,-1,-1,-1,-1,-1,-1,-1,-1,-1,-1,-1,-1,-1,-1,-1],"split_conditions":[3.784276E0,2.501629E0,3.8841693E0,2.0201867E0,3.5936308E0,3.8574982E0,4.006155E0,1.6247301E0,2.2901325E0,2.9742475E0,5E-1,5E-1,3.86979E0,5.623694E-2,6.706127E-2,7.0058465E-2,1.9804821E0,2.1919322E0,2.3260264E0,2.9708953E0,3.379127E0,3.669426E0,3.7024632E0,3.8540745E0,3.79545E0,5.942613E-2,3.8800368E0,1.0934553E-2,7.254472E-2,-8.056342E-2,-1.9549279E-2,6.292577E-2,2.6370872E-2,-6.7703E-3,8.075471E-2,-3.481272E-2,-8.224696E-3,2.0406932E-2,3.160051E-2,1.1197483E-3,1.5520793E-2,4.3751962E-2,1.5298629E-2,1.7893277E-2,3.1503253E-2,2.65837E-2,4.3842893E-2],"split_indices":[5,5,5,5,5,5,5,5,5,5,2,2,5,0,0,0,5,5,5,5,5,5,5,5,5,0,5,0,0,0,0,0,0,0,0,0,0,0,0,0,0,0,0,0,0,0,0],"split_type":[0,0,0,0,0,0,0,0,0,0,0,0,0,0,0,0,0,0,0,0,0,0,0,0,0,0,0,0,0,0,0,0,0,0,0,0,0,0,0,0,0,0,0,0,0,0,0],"sum_hessian":[1.210945E4,1.0313594E4,1.7958561E3,1.246706E3,9.066888E3,5.3376215E2,1.262094E3,4.9963998E2,7.4706616E2,7.6882E3,1.3786875E3,4.1088184E2,1.2288031E2,5.44506E2,7.17588E2,3.5457672E2,1.4506326E2,1.2812949E2,6.1893665E2,2.4583281E3,5.229872E3,3.1460956E2,1.0640779E3,1.14202065E2,2.9667978E2,3.6929714E1,8.595059E1,4.461847E1,1.0044479E2,1.8388884E1,1.097406E2,3.3159854E2,2.873381E2,2.2247761E3,2.3355196E2,3.0643623E3,2.1655098E3,1.2525913E2,1.8935043E2,6.7688983E2,3.8718805E2,1.0720766E2,6.9944067E0,7.096183E1,2.2571794E2,4.027932E1,4.5671276E1],"tree_param":{"num_deleted":"0","num_feature":"14","num_nodes":"47","size_leaf_vector":"0"}},{"base_weights":[8.067932E-2,-8.339611E-2,9.624593E-1,-1.4461605E-1,1.272682E0,9.308191E-1,1.3814695E0,-7.3220384E-1,6.009203E-1,8.511211E-1,1.4462813E0,-1.3951995E0,1.3736846E0,5.587346E-1,1.4176065E0,6.651864E-1,1.7449621E0,-1.4258852E0,-3.3535734E-1,9.877295E-1,3.849731E-1,4.4425458E-1,1.526915E0],"categories":[],"categories_nodes":[],"categories_segments":[],"categories_sizes":[],"default_left":[1,1,1,1,1,1,0,0,1,1,0,1,0,1,1,0,0,0,0,0,0,0,0],"id":16,"left_children":[1,3,5,7,9,11,-1,-1,13,15,-1,17,-1,19,21,-1,-1,-1,-1,-1,-1,-1,-1],"loss_changes":[1.7305557E3,8.375161E2,2.207483E1,4.228867E3,2.9198486E1,1.807674E3,0E0,0E0,1.4481274E2,1.939753E1,0E0,8.007324E0,0E0,3.0095593E2,2.0531464E1,0E0,0E0,0E0,0E0,0E0,0E0,0E0,0E0],"parents":[2147483647,0,0,1,1,2,2,3,3,4,4,5,5,8,8,9,9,11,11,13,13,14,14],"right_children":[2,4,6,8,10,12,-1,-1,14,16,-1,18,-1,20,22,-1,-1,-1,-1,-1,-1,-1,-1],"split_conditions":[5E-1,5E-1,5E-1,5E-1,5E-1,5E-1,6.9073476E-2,-3.6610194E-2,1.5E0,1.5E0,7.231407E-2,4.5E0,6.8684235E-2,5E-1,5E-1,3.325932E-2,8.724811E-2,-7.129426E-2,-1.6767867E-2,4.9386475E-2,1.9248655E-2,2.2212729E-2,7.634575E-2],"split_indices":[8,11,11,9,9,9,0,0,9,11,0,8,0,2,2,0,0,0,0,0,0,0,0],"split_type":[0,0,0,0,0,0,0,0,0,0,0,0,0,0,0,0,0,0,0,0,0,0,0],"sum_hessian":[1.1957677E4,1.0083169E4,1.8745078E3,9.649408E3,4.3376068E2,1.7491108E3,1.2539699E2,5.39643E3,4.252978E3,1.3013309E2,3.036276E2,2.7903525E2,1.4700756E3,4.0474014E3,2.0557675E2,1.1070479E2,1.9428303E1,2.7042062E2,8.614602E0,1.1639106E3,2.8834907E3,2.1870577E1,1.8370618E2],"tree_param":{"num_deleted":"0","num_feature":"14","num_nodes":"23","size_leaf_vector":"0"}},{"base_weights":[7.4903905E-2,-6.955428E-1,8.1299525E-1,-7.254234E-1,1.5577372E0,7.334396E-1,1.4972905E0,2.4035154E-1,-1.0858213E0,1.5367243E0,-1.232706E0,1.5323555E0,4.3818516E-1,2.3598212E-1,6.033155E-1,-1.1484241E0,2.2461413E-1,-1.2558386E0,1.104198E-2,-3.7836686E-1,2.8610826E-1,7.7169424E-1,3.0111128E-1,-1.2270356E0,-7.660354E-1,3.3690244E-1,7.7512665E-3,6.9879395E-1,-1.2726301E0,-9.352365E-1,5.3630865E-1],"categories":[],"categories_nodes":[],"categories_segments":[],"categories_sizes":[],"default_left":[1,1,1,1,0,1,1,1,1,0,1,0,0,1,1,1,1,1,1,0,0,0,0,0,0,0,0,0,0,0,0],"id":17,"left_children":[1,3,5,7,-1,9,11,13,15,-1,17,-1,-1,19,21,23,25,27,29,-1,-1,-1,-1,-1,-1,-1,-1,-1,-1,-1,-1],"loss_changes":[6.750534E3,3.9323828E2,3.276333E2,1.996259E3,0E0,8.588278E3,2.1833862E1,2.1049347E0,3.4318506E2,0E0,4.5542236E1,0E0,0E0,4.7776695E1,2.9280663E-1,1.1773682E2,4.6356525E0,5.267285E1,1.6227821E1,0E0,0E0,0E0,0E0,0E0,0E0,0E0,0E0,0E0,0E0,0E0,0E0],"parents":[2147483647,0,0,1,1,2,2,3,3,5,5,6,6,7,7,8,8,10,10,13,13,14,14,15,15,16,16,17,17,18,18],"right_children":[2,4,6,8,-1,10,12,14,16,-1,18,-1,-1,20,22,24,26,28,30,-1,-1,-1,-1,-1,-1,-1,-1,-1,-1,-1,-1],"split_conditions":[5E-1,5E-1,5E-1,4.5E0,7.7886865E-2,5E-1,5E-1,5E-1,5E-1,7.683622E-2,1.5E0,7.661778E-2,2.1909257E-2,2.5E0,3.5E0,1.35E1,1.35E1,2.5E0,4.5E0,-1.8918343E-2,1.4305413E-2,3.8584713E-2,1.5055564E-2,-6.1351784E-2,-3.830177E-2,1.6845122E-2,3.8756334E-4,3.49397E-2,-6.3631505E-2,-4.6761826E-2,2.6815433E-2],"split_indices":[9,13,10,1,0,0,0,0,0,0,9,0,0,1,1,1,1,1,1,0,0,0,0,0,0,0,0,0,0,0,0],"split_type":[0,0,0,0,0,0,0,0,0,0,0,0,0,0,0,0,0,0,0,0,0,0,0,0,0,0,0,0,0,0,0],"sum_hessian":[1.1866938E4,5.8061973E3,6.060741E3,5.731592E3,7.460565E1,5.4333535E3,6.273877E2,1.5577109E3,4.173881E3,3.8577332E3,1.5756205E3,6.063253E2,2.1062378E1,1.5427153E3,1.4995634E1,3.9838843E3,1.8999663E2,1.54691E3,2.8710405E1,1.1523963E2,1.4274757E3,7.4222054E0,7.5734286E0,3.3006555E3,6.8322864E2,1.2414702E2,6.584961E1,1.2433003E1,1.534477E3,9.623E0,1.9087404E1],"tree_param":{"num_deleted":"0","num_feature":"14","num_nodes":"31","size_leaf_vector":"0"}},{"base_weights":[7.155216E-2,-6.628126E-1,7.908864E-1,-6.916716E-1,1.5290339E0,7.488855E-1,1.3234488E0],"categories":[],"categories_nodes":[],"categories_segments":[],"categories_sizes":[],"default_left":[1,1,1,0,0,0,0],"id":18,"left_children":[1,3,5,-1,-1,-1,-1],"loss_changes":[6.1913975E3,3.6888745E2,1.302478E2,0E0,0E0,0E0,0E0],"parents":[2147483647,0,0,1,1,2,2],"right_children":[2,4,6,-1,-1,-1,-1],"split_conditions":[5E-1,5E-1,1.5E0,-3.458358E-2,7.64517E-2,3.7444275E-2,6.617244E-2],"split_indices":[9,13,9,0,0,0,0],"split_type":[0,0,0,0,0,0,0],"sum_hessian":[1.171649E4,5.797683E3,5.9188076E3,5.723736E3,7.394722E1,5.490774E3,4.280336E2],"tree_param":{"num_deleted":"0","num_feature":"14","num_nodes":"7","size_leaf_vector":"0"}},{"base_weights":[7.336683E-2,4.5983854E-1,-4.49971E-1,6.151838E-1,-2.9495743E-1,-5.2600104E-1,1.0276824E0,5.6292015E-1,1.048829E0,-7.34942E-1,-5.0883666E-2,-7.511611E-1,-3.8286597E-1,1.2147801E0,7.097067E-1,1.3697621E0,4.0495017E-1,-8.740025E-1,1.3234495E0,-7.745826E-1,3.6296043E-1,3.3074716E-4,-6.8599844E-1,-5.5271053E-1,-8.759117E-1,2.8849092E-1,-6.834951E-1,5.4191065E-1,1.0556059E0,-3.3569297E-1,5.2307355E-1,-2.8081563E-1,-1.1932374E0,-8.380977E-1,1.1937017E0,-1.0355293E-1,1.3899455E0,-3.3726078E-1,-8.906808E-1,5.597315E-1,-8.936359E-1,-4.0755478E-1,4.0961567E-1,-8.667428E-1,-3.581761E-1,3.5607532E-1,1.2801486E0],"categories":[],"categories_nodes":[],"categories_segments":[],"categories_sizes":[],"default_left":[1,1,1,1,1,1,1,1,1,1,1,1,1,0,1,0,1,1,0,1,0,1,0,1,1,1,1,1,0,0,0,0,0,0,0,0,0,0,0,0,0,0,0,0,0,0,0],"id":19,"left_children":[1,3,5,7,9,11,13,15,17,19,21,23,25,-1,27,-1,29,31,-1,33,-1,35,-1,37,39,41,43,45,-1,-1,-1,-1,-1,-1,-1,-1,-1,-1,-1,-1,-1,-1,-1,-1,-1,-1,-1],"loss_changes":[2.3489495E3,7.8369385E2,5.552756E2,1.2423633E2,1.22426926E2,1.5056982E2,1.2482178E1,6.2955457E2,3.1572778E2,1.8315918E1,2.4024578E1,4.3987915E1,5.804232E2,0E0,4.190548E0,0E0,3.627434E2,1.3446148E1,0E0,5.1162216E1,0E0,9.906778E1,0E0,5.089322E1,2.9400879E1,7.537769E1,1.1762329E2,8.260195E0,0E0,0E0,0E0,0E0,0E0,0E0,0E0,0E0,0E0,0E0,0E0,0E0,0E0,0E0,0E0,0E0,0E0,0E0,0E0],"parents":[2147483647,0,0,1,1,2,2,3,3,4,4,5,5,6,6,7,7,8,8,9,9,10,10,11,11,12,12,14,14,16,16,17,17,19,19,21,21,23,23,24,24,25,25,26,26,27,27],"right_children":[2,4,6,8,10,12,14,16,18,20,22,24,26,-1,28,-1,30,32,-1,34,-1,36,-1,38,40,42,44,46,-1,-1,-1,-1,-1,-1,-1,-1,-1,-1,-1,-1,-1,-1,-1,-1,-1,-1,-1],"split_conditions":[7.5E0,4.5E0,5E-1,5E-1,6.5E0,1.05E1,1.25E1,2.5E0,5.5E0,5.5E0,5.5E0,8.5E0,7.5E0,6.0739007E-2,1.25E1,6.8488106E-2,3.5E0,3.5E0,6.617247E-2,5E-1,1.8148022E-2,5E-1,-3.429992E-2,5.5E0,3.5E0,6.5E0,1.05E1,1.5E0,5.2780297E-2,-1.678465E-2,2.6153678E-2,-1.4040782E-2,-5.9661873E-2,-4.1904885E-2,5.968509E-2,-5.1776464E-3,6.949728E-2,-1.6863039E-2,-4.453404E-2,2.7986575E-2,-4.46818E-2,-2.0377738E-2,2.0480784E-2,-4.333714E-2,-1.7908806E-2,1.7803766E-2,6.400743E-2],"split_indices":[1,12,11,10,1,1,1,12,1,12,12,1,12,0,12,0,12,12,0,11,0,11,0,12,12,12,12,11,0,0,0,0,0,0,0,0,0,0,0,0,0,0,0,0,0,0,0],"split_type":[0,0,0,0,0,0,0,0,0,0,0,0,0,0,0,0,0,0,0,0,0,0,0,0,0,0,0,0,0,0,0,0,0,0,0,0,0,0,0,0,0,0,0,0,0,0,0],"sum_hessian":[1.1609735E4,6.678365E3,4.9313696E3,5.538902E3,1.1394636E3,4.691341E3,2.4002893E2,4.9474536E3,5.9144794E2,4.0498218E2,7.344815E2,1.8196803E3,2.8716606E3,1.4736424E2,9.266468E1,8.074378E2,4.140016E3,7.332352E1,5.181244E2,3.915259E2,1.345627E1,6.81378E2,5.310348E1,7.068699E2,1.1128104E3,8.881086E2,1.983552E3,6.604745E1,2.6617235E1,5.688361E2,3.57118E3,2.7079065E1,4.6244457E1,3.8044833E2,1.1077578E1,6.356385E2,4.5739536E1,4.3430206E2,2.725678E2,1.2756371E1,1.1000541E3,1.3081613E2,7.572925E2,1.2665092E3,7.1704285E2,5.5241676E1,1.080577E1],"tree_param":{"num_deleted":"0","num_feature":"14","num_nodes":"47","size_leaf_vector":"0"}},{"base_weights":[7.702319E-2,-6.1594343E-1,7.507431E-1,1.13177E0,-7.420699E-1,9.695037E-1,-4.383526E-1,1.5030277E0,-1.858199E0,3.324222E-1,-9.571914E-1,1.1907552E0,5.7265633E-1,-6.472732E-1,-1.3015714E-1,1.5776987E0,-1.5950826E0,6.2732285E-1,-1.3709097E0,-1.0219972E0,9.443957E-1,1.5059522E0,1.1422741E0,5.030418E-1,1.4370657E0,4.7653365E-1,-9.1118133E-1,2.927202E-1,-6.6704655E-1,1.5910065E0,6.8948746E-1,9.581588E-2,7.073004E-1,-1.0811857E0,-7.0484024E-1,7.7814496E-1,1.0696853E0,1.2369621E0,1.0316079E0,2.199664E-1,9.8974174E-1,1.457478E0,6.509722E-1,8.394937E-1,-4.795166E-1,-9.619984E-1,1.2306926E0,5.9978276E-1,-9.934716E-1,1.7438982E-1,-8.7406677E-1],"categories":[],"categories_nodes":[],"categories_segments":[],"categories_sizes":[],"default_left":[1,1,1,1,1,1,1,1,0,1,1,1,1,1,1,1,0,1,0,1,1,0,1,1,1,1,1,1,1,0,0,0,0,0,0,0,0,0,0,0,0,0,0,0,0,0,0,0,0,0,0],"id":20,"left_children":[1,3,5,7,9,11,13,15,-1,17,19,21,23,25,27,29,-1,31,-1,33,35,-1,37,39,41,43,45,47,49,-1,-1,-1,-1,-1,-1,-1,-1,-1,-1,-1,-1,-1,-1,-1,-1,-1,-1,-1,-1,-1,-1],"loss_changes":[5.4069805E3,1.2601394E3,1.5284312E3,4.3294205E2,1.2318289E3,4.340039E2,5.8589737E1,8.4526184E1,0E0,4.4864117E2,5.488889E2,4.493213E1,1.0545068E2,1.6222217E2,8.4856384E1,1.5564575E0,0E0,3.2089325E1,0E0,7.888672E1,1.2178345E0,0E0,2.6216797E1,2.2679385E2,9.1552734E-4,3.716478E1,5.0365143E1,8.3816574E1,2.9040428E1,0E0,0E0,0E0,0E0,0E0,0E0,0E0,0E0,0E0,0E0,0E0,0E0,0E0,0E0,0E0,0E0,0E0,0E0,0E0,0E0,0E0,0E0],"parents":[2147483647,0,0,1,1,2,2,3,3,4,4,5,5,6,6,7,7,9,9,10,10,11,11,12,12,13,13,14,14,15,15,17,17,19,19,20,20,22,22,23,23,24,24,25,25,26,26,27,27,28,28],"right_children":[2,4,6,8,10,12,14,16,-1,18,20,22,24,26,28,30,-1,32,-1,34,36,-1,38,40,42,44,46,48,50,-1,-1,-1,-1,-1,-1,-1,-1,-1,-1,-1,-1,-1,-1,-1,-1,-1,-1,-1,-1,-1,-1],"split_conditions":[5E-1,2.5E0,7.5E0,5.5E0,3.5E0,4.5E0,1.05E1,5E-1,-9.2909954E-2,5E-1,5E-1,2.5E0,5E-1,5E-1,1.15E1,4.5E0,-7.975414E-2,2.5E0,-6.854548E-2,1.35E1,1.15E1,7.529762E-2,5E-1,1.05E1,1.15E1,1.35E1,1.5E0,1.65E1,5E-1,7.9550326E-2,3.4474373E-2,4.790794E-3,3.5365023E-2,-5.4059286E-2,-3.5242014E-2,3.890725E-2,5.348427E-2,6.1848104E-2,5.1580396E-2,1.099832E-2,4.9487088E-2,7.2873905E-2,3.254861E-2,4.1974686E-2,-2.397583E-2,-4.809992E-2,6.1534632E-2,2.9989138E-2,-4.9673583E-2,8.719492E-3,-4.370334E-2],"split_indices":[9,12,12,1,1,12,12,2,0,2,11,12,11,2,12,1,0,1,0,1,1,0,2,1,1,1,9,1,2,0,0,0,0,0,0,0,0,0,0,0,0,0,0,0,0,0,0,0,0,0,0],"split_type":[0,0,0,0,0,0,0,0,0,0,0,0,0,0,0,0,0,0,0,0,0,0,0,0,0,0,0,0,0,0,0,0,0,0,0,0,0,0,0,0,0,0,0,0,0,0,0,0,0,0,0],"sum_hessian":[1.1577445E4,5.7072124E3,5.8702324E3,3.8302063E2,5.324192E3,4.958466E3,9.117667E2,3.4162933E2,4.1391273E1,8.878733E2,4.436319E3,3.1808281E3,1.7776377E3,5.4189813E2,3.698686E2,3.3457907E2,7.0502725E0,7.579673E2,1.2990602E2,4.2910576E3,1.4526085E2,4.157386E2,2.7650896E3,1.6481823E3,1.294555E2,1.02676765E2,4.3922137E2,2.0730753E2,1.6256108E2,3.279701E2,6.608989E0,9.987489E1,6.580924E2,3.6118694E3,6.7918854E2,6.896657E1,7.629427E1,1.4786617E3,1.2864279E3,1.0440494E3,6.0413275E2,1.2439013E2,5.0653777E0,7.4675125E1,2.8001642E1,4.3016394E2,9.0574465E0,1.6827824E2,3.9029278E1,3.2064934E1,1.3049614E2],"tree_param":{"num_deleted":"0","num_feature":"14","num_nodes":"51","size_leaf_vector":"0"}},{"base_weights":[6.773931E-2,-7.3331915E-2,9.863757E-1,-5.8659405E-1,5.855633E-1,-9.571681E-1,1.1469275E0,2.2851636E-1,-1.0219009E0,1.1033292E0,3.9990088E-1,-2.530294E-1,-9.920038E-1,9.114608E-1,1.2255827E0,2.7026075E-1,-8.353538E-1,-1.0284032E0,1.2318212E0,1.1098908E0,5.5682755E-1,2.6466772E-1,1.4375315E0,-8.925467E-1,-1.3690423E0,6.721801E-1,1.280419E0,9.2618173E-1,1.2977856E0,1.3019505E0,-6.0667645E-2,1.2910863E0,-1.2018768E0,-1.3302894E0,-9.826258E-1,9.721538E-1,1.3701003E0,7.6937616E-2,9.7426605E-1,1.22584075E-1,1.2753489E0,5.016035E-1,1.3082867E0,7.59182E-1,1.2815694E0],"categories":[],"categories_nodes":[],"categories_segments":[],"categories_sizes":[],"default_left":[1,1,1,1,1,1,1,1,1,1,1,0,1,1,1,1,1,1,0,1,1,1,0,0,0,1,0,1,0,0,0,0,0,0,0,0,0,0,0,0,0,0,0,0,0],"id":21,"left_children":[1,3,5,7,9,11,13,15,17,19,21,-1,23,25,27,29,31,33,-1,35,37,39,-1,-1,-1,41,-1,43,-1,-1,-1,-1,-1,-1,-1,-1,-1,-1,-1,-1,-1,-1,-1,-1,-1],"loss_changes":[1.4734401E3,3.333968E3,4.745056E2,1.9668188E3,4.1393958E2,2.2319717E0,2.3463013E1,8.614007E1,5.5456543E1,2.6784668E0,4.453918E2,0E0,1.4631424E0,2.972757E1,1.9911987E1,6.351222E2,6.022112E1,4.6953857E1,0E0,3.73291E1,3.290113E0,4.0400055E2,0E0,0E0,0E0,2.2573029E1,0E0,1.0303406E1,0E0,0E0,0E0,0E0,0E0,0E0,0E0,0E0,0E0,0E0,0E0,0E0,0E0,0E0,0E0,0E0,0E0],"parents":[2147483647,0,0,1,1,2,2,3,3,4,4,5,5,6,6,7,7,8,8,9,9,10,10,12,12,13,13,14,14,15,15,16,16,17,17,19,19,20,20,21,21,25,25,27,27],"right_children":[2,4,6,8,10,12,14,16,18,20,22,-1,24,26,28,30,32,34,-1,36,38,40,-1,-1,-1,42,-1,44,-1,-1,-1,-1,-1,-1,-1,-1,-1,-1,-1,-1,-1,-1,-1,-1,-1],"split_conditions":[3.789578E0,5E-1,5E-1,2.8073726E0,2.9742475E0,3.8021438E0,3.8841693E0,5E-1,6.5E0,5E-1,5E-1,-1.26514705E-2,5E-1,5E-1,5E-1,2.0272927E0,1.7136667E0,2.9489574E0,6.159106E-2,2.9149604E0,1.5E0,5E-1,7.187658E-2,-4.4627335E-2,-6.845211E-2,5E-1,6.4020954E-2,5E-1,6.488928E-2,6.5097526E-2,-3.0333824E-3,6.455432E-2,-6.009384E-2,-6.651447E-2,-4.913129E-2,4.860769E-2,6.850501E-2,3.8468807E-3,4.8713304E-2,6.129204E-3,6.376745E-2,2.5080174E-2,6.541433E-2,3.79591E-2,6.407847E-2],"split_indices":[5,9,9,5,5,5,5,10,8,8,10,0,8,8,8,5,5,5,0,5,8,8,0,0,0,10,0,10,0,0,0,0,0,0,0,0,0,0,0,0,0,0,0,0,0],"split_type":[0,0,0,0,0,0,0,0,0,0,0,0,0,0,0,0,0,0,0,0,0,0,0,0,0,0,0,0,0,0,0,0,0,0,0,0,0,0,0,0,0,0,0,0,0],"sum_hessian":[1.1365916E4,9.8543545E3,1.5115614E3,5.539556E3,4.314798E3,1.1453412E2,1.3970272E3,1.9287325E3,3.6108237E3,1.1360939E3,3.178704E3,6.313624E0,1.0822049E2,3.564339E2,1.0405934E3,1.8574359E3,7.1296616E1,3.6015647E3,9.259204E0,1.1203969E3,1.5697026E1,2.8145002E3,3.6420398E2,9.117075E1,1.7049738E1,2.1980093E2,1.3663297E2,2.0783054E2,8.327628E2,4.497491E2,1.4076868E3,9.700392E0,6.1596222E1,4.665461E2,3.1350186E3,7.3905054E2,3.813463E2,8.515606E0,7.18142E0,2.4696528E3,3.4484735E2,1.7626775E2,4.3533188E1,1.4584875E2,6.1981785E1],"tree_param":{"num_deleted":"0","num_feature":"14","num_nodes":"45","size_leaf_vector":"0"}},{"base_weights":[6.821293E-2,3.653914E-1,-1.1695538E-1,4.331157E-1,-4.177994E-1,1.5426952E-1,-1.1796752E0,-5.177168E-1,1.3357956E0],"categories":[],"categories_nodes":[],"categories_segments":[],"categories_sizes":[],"default_left":[1,1,1,0,1,0,0,0,0],"id":22,"left_children":[1,3,5,-1,7,-1,-1,-1,-1],"loss_changes":[6.228943E2,2.3084802E2,2.0106753E3,0E0,6.2057125E1,0E0,0E0,0E0,0E0],"parents":[2147483647,0,0,1,1,2,2,4,4],"right_children":[2,4,6,-1,8,-1,-1,-1,-1],"split_conditions":[5E-1,5E-1,5E-1,2.1655785E-2,5E-1,7.7134757E-3,-5.898376E-2,-2.588584E-2,6.678978E-2],"split_indices":[2,0,0,0,3,0,0,0,0],"split_type":[0,0,0,0,0,0,0,0,0],"sum_hessian":[1.1315576E4,4.343401E3,6.972175E3,3.9986501E3,3.4475067E2,5.5558413E3,1.4163335E3,3.2755368E2,1.7196993E1],"tree_param":{"num_deleted":"0","num_feature":"14","num_nodes":"9","size_leaf_vector":"0"}},{"base_weights":[6.5168865E-2,4.1241726E-1,-4.0229848E-1,7.465839E-1,2.8180343E-1,-4.7719732E-1,1.0185492E0,7.622755E-1,-1.0751761E-1,1.92719E-1,9.305945E-1,-7.011712E-1,-3.3499825E-1,1.1854824E0,7.6378006E-1,-6.88722E-1,9.3399036E-1,3.2042408E-1,-5.955476E-1,1.2949524E0,-5.8141578E-2,1.0436027E0,-9.1624373E-1,-4.945557E-1,-8.033668E-1,2.8028134E-1,-6.134865E-1,2.606834E-1,7.986722E-1,1.3412105E0,-1.2273115E0,6.748108E-1,9.833549E-1,1.116333E0,-7.049336E-1,-0E0,-1.0121258E0,1.5111393E0,1.1270199E0,-2.2661301E-1,2.62309E-1,-1.440332E0,1.2454699E0,-3.1356898E-1,-9.559865E-1,-8.07797E-1,-3.5986042E-1,4.882799E-1,-4.4206232E-1,-7.973591E-1,-2.879181E-1,7.333615E-1,1.1972847E0],"categories":[],"categories_nodes":[],"categories_segments":[],"categories_sizes":[],"default_left":[1,1,1,1,1,1,1,1,1,1,1,1,1,0,1,1,1,1,1,1,1,1,0,1,1,1,1,0,1,0,0,0,0,0,0,0,0,0,0,0,0,0,0,0,0,0,0,0,0,0,0,0,0],"id":23,"left_children":[1,3,5,7,9,11,13,15,17,19,21,23,25,-1,27,29,31,33,35,37,39,41,-1,43,45,47,49,-1,51,-1,-1,-1,-1,-1,-1,-1,-1,-1,-1,-1,-1,-1,-1,-1,-1,-1,-1,-1,-1,-1,-1,-1,-1],"loss_changes":[1.8247953E3,2.8100037E2,5.1081305E2,2.4503235E1,2.6775824E2,1.4443005E2,8.222336E0,4.4453064E2,7.575324E0,1.1293159E3,1.18726166E2,3.636389E1,4.7825183E2,0E0,1.2517052E0,2.1027423E2,1.8869629E1,1.7506783E1,4.2741294E0,2.3819214E1,1.7978595E2,2.6849884E2,0E0,4.8540726E1,1.6164551E0,1.3118901E2,1.1440875E2,0E0,4.8114014E-1,0E0,0E0,0E0,0E0,0E0,0E0,0E0,0E0,0E0,0E0,0E0,0E0,0E0,0E0,0E0,0E0,0E0,0E0,0E0,0E0,0E0,0E0,0E0,0E0],"parents":[2147483647,0,0,1,1,2,2,3,3,4,4,5,5,6,6,7,7,8,8,9,9,10,10,11,11,12,12,14,14,15,15,16,16,17,17,18,18,19,19,20,20,21,21,23,23,24,24,25,25,26,26,28,28],"right_children":[2,4,6,8,10,12,14,16,18,20,22,24,26,-1,28,30,32,34,36,38,40,42,-1,44,46,48,50,-1,52,-1,-1,-1,-1,-1,-1,-1,-1,-1,-1,-1,-1,-1,-1,-1,-1,-1,-1,-1,-1,-1,-1,-1,-1],"split_conditions":[7.5E0,3.5E0,5E-1,5E-1,5E-1,1.05E1,1.25E1,3.5E0,3.5E0,2.5E0,4.5E0,5.5E0,7.5E0,5.927412E-2,8.5E0,1.5E0,2.5E0,2.5E0,2.5E0,4.5E0,6.5E0,5.5E0,-4.5812186E-2,8.5E0,7.5E0,1.15E1,1.05E1,1.303417E-2,2.55E1,6.706052E-2,-6.1365575E-2,3.3740543E-2,4.916775E-2,5.581665E-2,-3.524668E-2,-0E0,-5.060629E-2,7.555696E-2,5.6350995E-2,-1.1330651E-2,1.3115451E-2,-7.2016604E-2,6.22735E-2,-1.5678449E-2,-4.7799326E-2,-4.038985E-2,-1.7993022E-2,2.4413995E-2,-2.2103116E-2,-3.9867956E-2,-1.4395905E-2,3.6668073E-2,5.9864234E-2],"split_indices":[1,1,11,10,10,1,1,12,12,12,12,12,12,0,12,1,1,1,1,1,1,1,0,1,12,1,12,0,1,0,0,0,0,0,0,0,0,0,0,0,0,0,0,0,0,0,0,0,0,0,0,0,0],"split_type":[0,0,0,0,0,0,0,0,0,0,0,0,0,0,0,0,0,0,0,0,0,0,0,0,0,0,0,0,0,0,0,0,0,0,0,0,0,0,0,0,0,0,0,0,0,0,0,0,0,0,0,0,0],"sum_hessian":[1.1237407E4,6.4480537E3,4.7893535E3,1.8091833E3,4.63887E3,4.5508574E3,2.3849611E2,1.7768706E3,3.231272E1,4.0812314E3,5.57639E2,1.7639469E3,2.7869104E3,1.394349E2,9.90612E1,1.87329E2,1.5895416E3,1.7473017E1,1.4839704E1,7.551817E2,3.3260496E3,5.263553E2,3.1283714E1,5.879356E2,1.1760114E3,8.682548E2,1.9186555E3,7.7094746E0,9.135173E1,3.8616833E1,1.4871216E2,2.5933206E2,1.3302096E3,9.792164E0,7.680853E0,6.8369727E0,8.00273E0,3.2290256E2,4.3227917E2,2.180557E3,1.1454928E3,3.860186E1,4.877534E2,4.2486633E2,1.6306926E2,1.1625305E3,1.3480849E1,6.747479E2,1.9350688E2,1.2241066E3,6.94549E2,8.358686E1,7.7648697E0],"tree_param":{"num_deleted":"0","num_feature":"14","num_nodes":"53","size_leaf_vector":"0"}},{"base_weights":[5.530908E-2,1.4316518E-3,1.1631573E0,-9.119724E-3,1.4599626E0,1.8407357E-1,-1.0466044E0],"categories":[],"categories_nodes":[],"categories_segments":[],"categories_sizes":[],"default_left":[1,1,0,1,0,0,0],"id":24,"left_children":[1,3,-1,5,-1,-1,-1],"loss_changes":[6.643516E2,1.6358073E2,0E0,2.1138323E3,0E0,0E0,0E0],"parents":[2147483647,0,0,1,1,3,3],"right_children":[2,4,-1,6,-1,-1,-1],"split_conditions":[5E-1,5E-1,5.815787E-2,5E-1,7.299813E-2,9.203679E-3,-5.2330222E-2],"split_indices":[11,13,0,0,0,0,0],"split_type":[0,0,0,0,0,0,0],"sum_hessian":[1.113041E4,1.061621E4,5.142E2,1.0541866E4,7.434355E1,8.888298E3,1.6535691E3],"tree_param":{"num_deleted":"0","num_feature":"14","num_nodes":"7","size_leaf_vector":"0"}},{"base_weights":[5.4707576E-2,-6.0115385E-1,7.121355E-1,1.5918702E-1,-9.915447E-1,9.168005E-1,-3.081401E-1,1.2342832E0,-1.6220662E-1,-1.1538553E0,-6.2934136E-1,6.918444E-1,1.2958803E0,-6.886029E-1,9.4275343E-1,1.3336601E0,1.0019492E0,-5.8169436E-1,8.3025527E-1,-1.4799134E0,-1.0344862E0,8.551437E-1,-6.946775E-1,9.710624E-1,-2.5251612E-1,1.2629333E0,1.4091595E0,1.6864549E-1,-8.6027414E-1,1.1966207E0,-4.183071E-1,1.915764E-1,1.3516314E0,-2.2729436E-1,-1.2579436E0,1.046744E0,-3.199358E-1,-1.355999E0,-1.5380296E0,-7.107498E-1,-1.0757029E0,6.1792976E-1,2.0280004E0,-3.807482E-1,-8.1631994E-1,8.397861E-1,1.3325413E0,1.1881465E0,-3.250441E-1,4.9258065E-1,1.4301765E0,6.8953174E-1,-3.3258048E-1,-8.896733E-1,1.2173802E0,6.120069E-1,1.2279904E0,-7.1943474E-1,9.3232137E-1],"categories":[],"categories_nodes":[],"categories_segments":[],"categories_sizes":[],"default_left":[1,1,1,1,1,1,1,1,1,1,1,1,1,1,1,0,1,1,1,1,1,1,1,1,1,0,1,1,1,1,1,0,0,0,0,0,0,0,0,0,0,0,0,0,0,0,0,0,0,0,0,0,0,0,0,0,0,0,0],"id":25,"left_children":[1,3,5,7,9,11,13,15,17,19,21,23,25,27,29,-1,31,33,35,37,39,41,43,45,47,-1,49,51,53,55,57,-1,-1,-1,-1,-1,-1,-1,-1,-1,-1,-1,-1,-1,-1,-1,-1,-1,-1,-1,-1,-1,-1,-1,-1,-1,-1,-1,-1],"loss_changes":[4.7852026E3,1.6494569E3,1.1579417E3,6.523086E2,2.141958E2,3.9171802E2,4.426554E2,7.124695E0,6.06254E2,9.52561E1,1.1180258E2,7.6574426E2,2.581787E0,1.0519302E2,7.608548E1,0E0,3.8574158E1,2.4450848E2,1.0849039E2,3.9196777E-1,2.3120605E1,1.0838905E1,4.1024597E1,1.038501E2,7.003651E1,0E0,5.505188E0,3.1936083E1,3.8411194E1,1.678772E0,1.5776649E1,0E0,0E0,0E0,0E0,0E0,0E0,0E0,0E0,0E0,0E0,0E0,0E0,0E0,0E0,0E0,0E0,0E0,0E0,0E0,0E0,0E0,0E0,0E0,0E0,0E0,0E0,0E0,0E0],"parents":[2147483647,0,0,1,1,2,2,3,3,4,4,5,5,6,6,7,7,8,8,9,9,10,10,11,11,12,12,13,13,14,14,16,16,17,17,18,18,19,19,20,20,21,21,22,22,23,23,24,24,26,26,27,27,28,28,29,29,30,30],"right_children":[2,4,6,8,10,12,14,16,18,20,22,24,26,28,30,-1,32,34,36,38,40,42,44,46,48,-1,50,52,54,56,58,-1,-1,-1,-1,-1,-1,-1,-1,-1,-1,-1,-1,-1,-1,-1,-1,-1,-1,-1,-1,-1,-1,-1,-1,-1,-1,-1,-1],"split_conditions":[5E-1,2.8073726E0,1.15E1,2.0272927E0,1.15E1,3.5779104E0,3.879922E0,1.6247301E0,2.8036997E0,6.5E0,3.093965E0,7.5E0,1.05E1,5E-1,1.75E1,6.668301E-2,1.9804821E0,2.5899346E0,5E-1,5E-1,3.0031195E0,3.081391E0,3.418839E0,3.3256116E0,2.932104E0,6.3146666E-2,5E-1,3.5036278E0,1.5E0,3.8826914E0,4.1103363E0,9.57882E-3,6.758157E-2,-1.1364718E-2,-6.289718E-2,5.23372E-2,-1.599679E-2,-6.779995E-2,-7.690148E-2,-3.5537492E-2,-5.3785145E-2,3.0896489E-2,1.0140002E-1,-1.903741E-2,-4.0815998E-2,4.1989308E-2,6.662707E-2,5.9407324E-2,-1.6252205E-2,2.4629032E-2,7.1508825E-2,3.447659E-2,-1.6629023E-2,-4.4483665E-2,6.086901E-2,3.0600345E-2,6.139952E-2,-3.597174E-2,4.661607E-2],"split_indices":[9,5,1,5,1,5,5,5,5,1,5,1,1,2,1,0,5,5,2,2,5,5,5,5,5,0,2,5,9,5,5,0,0,0,0,0,0,0,0,0,0,0,0,0,0,0,0,0,0,0,0,0,0,0,0,0,0,0,0],"split_type":[0,0,0,0,0,0,0,0,0,0,0,0,0,0,0,0,0,0,0,0,0,0,0,0,0,0,0,0,0,0,0,0,0,0,0,0,0,0,0,0,0,0,0,0,0,0,0,0,0,0,0,0,0,0,0,0,0,0,0],"sum_hessian":[1.109387E4,5.553561E3,5.540309E3,1.8843854E3,3.6691758E3,4.614876E3,9.25433E2,4.3244403E2,1.4519413E3,2.530542E3,1.1386339E3,2.8999072E3,1.714969E3,7.1035535E2,2.1507762E2,2.9594684E2,1.364972E2,1.0212248E3,4.3071655E2,6.7182135E2,1.8587206E3,4.691783E1,1.0917161E3,2.2381926E3,6.617146E2,1.3480671E3,3.6690186E2,1.1842872E2,5.9192664E2,1.815329E2,3.354472E1,4.2164513E1,9.433268E1,6.7191583E2,3.4930896E2,3.627135E2,6.800305E1,2.3057622E2,4.4124512E2,2.1431342E2,1.6444072E3,4.163583E1,5.2820015E0,3.074209E2,7.8429517E2,1.646988E3,5.9120465E2,3.0175692E1,6.3153894E2,9.426622E0,3.5747525E2,5.7804745E1,6.0623974E1,5.848427E2,7.083917E0,1.1496049E1,1.7003685E2,2.8254074E1,5.290645E0],"tree_param":{"num_deleted":"0","num_feature":"14","num_nodes":"59","size_leaf_vector":"0"}},{"base_weights":[5.935499E-2,4.829926E-1,-3.3972293E-1,2.0660114E-1,1.1695176E0,-5.6271315E-1,5.05953E-1,1.1947464E0,-2.3106702E-2,1.0929548E0,1.2057331E0,-6.599844E-1,1.19902745E-1,1.2664944E0,-2.4431807E-1,-1.1426513E0,1.3696094E0,6.173577E-1,-6.0606694E-1,1.274954E0,9.373289E-1,4.4607854E-1,-7.2252357E-1,6.0948235E-1,-2.5224969E-2,-7.130683E-1,4.5499203E-1,-1.3132329E0,-6.6746145E-1,1.4577891E0,1.2858762E0,-5.770091E-1,7.9571265E-1,-1.1028029E0,-5.1554495E-1,1.7456594E-1,1.310851E0,6.33224E-1,9.561327E-1,5.3389657E-2,7.4626094E-1,-7.280973E-1,1.204368E0,7.023984E-2,7.486901E-1,-6.61199E-1,8.74027E-2,-7.628058E-1,-9.373181E-2,8.6583644E-1,-4.5309734E-1],"categories":[],"categories_nodes":[],"categories_segments":[],"categories_sizes":[],"default_left":[1,1,1,1,1,1,1,1,1,1,0,1,1,0,1,1,1,1,1,1,1,1,1,1,1,1,1,0,0,0,0,0,0,0,0,0,0,0,0,0,0,0,0,0,0,0,0,0,0,0,0],"id":26,"left_children":[1,3,5,7,9,11,13,15,17,19,-1,21,23,-1,25,27,29,31,33,35,37,39,41,43,45,47,49,-1,-1,-1,-1,-1,-1,-1,-1,-1,-1,-1,-1,-1,-1,-1,-1,-1,-1,-1,-1,-1,-1,-1,-1],"loss_changes":[1.8433093E3,1.0029133E3,1.0592957E3,8.5663257E2,1.3422852E0,2.9527625E2,6.697301E2,2.9408728E2,1.1445126E3,1.1821777E1,0E0,2.697516E2,3.958085E1,0E0,1.9467299E2,2.150055E0,8.734131E-1,3.120818E2,7.086096E1,8.440887E0,2.4581909E-1,2.4515644E1,4.125818E1,9.370903E0,3.1008278E1,1.0712418E1,8.985661E1,0E0,0E0,0E0,0E0,0E0,0E0,0E0,0E0,0E0,0E0,0E0,0E0,0E0,0E0,0E0,0E0,0E0,0E0,0E0,0E0,0E0,0E0,0E0,0E0],"parents":[2147483647,0,0,1,1,2,2,3,3,4,4,5,5,6,6,7,7,8,8,9,9,11,11,12,12,14,14,15,15,16,16,17,17,18,18,19,19,20,20,21,21,22,22,23,23,24,24,25,25,26,26],"right_children":[2,4,6,8,10,12,14,16,18,20,-1,22,24,-1,26,28,30,32,34,36,38,40,42,44,46,48,50,-1,-1,-1,-1,-1,-1,-1,-1,-1,-1,-1,-1,-1,-1,-1,-1,-1,-1,-1,-1,-1,-1,-1,-1],"split_conditions":[4.5E0,3.3256116E0,3.7010188E0,2.5E0,3.5479245E0,5E-1,7.5E0,2.7923589E0,2.6201978E0,3.3924475E0,6.0286652E-2,2.8073726E0,5.5E0,6.332472E-2,3.8800368E0,5E-1,5E-1,3.5E0,3.5E0,3.5E0,3.5E0,5E-1,5E-1,5E-1,6.5E0,1.55E1,1.15E1,-6.566165E-2,-3.3373073E-2,7.2889455E-2,6.429381E-2,-2.8850455E-2,3.9785635E-2,-5.5140145E-2,-2.5777249E-2,8.728297E-3,6.554255E-2,3.16612E-2,4.7806635E-2,2.669483E-3,3.7313048E-2,-3.6404867E-2,6.02184E-2,3.511992E-3,3.7434507E-2,-3.305995E-2,4.3701353E-3,-3.8140293E-2,-4.6865907E-3,4.3291822E-2,-2.2654867E-2],"split_indices":[12,5,5,12,5,7,12,5,5,5,0,5,12,0,5,2,2,12,12,12,12,2,3,2,12,12,12,0,0,0,0,0,0,0,0,0,0,0,0,0,0,0,0,0,0,0,0,0,0,0,0],"split_type":[0,0,0,0,0,0,0,0,0,0,0,0,0,0,0,0,0,0,0,0,0,0,0,0,0,0,0,0,0,0,0,0,0,0,0,0,0,0,0,0,0,0,0,0,0,0,0,0,0,0,0],"sum_hessian":[1.0898975E4,5.286727E3,5.6122476E3,3.7712063E3,1.5155206E3,4.441807E3,1.1704408E3,7.098111E2,3.0613953E3,5.0757623E2,1.0079444E3,3.8879897E3,5.5381714E2,5.8062494E2,5.8981586E2,4.8595337E1,6.6121576E2,1.4586129E3,1.6027825E3,2.2703685E2,2.8053937E2,2.0732855E2,3.6806614E3,1.2532628E2,4.2849084E2,3.5318094E2,2.366349E2,3.300847E1,1.5586866E1,3.0548978E2,3.55726E2,1.8886096E2,1.269752E3,2.4344064E2,1.3593418E3,7.6308856E0,2.1940598E2,2.0684687E1,2.5985468E2,9.09888E1,1.1633975E2,3.6713376E3,9.323645E0,2.647989E1,9.884638E1,6.313475E1,3.6535608E2,3.2634793E2,2.6833015E1,1.6306364E2,7.357126E1],"tree_param":{"num_deleted":"0","num_feature":"14","num_nodes":"51","size_leaf_vector":"0"}},{"base_weights":[5.5236943E-2,2.3973496E-1,-9.5028955E-1,1.2516002E-1,8.483559E-1,-1.0557692E0,1.0376053E0,-1.8871492E-2,8.756792E-1,5.511006E-1,1.1539574E0,-1.1199931E0,-4.5690575E-1,8.60614E-1,1.2666038E0,3.0702218E-1,1.2159657E0,1.003093E0,1.1889502E0,-5.21133E-1,8.84033E-1,-2.3041364E-2,1.4158584E0,2.6515654E-1,6.479606E-1,-2.211409E-1,1.0269874E-1],"categories":[],"categories_nodes":[],"categories_segments":[],"categories_sizes":[],"default_left":[1,1,1,1,1,1,1,0,0,1,1,0,1,1,0,1,0,0,0,0,0,1,0,0,0,0,0],"id":27,"left_children":[1,3,5,7,9,11,13,-1,-1,15,17,-1,19,21,-1,23,-1,-1,-1,-1,-1,25,-1,-1,-1,-1,-1],"loss_changes":[2.0075725E3,6.373026E2,3.5398254E2,8.322095E2,1.3010852E2,6.013501E1,1.0724258E0,0E0,0E0,1.1887697E2,1.154602E0,0E0,1.4487598E1,2.7047966E1,0E0,7.3109703E0,0E0,0E0,0E0,0E0,0E0,6.304297E-1,0E0,0E0,0E0,0E0,0E0],"parents":[2147483647,0,0,1,1,2,2,3,3,4,4,5,5,6,6,9,9,10,10,12,12,13,13,15,15,21,21],"right_children":[2,4,6,8,10,12,14,-1,-1,16,18,-1,20,22,-1,24,-1,-1,-1,-1,-1,26,-1,-1,-1,-1,-1],"split_conditions":[5E-1,5E-1,1.5E0,5E-1,5E-1,5E-1,5E-1,-9.435746E-4,4.378396E-2,4.5E0,1.5E0,-5.5999655E-2,5E-1,4.5E0,6.3330196E-2,3.5E0,6.0798287E-2,5.0154652E-2,5.944751E-2,-2.6056651E-2,4.4201653E-2,2.5E0,7.079292E-2,1.3257827E-2,3.239803E-2,-1.1057045E-2,5.1349374E-3],"split_indices":[0,8,8,7,7,7,7,0,0,8,8,0,8,8,0,8,0,0,0,0,0,8,0,0,0,0,0],"split_type":[0,0,0,0,0,0,0,0,0,0,0,0,0,0,0,0,0,0,0,0,0,0,0,0,0,0,0],"sum_hessian":[1.0817391E4,9.141664E3,1.6757264E3,7.6955303E3,1.4461338E3,1.5922292E3,8.349714E1,6.4579976E3,1.2375326E3,7.360853E2,7.1004846E2,1.4362899E3,1.5593938E2,5.271056E1,3.0786583E1,5.40673E2,1.9541235E2,1.453955E2,5.64653E2,1.5004973E2,5.889654E0,2.1010254E1,3.1700306E1,4.8496973E2,5.5703278E1,7.8774476E0,1.3132806E1],"tree_param":{"num_deleted":"0","num_feature":"14","num_nodes":"27","size_leaf_vector":"0"}},{"base_weights":[5.2582785E-2,1.585277E-3,1.1123325E0,2.7141184E-1,-1.6730605E-1,1.0277023E0,1.4718758E0,5.7827455E-1,-4.335075E-1,1.161936E0,-2.4835023E-1,1.18297E0,4.9999934E-1,1.1224929E0,5.005404E-1,-5.151366E-1,-1.8740253E-1,-1.350818E-1,-6.0062575E-1,1.2472333E0,9.506912E-1,4.9463972E-1,1.0862892E0,-1.5434003E-1,1.5463903E0],"categories":[],"categories_nodes":[],"categories_segments":[],"categories_sizes":[],"default_left":[1,1,1,1,1,1,0,1,1,0,1,1,0,0,1,0,0,1,0,0,0,0,0,0,0],"id":28,"left_children":[1,3,5,7,9,11,-1,13,15,-1,17,19,-1,-1,21,-1,-1,23,-1,-1,-1,-1,-1,-1,-1],"loss_changes":[5.7939166E2,4.6641156E2,1.1702026E1,8.5282623E2,6.785609E2,3.1855988E1,0E0,1.14886475E2,2.3764557E1,0E0,2.3655557E2,2.059082E0,0E0,0E0,7.085388E0,0E0,0E0,1.4584145E2,0E0,0E0,0E0,0E0,0E0,0E0,0E0],"parents":[2147483647,0,0,1,1,2,2,3,3,4,4,5,5,7,7,8,8,10,10,11,11,14,14,17,17],"right_children":[2,4,6,8,10,12,-1,14,16,-1,18,20,-1,-1,22,-1,-1,24,-1,-1,-1,-1,-1,-1,-1],"split_conditions":[5E-1,5E-1,1.5E0,4.5E0,2.5E0,7.5E0,7.359379E-2,2.5E0,8.5E0,5.8096804E-2,7.5E0,5.5E0,2.4999967E-2,5.6124646E-2,5E-1,-2.575683E-2,-9.370127E-3,5E-1,-3.0031288E-2,6.2361665E-2,4.7534563E-2,2.4731986E-2,5.431446E-2,-7.7170017E-3,7.731952E-2],"split_indices":[11,2,11,12,12,12,0,12,12,0,12,12,0,0,13,0,0,13,0,0,0,0,0,0,0],"split_type":[0,0,0,0,0,0,0,0,0,0,0,0,0,0,0,0,0,0,0,0,0,0,0,0,0],"sum_hessian":[1.0720748E4,1.0230529E4,4.9021844E2,3.938163E3,6.292366E3,4.0328677E2,8.693169E1,2.7441094E3,1.1940537E3,3.599963E2,5.9323696E3,3.0953757E2,9.374921E1,3.3944965E2,2.40466E3,8.9470264E2,2.993511E2,4.4913125E3,1.4410573E3,2.3527568E2,7.426188E1,2.3844988E3,2.016099E1,4.4423096E3,4.9002777E1],"tree_param":{"num_deleted":"0","num_feature":"14","num_nodes":"25","size_leaf_vector":"0"}},{"base_weights":[4.6030983E-2,-5.819689E-1,6.9245106E-1,-5.882737E-1,1.2746966E0,5.330478E-1,1.2123864E0,9.818276E-2,-8.5110754E-1,7.841492E-1,-6.588549E-1,1.1224003E0,1.2471653E0,1.1583613E0,-2.8192332E-1,1.3656347E0,-9.021839E-1,6.3911694E-1,1.2802492E0,-6.8051827E-1,2.926485E-1,5.470044E-2,1.1618018E0,6.290367E-1,1.2517486E0,1.2798227E0,8.510593E-1,-1.830999E0,9.3934886E-2,9.8373085E-1,1.5776509E0,-1.5451156E0,-8.909685E-1,1.0102599E0,3.884658E-1,1.4569376E0,1.2394439E0,-4.339261E-1,-7.870991E-1,5.2357006E-1,-1.2524593E-1,4.464821E-1,-2.4818575E-1],"categories":[],"categories_nodes":[],"categories_segments":[],"categories_sizes":[],"default_left":[1,1,1,1,0,1,1,1,1,1,1,1,1,1,1,1,1,1,1,1,1,1,0,0,0,0,0,0,0,0,0,0,0,0,0,0,0,0,0,0,0,0,0],"id":29,"left_children":[1,3,5,7,-1,9,11,13,15,17,19,21,23,25,27,29,31,33,35,37,39,41,-1,-1,-1,-1,-1,-1,-1,-1,-1,-1,-1,-1,-1,-1,-1,-1,-1,-1,-1,-1,-1],"loss_changes":[4.314487E3,6.453577E1,4.3259106E2,9.6984326E2,0E0,1.201809E3,8.0407715E-1,6.0102527E2,4.4244824E2,2.3667993E2,1.4848846E1,1.5017029E1,6.912842E-1,1.2299194E1,6.3982513E2,3.7880707E0,2.4404785E1,2.3807849E2,1.5097656E0,1.717978E1,1.7979616E0,2.0337422E0,0E0,0E0,0E0,0E0,0E0,0E0,0E0,0E0,0E0,0E0,0E0,0E0,0E0,0E0,0E0,0E0,0E0,0E0,0E0,0E0,0E0],"parents":[2147483647,0,0,1,1,2,2,3,3,5,5,6,6,7,7,8,8,9,9,10,10,11,11,12,12,13,13,14,14,15,15,16,16,17,17,18,18,19,19,20,20,21,21],"right_children":[2,4,6,8,-1,10,12,14,16,18,20,22,24,26,28,30,32,34,36,38,40,42,-1,-1,-1,-1,-1,-1,-1,-1,-1,-1,-1,-1,-1,-1,-1,-1,-1,-1,-1,-1,-1],"split_conditions":[5E-1,5E-1,5E-1,4.5E0,6.373483E-2,1.15E1,5.5E0,2.029407E0,2.3386583E0,3.5779104E0,3.9849823E0,3.0270782E0,3.057907E0,1.6247301E0,2.5676517E0,2.2508144E0,2.5124493E0,2.9742475E0,3.6411674E0,3.5033987E0,4.04723E0,2.8112135E0,5.809009E-2,3.1451836E-2,6.258743E-2,6.399114E-2,4.2552967E-2,-9.1549955E-2,4.6967445E-3,4.9186543E-2,7.8882545E-2,-7.725578E-2,-4.4548426E-2,5.0512996E-2,1.942329E-2,7.284688E-2,6.1972197E-2,-2.1696305E-2,-3.9354958E-2,2.6178503E-2,-6.2622963E-3,2.2324106E-2,-1.24092875E-2],"split_indices":[9,3,8,1,0,1,1,5,5,5,5,5,5,5,5,5,5,5,5,5,5,5,0,0,0,0,0,0,0,0,0,0,0,0,0,0,0,0,0,0,0,0,0],"split_type":[0,0,0,0,0,0,0,0,0,0,0,0,0,0,0,0,0,0,0,0,0,0,0,0,0,0,0,0,0,0,0,0,0,0,0,0,0,0,0,0,0,0,0],"sum_hessian":[1.0624066E4,5.3888345E3,5.235232E3,5.3720127E3,1.6821926E1,4.0100596E3,1.2251722E3,1.4876123E3,3.8844004E3,3.3128916E3,6.971678E2,3.6087418E2,8.6429803E2,3.9158508E2,1.0960272E3,8.628199E1,3.7981184E3,2.567171E3,7.457208E2,6.8230804E2,1.4859741E1,1.3103759E1,3.4777042E2,8.557077E0,8.5574097E2,2.7588608E2,1.15699E2,2.1254785E2,8.834794E2,3.4995747E1,5.1286243E1,6.0276386E1,3.737842E3,1.0322473E3,1.5349236E3,1.26427284E2,6.192935E2,2.0925157E2,4.730565E2,9.399355E0,5.4603868E0,5.4439774E0,7.6597815E0],"tree_param":{"num_deleted":"0","num_feature":"14","num_nodes":"43","size_leaf_vector":"0"}},{"base_weights":[4.672792E-2,-5.5183655E-1,6.6319734E-1,-5.937144E-1,8.779479E-1,6.235607E-1,1.1962371E0,-5.7286584E-1,-1.0894417E0,9.2226803E-1,9.645232E-2,5.44965E-1,1.3075525E0,-6.035973E-1,1.4537262E0],"categories":[],"categories_nodes":[],"categories_segments":[],"categories_sizes":[],"default_left":[1,1,1,1,1,1,0,1,0,0,0,0,0,0,0],"id":30,"left_children":[1,3,5,7,9,11,-1,13,-1,-1,-1,-1,-1,-1,-1],"loss_changes":[3.8745212E3,3.200006E2,1.076145E2,5.209192E1,4.996559E0,2.5745557E2,0E0,3.1136145E2,0E0,0E0,0E0,0E0,0E0,0E0,0E0],"parents":[2147483647,0,0,1,1,2,2,3,3,4,4,5,5,7,7],"right_children":[2,4,6,8,10,12,-1,14,-1,-1,-1,-1,-1,-1,-1],"split_conditions":[5E-1,5E-1,1.5E0,5E-1,5E-1,5E-1,5.9811857E-2,5E-1,-5.4472085E-2,4.61134E-2,4.822616E-3,2.7248252E-2,6.537762E-2,-3.0179864E-2,7.268631E-2],"split_indices":[9,11,9,10,10,10,0,13,0,0,0,0,0,0,0],"split_type":[0,0,0,0,0,0,0,0,0,0,0,0,0,0,0],"sum_hessian":[1.0496139E4,5.3254297E3,5.170709E3,5.1750923E3,1.5033699E2,4.8170435E3,3.5366562E2,4.970561E3,2.0453142E2,1.4180663E2,8.530357E0,4.323931E3,4.93112E2,4.8977446E3,7.281622E1],"tree_param":{"num_deleted":"0","num_feature":"14","num_nodes":"15","size_leaf_vector":"0"}},{"base_weights":[4.9675032E-2,-5.2822345E-1,6.4760184E-1,-5.733012E-1,8.1336164E-1,1.3489665E0,-1.1213156E0,-1.1400796E0,-2.2071804E-1,-1.2201973E0,8.283948E-1,-3.4455997E-1,1.5459734E-1],"categories":[],"categories_nodes":[],"categories_segments":[],"categories_sizes":[],"default_left":[1,1,1,0,0,0,1,1,1,0,0,0,0],"id":31,"left_children":[1,3,5,-1,-1,-1,7,9,11,-1,-1,-1,-1],"loss_changes":[3.603717E3,3.21636E2,6.3623687E3,0E0,0E0,0E0,2.3971436E1,2.2696301E2,1.6274353E0,0E0,0E0,0E0,0E0],"parents":[2147483647,0,0,1,1,2,2,6,6,7,7,8,8],"right_children":[2,4,6,-1,-1,-1,8,10,12,-1,-1,-1,-1],"split_conditions":[5E-1,5E-1,5E-1,-2.866506E-2,4.066808E-2,6.7448325E-2,1.5E0,1.5E0,1.5E0,-6.1009865E-2,4.141974E-2,-1.7227998E-2,7.729867E-3],"split_indices":[9,0,0,0,0,0,9,8,8,0,0,0,0],"split_type":[0,0,0,0,0,0,0,0,0,0,0,0,0],"sum_hessian":[1.04251875E4,5.3014155E3,5.123772E3,5.130257E3,1.7115855E2,3.6694067E3,1.4543654E3,1.4240522E3,3.031303E1,1.3691388E3,5.491345E1,2.3115873E1,7.1971574E0],"tree_param":{"num_deleted":"0","num_feature":"14","num_nodes":"13","size_leaf_vector":"0"}},{"base_weights":[4.0025294E-2,-5.0833887E-1,6.285854E-1,1.4107591E-1,-7.6176715E-1,8.174763E-1,-2.9045933E-1,1.9442023E-1,-1.2424368E0,-8.235132E-1,8.7529814E-1,7.136244E-1,1.1582586E0,-6.634013E-1,1.2129449E0,-2.7455577E-1,2.3590846E-1,-8.8440365E-1,-4.1721928E-1,7.6852155E-1,1.086633E0,9.1007686E-1,1.9596863E-1,-3.6634678E-1,-8.477376E-1,9.73852E-1,-9.139228E-1,3.296322E-1,1.3063903E-1,-1.1134526E0,-8.029606E-1,-4.7842687E-1,1.1101004E-1,5.629095E-1,1.4309001E0,8.8186705E-1,1.278402E0,-2.4914044E-1,7.6640415E-1,-5.3540045E-1,-1.7328495E-1,-9.0684533E-1,2.2429818E-2],"categories":[],"categories_nodes":[],"categories_segments":[],"categories_sizes":[],"default_left":[1,1,1,1,1,1,1,1,0,1,1,1,0,1,0,1,1,1,1,1,0,1,1,1,1,0,0,0,0,0,0,0,0,0,0,0,0,0,0,0,0,0,0],"id":32,"left_children":[1,3,5,7,9,11,13,15,-1,17,19,21,-1,23,-1,25,27,29,31,33,-1,35,37,39,41,-1,-1,-1,-1,-1,-1,-1,-1,-1,-1,-1,-1,-1,-1,-1,-1,-1,-1],"loss_changes":[3.3046045E3,8.7263354E2,8.578528E2,1.1030188E2,3.8687012E2,1.431626E2,4.7440662E2,2.8064556E1,0E0,9.006348E1,1.292244E0,3.194287E2,0E0,3.633261E1,0E0,9.550907E1,1.2896187E1,5.761206E1,1.5760925E1,1.1784969E1,0E0,2.1214966E1,2.2083997E2,8.327244E0,2.1529388E1,0E0,0E0,0E0,0E0,0E0,0E0,0E0,0E0,0E0,0E0,0E0,0E0,0E0,0E0,0E0,0E0,0E0,0E0],"parents":[2147483647,0,0,1,1,2,2,3,3,4,4,5,5,6,6,7,7,9,9,10,10,11,11,13,13,15,15,16,16,17,17,18,18,19,19,21,21,22,22,23,23,24,24],"right_children":[2,4,6,8,10,12,14,16,-1,18,20,22,-1,24,-1,26,28,30,32,34,-1,36,38,40,42,-1,-1,-1,-1,-1,-1,-1,-1,-1,-1,-1,-1,-1,-1,-1,-1,-1,-1],"split_conditions":[5E-1,4.5E0,1.15E1,5E-1,5E-1,5E-1,5E-1,2.5E0,-6.212184E-2,1.45E1,1.45E1,7.5E0,5.7912927E-2,1.35E1,6.0647245E-2,1.5E0,3.5E0,6.5E0,2.25E1,1.5E0,5.433165E-2,5E-1,1.05E1,1.25E1,5E-1,4.86926E-2,-4.569614E-2,1.648161E-2,6.5319515E-3,-5.5672627E-2,-4.014803E-2,-2.3921344E-2,5.550502E-3,2.8145475E-2,7.1545005E-2,4.409335E-2,6.39201E-2,-1.2457022E-2,3.832021E-2,-2.6770024E-2,-8.664248E-3,-4.5342267E-2,1.121491E-3],"split_indices":[9,1,1,8,11,8,8,1,0,1,1,1,0,1,0,1,1,1,1,11,0,11,1,1,11,0,0,0,0,0,0,0,0,0,0,0,0,0,0,0,0,0,0],"split_type":[0,0,0,0,0,0,0,0,0,0,0,0,0,0,0,0,0,0,0,0,0,0,0,0,0,0,0,0,0,0,0,0,0,0,0,0,0,0,0,0,0,0,0],"sum_hessian":[1.023503E4,5.298498E3,4.9365327E3,1.4874279E3,3.81107E3,4.0951814E3,8.413512E2,1.4339308E3,5.349708E1,3.6735674E3,1.3750278E2,3.14365E3,9.515315E2,6.750731E2,1.6627803E2,1.1543436E2,1.3184965E3,3.1925122E3,4.8105518E2,9.7823685E1,3.9679085E1,2.2775874E3,8.660626E2,2.6099765E2,4.140755E2,3.868891E1,7.6745445E1,6.9474066E2,6.237558E2,8.304371E2,2.3620752E3,4.3144067E2,4.9614502E1,7.758942E1,2.0234266E1,2.1221157E3,1.554716E2,4.870052E2,3.7905743E2,1.3698392E2,1.2401372E2,3.877664E2,2.6309107E1],"tree_param":{"num_deleted":"0","num_feature":"14","num_nodes":"43","size_leaf_vector":"0"}},{"base_weights":[4.2536423E-2,-4.8181552E-1,6.032952E-1,-5.188025E-1,8.260547E-1,4.4941586E-1,1.1455109E0,1.6078536E-1,-7.938907E-1,6.349141E-1,1.4917451E0,8.780863E-1,-1.7570855E-1,1.0085248E0,1.355616E-1,-8.6490107E-1,-4.5306045E-1,5.237958E-1,8.85415E-1,8.498505E-1,1.2496301E0,1.8281835E-1,-6.436732E-1,1.8408328E-1,-1.1604271E0,-8.524024E-1,-1.0618601E0,-4.3173715E-1,-7.838448E-1,8.291673E-1,1.1048524E0,1.191965E-1,1.276465E0,-6.8660146E-1,5.898212E-2],"categories":[],"categories_nodes":[],"categories_segments":[],"categories_sizes":[],"default_left":[1,1,1,1,1,1,0,1,1,1,0,1,1,0,1,1,1,0,0,1,0,1,1,0,0,0,0,0,0,0,0,0,0,0,0],"id":33,"left_children":[1,3,5,7,9,11,-1,13,15,17,-1,19,21,-1,23,25,27,-1,-1,29,-1,31,33,-1,-1,-1,-1,-1,-1,-1,-1,-1,-1,-1,-1],"loss_changes":[2.9620479E3,2.5265625E2,4.0496863E2,9.470155E2,1.619941E1,1.0173982E3,0E0,3.08474E1,8.6340576E1,2.1430397E0,0E0,2.1289429E1,2.5956998E2,0E0,8.968447E1,5.3374023E0,3.6175232E0,0E0,0E0,9.046509E0,0E0,6.0540558E1,2.0382446E1,0E0,0E0,0E0,0E0,0E0,0E0,0E0,0E0,0E0,0E0,0E0,0E0],"parents":[2147483647,0,0,1,1,2,2,3,3,4,4,5,5,7,7,8,8,9,9,11,11,12,12,14,14,15,15,16,16,19,19,21,21,22,22],"right_children":[2,4,6,8,10,12,-1,14,16,18,-1,20,22,-1,24,26,28,-1,-1,30,-1,32,34,-1,-1,-1,-1,-1,-1,-1,-1,-1,-1,-1,-1],"split_conditions":[5E-1,5E-1,5E-1,4.5E0,1.5E0,7.5E0,5.7275545E-2,1.5E0,1.35E1,1.45E1,7.4587256E-2,5E-1,1.15E1,5.042624E-2,5E-1,5E-1,5E-1,2.618979E-2,4.427075E-2,1.5E0,6.2481504E-2,5E-1,5E-1,9.204164E-3,-5.8021355E-2,-4.262012E-2,-5.3093005E-2,-2.1586858E-2,-3.919224E-2,4.1458365E-2,5.5242624E-2,5.959825E-3,6.382325E-2,-3.4330074E-2,2.949106E-3],"split_indices":[9,11,8,1,11,1,0,1,1,1,0,11,1,0,8,8,8,0,0,9,0,11,11,0,0,0,0,0,0,0,0,0,0,0,0],"split_type":[0,0,0,0,0,0,0,0,0,0,0,0,0,0,0,0,0,0,0,0,0,0,0,0,0,0,0,0,0,0,0,0,0,0,0],"sum_hessian":[1.0069776E4,5.2038687E3,4.865908E3,5.0619966E3,1.4187192E2,3.7932393E3,1.072669E3,1.45874E3,3.6032568E3,1.1337591E2,2.8496021E1,2.249812E3,1.5434271E3,3.9782085E1,1.4189579E3,2.9791887E3,6.240682E2,8.309669E1,3.0279215E1,2.0972717E3,1.5254045E2,8.7446704E2,6.689601E2,1.3694779E3,4.9480026E1,2.8119126E3,1.672761E2,5.9089044E2,3.3177753E1,1.9481526E3,1.4911908E2,8.285749E2,4.5892136E1,6.306207E2,3.833934E1],"tree_param":{"num_deleted":"0","num_feature":"14","num_nodes":"35","size_leaf_vector":"0"}},{"base_weights":[3.853503E-2,-4.656756E-1,5.8422077E-1,1.8777032E-1,-8.250034E-1,9.0590656E-1,1.0816218E-1,1.1818725E0,-9.649761E-2,-1.3331803E0,-7.0721483E-1,6.523988E-1,1.1702737E0,-2.1260473E-1,6.8526465E-1,1.2820697E0,9.6525675E-1,-4.547638E-1,7.702447E-1,-3.4968093E-1,-7.3846084E-1,8.8086766E-1,2.7599955E-1,1.2939581E0,1.1499826E0,1.1098152E0,-2.4893112E-1,4.0803412E-1,1.0021497E0,3.068838E-1,1.4150906E0,-1.3087171E-1,-1.0951586E0,-1.8272836E0,1.1314468E0,-6.5154815E-1,3.1613414E0,-7.941029E-1,6.2965184E-1,1.1382205E0,6.884254E-1,-5.333316E-1,5.386975E-1,8.640876E-1,1.1608434E0,1.2780702E0,1.2313164E-1,-3.4319602E-2,-5.914599E-1,1.1609871E0,-7.2433066E-1,1.1560345E0,-1.9119108E-1],"categories":[],"categories_nodes":[],"categories_segments":[],"categories_sizes":[],"default_left":[1,1,1,1,1,1,1,1,1,0,1,1,1,1,1,0,1,1,1,1,1,1,1,0,1,1,1,1,1,0,0,0,0,0,0,0,0,0,0,0,0,0,0,0,0,0,0,0,0,0,0,0,0],"id":34,"left_children":[1,3,5,7,9,11,13,15,17,-1,19,21,23,25,27,-1,29,31,33,35,37,39,41,-1,43,45,47,49,51,-1,-1,-1,-1,-1,-1,-1,-1,-1,-1,-1,-1,-1,-1,-1,-1,-1,-1,-1,-1,-1,-1,-1,-1],"loss_changes":[2.7419294E3,1.2165471E3,7.326294E2,5.2008594E2,1.9797559E2,1.8967383E2,3.580378E2,6.181885E0,4.4534393E2,0E0,2.973706E1,1.2516449E2,2.808838E-1,6.019765E1,5.9737457E1,0E0,3.9778595E1,2.1002649E2,3.9762347E2,2.3967493E2,1.9112683E2,4.3268738E1,1.1867554E2,0E0,1.5709229E0,5.112484E0,8.8981514E1,3.1894434E2,5.945926E1,0E0,0E0,0E0,0E0,0E0,0E0,0E0,0E0,0E0,0E0,0E0,0E0,0E0,0E0,0E0,0E0,0E0,0E0,0E0,0E0,0E0,0E0,0E0,0E0],"parents":[2147483647,0,0,1,1,2,2,3,3,4,4,5,5,6,6,7,7,8,8,10,10,11,11,12,12,13,13,14,14,16,16,17,17,18,18,19,19,20,20,21,21,22,22,24,24,25,25,26,26,27,27,28,28],"right_children":[2,4,6,8,10,12,14,16,18,-1,20,22,24,26,28,-1,30,32,34,36,38,40,42,-1,44,46,48,50,52,-1,-1,-1,-1,-1,-1,-1,-1,-1,-1,-1,-1,-1,-1,-1,-1,-1,-1,-1,-1,-1,-1,-1,-1],"split_conditions":[5E-1,2.8073726E0,7.5E0,2.0272927E0,6.5E0,3.3256116E0,3.6979573E0,1.6352189E0,2.8036997E0,-6.665902E-2,3.0031195E0,2.9742475E0,3.3816004E0,2.932104E0,3.8841693E0,6.4103484E-2,3.5E0,2.5899346E0,3.5E0,2.9997907E0,5E-1,2.5361342E0,3.0570204E0,6.469791E-2,3.413444E0,8.5E0,1.15E1,1.35E1,1.65E1,1.534419E-2,7.075453E-2,-6.5435856E-3,-5.475793E-2,-9.136418E-2,5.6572344E-2,-3.2577407E-2,1.5806708E-1,-3.9705146E-2,3.1482592E-2,5.691103E-2,3.4421273E-2,-2.666658E-2,2.6934875E-2,4.320438E-2,5.804217E-2,6.390351E-2,6.156582E-3,-1.7159801E-3,-2.9572994E-2,5.804936E-2,-3.6216535E-2,5.7801723E-2,-9.559554E-3],"split_indices":[9,5,1,5,1,5,5,5,5,0,5,5,5,5,5,0,1,5,1,5,11,5,5,0,5,1,1,1,1,0,0,0,0,0,0,0,0,0,0,0,0,0,0,0,0,0,0,0,0,0,0,0,0],"split_type":[0,0,0,0,0,0,0,0,0,0,0,0,0,0,0,0,0,0,0,0,0,0,0,0,0,0,0,0,0,0,0,0,0,0,0,0,0,0,0,0,0,0,0,0,0,0,0,0,0,0,0,0,0],"sum_hessian":[9.961539E3,5.177587E3,4.7839517E3,1.8372257E3,3.340361E3,2.853648E3,1.9303038E3,4.0721313E2,1.4300126E3,6.245159E2,2.7158452E3,1.4604767E3,1.3931713E3,1.2413967E3,6.889071E2,2.7138376E2,1.3582939E2,1.0125451E3,4.1746744E2,2.2048769E2,2.4953574E3,9.0699677E2,5.5348E2,1.779583E2,1.2152129E3,3.1535303E1,1.2098615E3,3.7005286E2,3.1885425E2,5.6590603E1,7.923879E1,6.7414703E2,3.3839804E2,4.9939648E1,3.675278E2,2.0455775E2,1.5929928E1,2.3987124E3,9.6645004E1,3.8362564E2,5.2337115E2,1.3503065E2,4.184493E2,5.0708557E1,1.1645044E3,2.6349968E1,5.1853356E0,7.453527E2,4.6450873E2,2.2228485E2,1.4776802E2,2.825632E2,3.629104E1],"tree_param":{"num_deleted":"0","num_feature":"14","num_nodes":"53","size_leaf_vector":"0"}},{"base_weights":[4.377661E-2,2.2725566E-1,-9.1406196E-1,3.5338324E-1,1.3832752E-1,-4.1323665E-1,-1.040842E0,7.411003E-1,-1.238649E-1,-9.547877E-1,2.1635672E-1,-4.918771E-1,1.1673632E0,-1.3781343E0,-1.0026709E0,8.1988806E-1,5.5127347E-1,-1.9938442E-1,1.069515E0,-6.7301565E-1,-9.81808E-1,4.6712157E-1,-1.404471E-3,4.326981E-1,-5.2217185E-1,-1.0465274E0,3.1806484E-1,6.455842E-1,8.5438776E-1,-7.982815E-2,-3.3193377E-1,1.1617792E-1,5.5613583E-1,-3.5019305E-1,2.1143943E-1,-5.439347E-1,-0E0,-1.055193E0,-6.679932E-1,9.792528E-1,-3.4837398E-1],"categories":[],"categories_nodes":[],"categories_segments":[],"categories_sizes":[],"default_left":[1,1,1,1,1,1,1,1,1,1,1,1,0,0,1,1,0,1,0,0,0,1,1,0,1,1,1,0,0,0,0,0,0,0,0,0,0,0,0,0,0],"id":35,"left_children":[1,3,5,7,9,11,13,15,17,19,21,23,-1,-1,25,27,-1,29,-1,-1,-1,31,33,-1,35,37,39,-1,-1,-1,-1,-1,-1,-1,-1,-1,-1,-1,-1,-1,-1],"loss_changes":[1.7210737E3,9.2037445E1,9.895654E1,6.287835E2,4.117999E2,4.1043335E1,1.3154175E1,2.6995728E1,1.3770644E2,9.621582E-1,2.4601291E2,9.080345E0,0E0,0E0,6.647363E1,6.6862793E0,0E0,2.265052E1,0E0,0E0,0E0,6.520923E1,1.792651E2,0E0,3.4053116E0,2.022705E0,1.7460707E1,0E0,0E0,0E0,0E0,0E0,0E0,0E0,0E0,0E0,0E0,0E0,0E0,0E0,0E0],"parents":[2147483647,0,0,1,1,2,2,3,3,4,4,5,5,6,6,7,7,8,8,9,9,10,10,11,11,14,14,15,15,17,17,21,21,22,22,24,24,25,25,26,26],"right_children":[2,4,6,8,10,12,14,16,18,20,22,24,-1,-1,26,28,-1,30,-1,-1,-1,32,34,-1,36,38,40,-1,-1,-1,-1,-1,-1,-1,-1,-1,-1,-1,-1,-1,-1],"split_conditions":[5E-1,5E-1,5E-1,4.5E0,4.5E0,5E-1,5.5E0,3.5E0,5E-1,2.5E0,7.5E0,2.5E0,5.8368158E-2,-6.890672E-2,5E-1,2.5E0,2.7563674E-2,7.5E0,5.347575E-2,-3.3650782E-2,-4.90904E-2,5.5E0,1.05E1,2.1634905E-2,1.95E1,2.05E1,1.35E1,3.2279212E-2,4.271939E-2,-3.991408E-3,-1.6596688E-2,5.808896E-3,2.7806792E-2,-1.7509652E-2,1.0571972E-2,-2.7196735E-2,-0E0,-5.2759647E-2,-3.339966E-2,4.896264E-2,-1.74187E-2],"split_indices":[0,2,2,1,1,3,1,1,11,1,1,1,0,0,11,1,0,1,0,0,0,1,1,0,1,1,1,0,0,0,0,0,0,0,0,0,0,0,0,0,0],"split_type":[0,0,0,0,0,0,0,0,0,0,0,0,0,0,0,0,0,0,0,0,0,0,0,0,0,0,0,0,0,0,0,0,0,0,0,0,0,0,0,0,0],"sum_hessian":[9.789138E3,8.216797E3,1.5723411E3,3.39482E3,4.8219766E3,3.195026E2,1.2528384E3,1.8726115E3,1.5222085E3,3.1968857E2,4.502288E3,3.057322E2,1.3770391E1,1.1996469E2,1.1328737E3,1.3182896E3,5.5432196E2,1.4332587E3,8.89499E1,3.283169E1,2.8685687E2,2.0917192E3,2.410569E3,8.752269E0,2.9697995E2,1.0969396E3,3.593409E1,2.2480804E2,1.0934814E3,7.5564465E2,6.77614E2,4.2436594E2,1.6673533E3,9.13231E2,1.497338E3,2.8504382E2,1.1936138E1,1.0686364E3,2.830323E1,1.764219E1,1.8291899E1],"tree_param":{"num_deleted":"0","num_feature":"14","num_nodes":"41","size_leaf_vector":"0"}},{"base_weights":[3.786922E-2,-6.2015157E-2,7.09914E-1,-7.1598776E-2,1.9719689E0,4.7013217E-1,1.1443747E0,-2.0867893E-1,7.01011E-1,1.5607245E-1,9.889186E-1,-2.2548145E-1,1.4253694E0],"categories":[],"categories_nodes":[],"categories_segments":[],"categories_sizes":[],"default_left":[1,1,1,1,0,1,0,1,0,0,0,0,0],"id":36,"left_children":[1,3,5,7,-1,9,-1,11,-1,-1,-1,-1,-1],"loss_changes":[6.511139E2,1.6469815E2,1.2951398E2,8.9059875E2,0E0,1.3192355E2,0E0,1.966037E2,0E0,0E0,0E0,0E0,0E0],"parents":[2147483647,0,0,1,1,2,2,3,3,5,5,7,7],"right_children":[2,4,6,8,-1,10,-1,12,-1,-1,-1,-1,-1],"split_conditions":[5E-1,5E-1,4.5E0,5E-1,9.859844E-2,5E-1,5.7218738E-2,5E-1,3.5050552E-2,7.8036226E-3,4.944593E-2,-1.1274072E-2,7.126847E-2],"split_indices":[8,6,8,7,0,7,0,13,0,0,0,0,0],"split_type":[0,0,0,0,0,0,0,0,0,0,0,0,0],"sum_hessian":[9.695486E3,8.442383E3,1.253104E3,8.40476E3,3.7622356E1,8.102923E2,4.4281165E2,7.139606E3,1.265154E3,5.0647815E2,3.0381418E2,7.0687056E3,7.0900566E1],"tree_param":{"num_deleted":"0","num_feature":"14","num_nodes":"13","size_leaf_vector":"0"}},{"base_weights":[3.8376164E-2,2.1351783E-1,-8.828955E-1,4.6539477E-1,-6.9156565E-2,-9.0399015E-1,5.455096E-1,1.0775505E0,3.5497835E-1,-2.0604053E-1,5.0527606E-2,-9.1787726E-1,-1.377899E-1,7.127997E-2,1.1336198E0,-3.263858E-1,4.5649514E-1,-6.32435E-2,-4.7778228E-1,3.274378E-1,-1.3857552E-1,-1.1862665E0,-9.036867E-1,-2.30189E-1,1.958828E-1,-4.8205916E-2,1.6504326E-1,-3.5199046E-1,9.528827E-1,4.379705E-1,1.4243166E0,-7.325784E-2,1.2992967E0,3.1490386E-1,1.527931E0,-3.3823502E-1,1.9159208E-1,-3.2270348E-1,-1.2539909E0,-3.0080825E-1,-9.922562E-2],"categories":[],"categories_nodes":[],"categories_segments":[],"categories_sizes":[],"default_left":[1,1,1,1,1,1,1,0,1,1,1,1,1,1,0,1,1,1,0,1,1,1,0,1,0,0,0,0,0,0,0,0,0,0,0,0,0,0,0,0,0],"id":37,"left_children":[1,3,5,7,9,11,13,-1,15,17,19,21,23,25,-1,27,29,31,-1,33,35,37,-1,39,-1,-1,-1,-1,-1,-1,-1,-1,-1,-1,-1,-1,-1,-1,-1,-1,-1],"loss_changes":[1.5611365E3,5.789414E2,4.759131E1,2.8970746E2,6.281996E1,1.5855713E1,6.319562E0,0E0,2.5248108E2,6.928502E1,1.0723753E2,3.345581E0,1.0064895E0,1.9936895E-1,0E0,1.6129307E1,5.546942E1,1.6099707E1,0E0,1.13570175E1,8.03592E1,3.0326233E0,0E0,1.254301E-1,0E0,0E0,0E0,0E0,0E0,0E0,0E0,0E0,0E0,0E0,0E0,0E0,0E0,0E0,0E0,0E0,0E0],"parents":[2147483647,0,0,1,1,2,2,3,3,4,4,5,5,6,6,8,8,9,9,10,10,11,11,12,12,13,13,15,15,16,16,17,17,19,19,20,20,21,21,23,23],"right_children":[2,4,6,8,10,12,14,-1,16,18,20,22,24,26,-1,28,30,32,-1,34,36,38,-1,40,-1,-1,-1,-1,-1,-1,-1,-1,-1,-1,-1,-1,-1,-1,-1,-1,-1],"split_conditions":[5E-1,4.5E0,5E-1,2.5E0,6.5E0,1.45E1,7.5E0,5.387753E-2,3.5E0,5.5E0,7.5E0,3.5E0,1.75E1,4.5E0,5.668099E-2,5E-1,5E-1,5E-1,-2.3889115E-2,5E-1,1.05E1,2.5E0,-4.5184337E-2,1.55E1,9.79414E-3,-2.410296E-3,8.252163E-3,-1.7599523E-2,4.7644135E-2,2.1898525E-2,7.121583E-2,-3.6628922E-3,6.496484E-2,1.5745193E-2,7.639655E-2,-1.691175E-2,9.5796045E-3,-1.6135175E-2,-6.269955E-2,-1.5040413E-2,-4.961281E-3],"split_indices":[0,12,10,12,12,12,12,0,12,12,12,12,12,12,0,13,13,6,0,6,12,12,0,12,0,0,0,0,0,0,0,0,0,0,0,0,0,0,0,0,0],"split_type":[0,0,0,0,0,0,0,0,0,0,0,0,0,0,0,0,0,0,0,0,0,0,0,0,0,0,0,0,0,0,0,0,0,0,0,0,0,0,0,0,0],"sum_hessian":[9.67136E3,8.127834E3,1.5435261E3,4.2975576E3,3.8302764E3,1.5218557E3,2.1670412E1,6.538954E2,3.643662E3,1.7864678E3,2.0438085E3,1.4942466E3,2.7609066E1,1.3332241E1,8.338172E0,4.7177432E2,3.171888E3,1.1729369E3,6.135309E2,8.2897614E2,1.2148324E3,6.638824E1,1.4278584E3,2.2342148E1,5.266918E0,5.820372E0,7.511869E0,4.640149E2,7.7594237E0,3.1152683E3,5.6619583E1,1.1663306E3,6.6063843E0,8.229915E2,5.9846373E0,7.5719446E2,4.5763788E2,5.7736764E0,6.061456E1,1.2333967E1,1.0008181E1],"tree_param":{"num_deleted":"0","num_feature":"14","num_nodes":"41","size_leaf_vector":"0"}},{"base_weights":[3.8299877E-2,-4.7176006E-1,5.965083E-1,6.669829E-2,-6.873888E-1,7.5775063E-1,-1.9320534E-1,3.69736E-1,-1.1137091E0,-7.069573E-1,2.2011971E0,8.875431E-1,4.2638284E-1,3.752415E-1,-3.113749E-1,-9.465359E-2,4.1365966E-1,-8.242556E-1,-4.137075E-1,9.799654E-1,8.209096E-1,6.6265896E-2,8.437666E-1,7.034634E-1,3.476095E-2,-2.0850691E-1,-6.709984E-1,-7.446781E-1,-8.629683E-1,-4.314212E-1,1.1074351E0,7.850446E-1,1.1308104E0,7.9208636E-4,1.2320026E0,-3.0354863E-1,9.0075463E-1,-2.6064008E-1,1.140944E0],"categories":[],"categories_nodes":[],"categories_segments":[],"categories_sizes":[],"default_left":[1,1,1,1,1,1,1,1,0,1,0,1,1,1,1,0,0,1,1,0,1,1,1,0,0,1,0,0,0,0,0,0,0,0,0,0,0,0,0],"id":38,"left_children":[1,3,5,7,9,11,13,15,-1,17,-1,19,21,23,25,-1,-1,27,29,-1,31,33,35,-1,-1,37,-1,-1,-1,-1,-1,-1,-1,-1,-1,-1,-1,-1,-1],"loss_changes":[2.7259846E3,5.810221E2,5.824475E2,5.130742E2,2.0490637E2,1.6240771E2,5.2394196E1,2.3388748E1,0E0,1.2131055E2,0E0,1.4999512E1,1.6102554E2,1.4898918E1,2.3463085E1,0E0,0E0,6.359009E0,2.8333435E1,0E0,1.5783081E1,4.4000885E1,3.3071136E1,0E0,0E0,3.596533E1,0E0,0E0,0E0,0E0,0E0,0E0,0E0,0E0,0E0,0E0,0E0,0E0,0E0],"parents":[2147483647,0,0,1,1,2,2,3,3,4,4,5,5,6,6,7,7,9,9,11,11,12,12,13,13,14,14,17,17,18,18,20,20,21,21,22,22,25,25],"right_children":[2,4,6,8,10,12,14,16,-1,18,-1,20,22,24,26,-1,-1,28,30,-1,32,34,36,-1,-1,38,-1,-1,-1,-1,-1,-1,-1,-1,-1,-1,-1,-1,-1],"split_conditions":[5E-1,4.5E0,1.15E1,5E-1,5E-1,7.5E0,5E-1,2.5E0,-5.5685457E-2,1.15E1,1.1005986E-1,5E-1,1.05E1,1.35E1,1.65E1,-4.7326796E-3,2.0682983E-2,5E-1,5E-1,4.899827E-2,1.5E0,1.5E0,5E-1,3.517317E-2,1.7380475E-3,1.5E0,-3.354992E-2,-3.7233904E-2,-4.3148417E-2,-2.157106E-2,5.5371758E-2,3.9252233E-2,5.654052E-2,3.9604318E-5,6.160013E-2,-1.51774315E-2,4.503773E-2,-1.3032004E-2,5.70472E-2],"split_indices":[9,1,1,2,6,1,2,1,0,1,0,2,1,1,1,0,0,2,3,0,9,9,2,0,0,9,0,0,0,0,0,0,0,0,0,0,0,0,0],"split_type":[0,0,0,0,0,0,0,0,0,0,0,0,0,0,0,0,0,0,0,0,0,0,0,0,0,0,0,0,0,0,0,0,0,0,0,0,0,0,0],"sum_hessian":[9.570252E3,5.000867E3,4.569385E3,1.430244E3,3.5706233E3,3.7947808E3,7.746039E2,1.1392346E3,2.9100946E2,3.5481318E3,2.2491394E1,2.72412E3,1.0706606E3,1.3241812E2,6.421857E2,9.804565E1,1.041189E3,2.5315596E3,1.0165723E3,1.129106E3,1.595014E3,5.761328E2,4.9452783E2,6.618763E1,6.623049E1,5.0202298E2,1.4016278E2,8.4259186E2,1.6889675E3,1.00635187E3,1.0220459E1,1.4361918E3,1.5882222E2,5.474711E2,2.8661673E1,2.29087E1,4.716191E2,4.8497482E2,1.7048162E1],"tree_param":{"num_deleted":"0","num_feature":"14","num_nodes":"39","size_leaf_vector":"0"}},{"base_weights":[3.067259E-2,3.3733353E-1,-2.4996401E-1,1.027118E0,2.2255355E-1,-2.6365927E-1,1.9137717E0,1.4083491E-1,1.0417976E0,-3.9852515E-1,5.899072E-1,7.547822E-2,6.9498795E-1,7.561798E-1,1.1145178E0,-4.1182795E-1,-7.667375E-3,4.0805605E-1,1.0196906E0,-7.248978E-1,1.9585499E-1,-4.9038845E-1,7.9555863E-1,6.083526E-1,1.002797E0,-4.2373982E-1,3.4317046E-1,-6.8164074E-1,9.082434E-1,4.7040966E-1,-9.986089E-1,7.788845E-1,1.1728142E0],"categories":[],"categories_nodes":[],"categories_segments":[],"categories_sizes":[],"default_left":[1,1,1,0,1,1,0,1,1,1,1,1,1,1,0,1,1,1,1,0,0,0,0,0,0,0,0,0,0,0,0,0,0],"id":39,"left_children":[1,3,5,-1,7,9,-1,11,13,15,17,19,21,23,-1,25,27,29,31,-1,-1,-1,-1,-1,-1,-1,-1,-1,-1,-1,-1,-1,-1],"loss_changes":[8.1252466E2,3.5661084E2,1.469271E2,0E0,2.5871426E2,5.6458813E2,0E0,1.273743E2,5.410309E0,2.196222E1,5.1339783E1,3.0399185E2,4.505716E1,1.4499474E0,0E0,3.7114258E1,8.8637245E1,4.2447662E1,5.2608795E0,0E0,0E0,0E0,0E0,0E0,0E0,0E0,0E0,0E0,0E0,0E0,0E0,0E0,0E0],"parents":[2147483647,0,0,1,1,2,2,4,4,5,5,7,7,8,8,9,9,10,10,11,11,12,12,13,13,15,15,16,16,17,17,18,18],"right_children":[2,4,6,-1,8,10,-1,12,14,16,18,20,22,24,-1,26,28,30,32,-1,-1,-1,-1,-1,-1,-1,-1,-1,-1,-1,-1,-1,-1],"split_conditions":[4.5E0,2.5E0,5E-1,5.13559E-2,2.5E0,5E-1,9.568859E-2,5E-1,4.5E0,5E-1,3.5E0,3.5E0,3.5E0,5E-1,5.572589E-2,1.55E1,8.5E0,5E-1,5.5E0,-3.624489E-2,9.79275E-3,-2.4519423E-2,3.977793E-2,3.041763E-2,5.0139852E-2,-2.118699E-2,1.7158523E-2,-3.4082036E-2,4.541217E-2,2.3520483E-2,-4.9930446E-2,3.8944226E-2,5.8640715E-2],"split_indices":[12,12,6,0,8,8,0,10,8,10,8,12,12,10,0,12,12,10,8,0,0,0,0,0,0,0,0,0,0,0,0,0,0],"split_type":[0,0,0,0,0,0,0,0,0,0,0,0,0,0,0,0,0,0,0,0,0,0,0,0,0,0,0,0,0,0,0,0,0],"sum_hessian":[9.437281E3,4.5095254E3,4.927756E3,6.409413E2,3.868584E3,4.898553E3,2.920262E1,3.51994E3,3.4864404E2,4.231196E3,6.673574E2,3.1507896E3,3.6915057E2,7.5658325E1,2.7298572E2,4.0915764E3,1.3961961E2,4.7184192E2,1.9551552E2,4.1050415E2,2.7402854E3,2.8186293E1,3.4096426E2,5.1892185E1,2.3766138E1,4.029019E3,6.2557274E1,8.079057E1,5.8829037E1,4.5315695E2,1.8684946E1,8.09841E1,1.1453142E2],"tree_param":{"num_deleted":"0","num_feature":"14","num_nodes":"33","size_leaf_vector":"0"}},{"base_weights":[3.644009E-2,-1.3766131E-1,7.8802794E-1,-1.8083438E-1,9.093614E-1,7.618909E-1,1.1712517E0,7.878903E-1,1.3924512E0,7.3910457E-1,8.603463E-1,1.2140925E0,6.11237E-1,1.3014079E0,5.061495E-1,6.471749E-1,1.0112215E0],"categories":[],"categories_nodes":[],"categories_segments":[],"categories_sizes":[],"default_left":[1,1,1,0,1,1,0,1,0,1,1,0,0,0,0,0,0],"id":40,"left_children":[1,3,5,-1,7,9,-1,11,-1,13,15,-1,-1,-1,-1,-1,-1],"loss_changes":[1.2299642E3,3.4522913E2,1.572937E1,0E0,1.5336609E1,2.2944946E0,0E0,1.6889343E1,0E0,1.7714886E2,8.146423E0,0E0,0E0,0E0,0E0,0E0,0E0],"parents":[2147483647,0,0,1,1,2,2,4,4,5,5,7,7,9,9,10,10],"right_children":[2,4,6,-1,8,10,-1,12,-1,14,16,-1,-1,-1,-1,-1,-1],"split_conditions":[5E-1,5E-1,5E-1,-9.041719E-3,1.5E0,1.5E0,5.8562584E-2,3.1627822E0,6.962256E-2,2.5899346E0,3.8483138E0,6.0704626E-2,3.056185E-2,6.50704E-2,2.5307475E-2,3.2358747E-2,5.0561078E-2],"split_indices":[7,11,11,0,11,7,0,5,0,5,5,0,0,0,0,0,0],"split_type":[0,0,0,0,0,0,0,0,0,0,0,0,0,0,0,0,0],"sum_hessian":[9.395469E3,7.6296104E3,1.7658586E3,7.329149E3,3.00461E2,1.6589503E3,1.0690833E2,2.4446107E2,5.599994E1,1.3618065E3,2.9714383E2,6.802621E1,1.7643486E2,3.961013E2,9.6570526E2,1.2780705E2,1.6933678E2],"tree_param":{"num_deleted":"0","num_feature":"14","num_nodes":"17","size_leaf_vector":"0"}},{"base_weights":[3.493305E-2,-6.060579E-3,9.437644E-1,-1.712917E-2,1.3623966E0,8.5603803E-1,1.3254601E0],"categories":[],"categories_nodes":[],"categories_segments":[],"categories_sizes":[],"default_left":[1,1,1,0,0,0,0],"id":41,"left_children":[1,3,5,-1,-1,-1,-1],"loss_changes":[3.4833176E2,1.3540512E2,1.1024231E1,0E0,0E0,0E0,0E0],"parents":[2147483647,0,0,1,1,2,2],"right_children":[2,4,6,-1,-1,-1,-1],"split_conditions":[5E-1,5E-1,1.5E0,-8.564585E-4,6.811983E-2,4.28019E-2,6.6273004E-2],"split_indices":[11,13,11,0,0,0,0],"split_type":[0,0,0,0,0,0,0],"sum_hessian":[9.344783E3,8.943267E3,4.0151718E2,8.873542E3,6.9724464E1,3.3196744E2,6.9549736E1],"tree_param":{"num_deleted":"0","num_feature":"14","num_nodes":"7","size_leaf_vector":"0"}},{"base_weights":[2.9643308E-2,2.4039356E-1,-2.4395485E-1,1.781145E-1,9.7873265E-1,-3.6539045E-1,6.336794E-1,4.4187155E-1,8.226009E-2,6.6088027E-1,1.0993564E0,-5.0859743E-1,-2.7432683E-1,