{"learner":{"attributes":{"best_iteration":"499","best_ntree_limit":"500","scikit_learn":"{\"use_label_encoder\": false, \"n_estimators\": 500, \"objective\": \"binary:logistic\", \"max_depth\": 5, \"max_leaves\": null, \"max_bin\": null, \"grow_policy\": null, \"learning_rate\": 0.05, \"verbosity\": null, \"booster\": null, \"tree_method\": null, \"gamma\": null, \"min_child_weight\": 5, \"max_delta_step\": null, \"subsample\": 0.8, \"sampling_method\": null, \"colsample_bytree\": 0.4, \"colsample_bylevel\": 0.7, \"colsample_bynode\": null, \"reg_alpha\": 0.1, \"reg_lambda\": 2.0, \"scale_pos_weight\": null, \"base_score\": null, \"missing\": NaN, \"num_parallel_tree\": null, \"random_state\": 42, \"n_jobs\": null, \"monotone_constraints\": null, \"interaction_constraints\": null, \"importance_type\": null, \"gpu_id\": null, \"validate_parameters\": null, \"predictor\": null, \"enable_categorical\": false, \"max_cat_to_onehot\": null, \"eval_metric\": \"auc\", \"early_stopping_rounds\": null, \"callbacks\": null, \"classes_\": [0, 1], \"n_classes_\": 2, \"_estimator_type\": \"classifier\"}"},"feature_names":["HTTP","URL Length","Popular tld in URL","IP","Non-latin characters","Entropy","@ in url","Suspicious characters","Digits","Subdomains","Sus domains","Number of phishing words","Levenshtein Distance","URL is shortened"],"feature_types":["int","int","int","int","int","float","int","int","int","int","int","int","int","int"],"gradient_booster":{"model":{"gbtree_model_param":{"num_parallel_tree":"1","num_trees":"500","size_leaf_vector":"0"},"tree_info":[0,0,0,0,0,0,0,0,0,0,0,0,0,0,0,0,0,0,0,0,0,0,0,0,0,0,0,0,0,0,0,0,0,0,0,0,0,0,0,0,0,0,0,0,0,0,0,0,0,0,0,0,0,0,0,0,0,0,0,0,0,0,0,0,0,0,0,0,0,0,0,0,0,0,0,0,0,0,0,0,0,0,0,0,0,0,0,0,0,0,0,0,0,0,0,0,0,0,0,0,0,0,0,0,0,0,0,0,0,0,0,0,0,0,0,0,0,0,0,0,0,0,0,0,0,0,0,0,0,0,0,0,0,0,0,0,0,0,0,0,0,0,0,0,0,0,0,0,0,0,0,0,0,0,0,0,0,0,0,0,0,0,0,0,0,0,0,0,0,0,0,0,0,0,0,0,0,0,0,0,0,0,0,0,0,0,0,0,0,0,0,0,0,0,0,0,0,0,0,0,0,0,0,0,0,0,0,0,0,0,0,0,0,0,0,0,0,0,0,0,0,0,0,0,0,0,0,0,0,0,0,0,0,0,0,0,0,0,0,0,0,0,0,0,0,0,0,0,0,0,0,0,0,0,0,0,0,0,0,0,0,0,0,0,0,0,0,0,0,0,0,0,0,0,0,0,0,0,0,0,0,0,0,0,0,0,0,0,0,0,0,0,0,0,0,0,0,0,0,0,0,0,0,0,0,0,0,0,0,0,0,0,0,0,0,0,0,0,0,0,0,0,0,0,0,0,0,0,0,0,0,0,0,0,0,0,0,0,0,0,0,0,0,0,0,0,0,0,0,0,0,0,0,0,0,0,0,0,0,0,0,0,0,0,0,0,0,0,0,0,0,0,0,0,0,0,0,0,0,0,0,0,0,0,0,0,0,0,0,0,0,0,0,0,0,0,0,0,0,0,0,0,0,0,0,0,0,0,0,0,0,0,0,0,0,0,0,0,0,0,0,0,0,0,0,0,0,0,0,0,0,0,0,0,0,0,0,0,0,0,0,0,0,0,0,0,0,0,0,0,0,0,0,0,0,0,0,0,0,0,0,0,0,0,0,0,0,0,0,0,0,0,0,0,0,0,0,0,0,0,0,0,0,0,0,0,0,0,0,0,0,0,0,0,0,0,0,0,0,0],"trees":[{"base_weights":[-1.2028204E-1,-3.9148816E-1,1.3856086E0,-8.021353E-1,-1.8105935E-2,-1.2887284E0,1.8071502E0,-1.3347876E-2,-1.0042553E0,-1.495465E0,1.7758242E0,1.5403839E0,1.9486116E0,-5.9465952E-2,1.2491297E0,1.1412772E0,1.9203585E0,-7.793951E-2,6.7892976E-2,1.0554667E0,1.710959E0,1.3236039E0,-2.3695652E-1],"categories":[],"categories_nodes":[],"categories_segments":[],"categories_sizes":[],"default_left":[1,1,1,0,1,1,1,1,0,0,0,1,0,1,1,1,0,0,0,0,0,0,0],"id":0,"left_children":[1,3,5,-1,7,9,11,13,-1,-1,-1,15,-1,17,19,21,-1,-1,-1,-1,-1,-1,-1],"loss_changes":[6.777883E3,2.1561074E3,2.8599912E3,0E0,3.4442066E1,2.2449347E2,7.624512E1,4.2706638E2,0E0,0E0,0E0,1.1181604E2,0E0,1.6664515E1,1.923169E1,9.616284E1,0E0,0E0,0E0,0E0,0E0,0E0,0E0],"parents":[2147483647,0,0,1,1,2,2,4,4,5,5,6,6,7,7,11,11,13,13,14,14,15,15],"right_children":[2,4,6,-1,8,10,12,14,-1,-1,-1,16,-1,18,20,22,-1,-1,-1,-1,-1,-1,-1],"split_conditions":[5E-1,5E-1,5E-1,-4.0106766E-2,2.5E0,7.5E0,2.5E0,1.5E0,-5.0212767E-2,-7.477325E-2,8.8791214E-2,5E-1,9.743058E-2,5E-1,2.5E0,1.5E0,9.601793E-2,-3.8969757E-3,3.394649E-3,5.2773334E-2,8.554795E-2,6.618019E-2,-1.1847827E-2],"split_indices":[8,9,9,0,9,8,8,7,0,0,0,7,0,7,7,9,0,0,0,0,0,0,0],"split_type":[0,0,0,0,0,0,0,0,0,0,0,0,0,0,0,0,0,0,0,0,0,0,0],"sum_hessian":[1.65915E4,1.406075E4,2.53075E3,6.695E3,7.36575E3,3.44E2,2.18675E3,7.3325E3,3.325E1,3.2325E2,2.075E1,7.6625E2,1.4205E3,7.076E3,2.565E2,3.7775E2,3.885E2,6.181E3,8.95E2,1.855E2,7.1E1,3.3375E2,4.4E1],"tree_param":{"num_deleted":"0","num_feature":"14","num_nodes":"23","size_leaf_vector":"0"}},{"base_weights":[-1.1176853E-1,-3.5703796E-1,1.3959534E0,8.437029E-2,-6.4665425E-1,4.60813E-1,1.8506258E0,1.0317165E0,-7.415236E-1,-9.754767E-2,-7.867196E-1,3.2126844E-1,1.1677768E0,1.6415222E0,1.8752509E0,1.507995E0,4.6411806E-1,-1.0816088E0,-7.044563E-2,-4.5945942E-1,1.9106594E0,-5.123935E-1,-1.7479116E0,6.995952E-1,-1.2809706E0,1.3517799E0,-3.8088173E-1,1.6792289E0,7.6393735E-1,1.5234364E0,3.8748214E-1,4.8603457E-1,-2.3269835E-1,-1.2080607E0,2.3514695E-1,-3.5211858E-1,1.181679E0,-4.2845362E-1,-1.1056447E0,-6.263272E-1,6.9770527E-1,-1.7575605E0,-2.603074E-1,3.2009813E-1,8.435195E-1,-2.6757434E-1,-1.4989778E0,7.376814E-1,1.5282788E0],"categories":[],"categories_nodes":[],"categories_segments":[],"categories_sizes":[],"default_left":[1,1,1,1,1,1,1,1,1,1,1,1,1,1,0,1,1,1,1,1,0,1,1,1,1,1,0,0,0,0,0,0,0,0,0,0,0,0,0,0,0,0,0,0,0,0,0,0,0],"id":1,"left_children":[1,3,5,7,9,11,13,15,17,19,21,23,25,27,-1,29,31,33,35,37,-1,39,41,43,45,47,-1,-1,-1,-1,-1,-1,-1,-1,-1,-1,-1,-1,-1,-1,-1,-1,-1,-1,-1,-1,-1,-1,-1],"loss_changes":[6.132563E3,1.8235122E3,9.846123E2,4.423931E3,6.621582E2,7.425571E1,1.5268555E0,7.1031836E2,6.891516E2,1.2755511E3,1.8072891E3,3.891412E2,3.6662613E1,3.1756592E0,0E0,2.3386963E1,1.8646759E1,3.344402E2,3.5986752E2,2.8688416E1,0E0,7.3725305E2,2.073877E1,2.7656296E1,2.6137344E1,9.653656E0,0E0,0E0,0E0,0E0,0E0,0E0,0E0,0E0,0E0,0E0,0E0,0E0,0E0,0E0,0E0,0E0,0E0,0E0,0E0,0E0,0E0,0E0,0E0],"parents":[2147483647,0,0,1,1,2,2,3,3,4,4,5,5,6,6,7,7,8,8,9,9,10,10,11,11,12,12,13,13,15,15,16,16,17,17,18,18,19,19,21,21,22,22,23,23,24,24,25,25],"right_children":[2,4,6,8,10,12,14,16,18,20,22,24,26,28,-1,30,32,34,36,38,-1,40,42,44,46,48,-1,-1,-1,-1,-1,-1,-1,-1,-1,-1,-1,-1,-1,-1,-1,-1,-1,-1,-1,-1,-1,-1,-1],"split_conditions":[3.797255E0,5E-1,5E-1,2.808025E0,2.9742475E0,3.9855044E0,3.879973E0,2.501629E0,3.4594615E0,2.9708953E0,5E-1,5E-1,5E-1,5E-1,9.376255E-2,5E-1,5E-1,5E-1,5E-1,5E-1,9.5532976E-2,5E-1,2.5E0,5E-1,5E-1,5E-1,-1.9044086E-2,8.396145E-2,3.819687E-2,7.617182E-2,1.9374108E-2,2.4301728E-2,-1.1634918E-2,-6.0403038E-2,1.1757348E-2,-1.7605929E-2,5.908395E-2,-2.1422682E-2,-5.5282235E-2,-3.1316362E-2,3.4885265E-2,-8.7878026E-2,-1.301537E-2,1.6004907E-2,4.2175975E-2,-1.3378717E-2,-7.494889E-2,3.688407E-2,7.6413944E-2],"split_indices":[5,2,8,5,5,5,5,5,5,5,0,0,0,0,0,8,8,8,8,8,0,8,8,2,2,2,0,0,0,0,0,0,0,0,0,0,0,0,0,0,0,0,0,0,0,0,0,0,0],"split_type":[0,0,0,0,0,0,0,0,0,0,0,0,0,0,0,0,0,0,0,0,0,0,0,0,0,0,0,0,0,0,0,0,0,0,0,0,0,0,0,0,0,0,0,0,0,0,0,0,0],"sum_hessian":[1.6579129E4,1.4260833E4,2.3182957E3,5.6502617E3,8.610571E3,7.598117E2,1.558484E3,2.631457E3,3.0188047E3,1.7508226E3,6.8597485E3,6.371063E2,1.2270534E2,1.7888358E2,1.3796005E3,1.428933E3,1.202524E3,2.0025773E3,1.0162275E3,1.4848251E3,2.6599753E2,5.339122E3,1.5206263E3,5.163686E2,1.2073776E2,1.099594E2,1.2745943E1,1.6965327E2,9.230291E0,1.4087114E3,2.022147E1,1.1665809E3,3.5943184E1,1.8273341E3,1.7524318E2,8.3084204E2,1.8538547E2,1.4201626E3,6.466252E1,4.880645E3,4.5847714E2,1.5103994E3,1.022693E1,1.439491E2,3.7241946E2,2.2245241E1,9.849252E1,2.6987265E1,8.297213E1],"tree_param":{"num_deleted":"0","num_feature":"14","num_nodes":"49","size_leaf_vector":"0"}},{"base_weights":[-1.1021534E-1,-4.087555E-1,9.852744E-1,-4.73351E-1,1.333974E0,9.318045E-1,1.754419E0,-4.8291135E-1,1.9357982E0,1.1982775E0,1.846173E0,9.260856E-1,1.7217745E0,-1.2460137E-1,-6.7770463E-1,1.0749271E0,6.9958824E-1,1.0033902E0,1.3562658E0,6.536248E-1,1.426449E0],"categories":[],"categories_nodes":[],"categories_segments":[],"categories_sizes":[],"default_left":[1,1,1,1,1,1,0,1,0,0,0,1,0,0,0,1,1,0,0,0,0],"id":2,"left_children":[1,3,5,7,9,11,-1,13,-1,-1,-1,15,-1,-1,-1,17,19,-1,-1,-1,-1],"loss_changes":[5.4117603E3,1.4649895E3,1.4220166E2,2.905515E2,2.7605469E1,1.1535156E1,0E0,8.716575E2,0E0,0E0,0E0,1.0951465E2,0E0,0E0,0E0,3.7020752E1,4.182599E1,0E0,0E0,0E0,0E0],"parents":[2147483647,0,0,1,1,2,2,3,3,4,4,5,5,7,7,11,11,15,15,16,16],"right_children":[2,4,6,8,10,12,-1,14,-1,-1,-1,16,-1,-1,-1,18,20,-1,-1,-1,-1],"split_conditions":[5E-1,5E-1,5E-1,5E-1,1.5E0,5E-1,8.772095E-2,5E-1,9.678991E-2,5.9913874E-2,9.2308655E-2,5E-1,8.6088724E-2,-6.230069E-3,-3.3885233E-2,1.5E0,2.5E0,5.016951E-2,6.781329E-2,3.2681238E-2,7.132245E-2],"split_indices":[7,11,11,6,11,6,0,2,0,0,0,2,0,0,0,7,7,0,0,0,0],"split_type":[0,0,0,0,0,0,0,0,0,0,0,0,0,0,0,0,0,0,0,0,0],"sum_hessian":[1.6543025E4,1.3001291E4,3.5417349E3,1.2538073E4,4.6321826E2,3.3157793E3,2.259556E2,1.2490148E4,4.792478E1,3.7163535E2,9.158292E1,3.2963865E3,1.939263E1,4.400147E3,8.090001E3,1.9844094E3,1.311977E3,1.5896841E3,3.947254E2,1.2376497E3,7.432739E1],"tree_param":{"num_deleted":"0","num_feature":"14","num_nodes":"21","size_leaf_vector":"0"}},{"base_weights":[-1.0315259E-1,-7.638515E-1,3.835759E-1,-6.6295795E-2,-1.3309597E0,6.2053657E-1,2.4491793E-1,-2.6603749E-2,-8.403263E-1,-1.3337469E0,-6.1963147E-1,1.4343302E-1,1.6585698E0,-4.2320408E-2,1.5959201E0,-4.9736708E-1,1.2490888E0,-1.3042446E0,1.6575776E0,-1.3988492E0,-5.9267443E-1,9.6705556E-2,9.750939E-1,1.09528E0,1.7750812E0,-1.3538668E-1,6.065412E-1,1.4392402E0,1.7521173E0,1.3038471E0,-1.1238322E0,-6.752551E-1,-2.1627302E-1,2.7477282E-1,-1.5044541E0,8.161985E-1,1.4285698E0,1.4356121E0,-1.0359643E0,-2.094041E-1,8.623804E-1,4.4164574E-1,1.2339016E0],"categories":[],"categories_nodes":[],"categories_segments":[],"categories_sizes":[],"default_left":[1,1,1,1,1,1,1,1,1,1,0,1,1,1,1,0,1,0,0,0,1,1,1,1,0,1,1,0,0,0,0,0,0,0,0,0,0,0,0,0,0,0,0],"id":3,"left_children":[1,3,5,7,9,11,13,15,17,19,-1,21,23,25,27,-1,29,-1,-1,-1,31,33,35,37,-1,39,41,-1,-1,-1,-1,-1,-1,-1,-1,-1,-1,-1,-1,-1,-1,-1,-1],"loss_changes":[5.312883E3,2.7719954E3,3.1217786E2,9.6485085E1,5.8154297E0,1.7377506E3,2.3305806E3,1.7989518E3,1.8183025E2,1.8380664E2,0E0,9.324748E1,6.834961E1,2.9927454E2,2.0406982E1,0E0,1.0786487E2,0E0,0E0,0E0,9.390274E0,6.5115845E2,6.646141E0,1.442849E2,0E0,3.203963E2,6.3051697E1,0E0,0E0,0E0,0E0,0E0,0E0,0E0,0E0,0E0,0E0,0E0,0E0,0E0,0E0,0E0,0E0],"parents":[2147483647,0,0,1,1,2,2,3,3,4,4,5,5,6,6,7,7,8,8,9,9,11,11,12,12,13,13,14,14,16,16,20,20,21,21,22,22,23,23,25,25,26,26],"right_children":[2,4,6,8,10,12,14,16,18,20,-1,22,24,26,28,-1,30,-1,-1,-1,32,34,36,38,-1,40,42,-1,-1,-1,-1,-1,-1,-1,-1,-1,-1,-1,-1,-1,-1,-1,-1],"split_conditions":[5E-1,5E-1,5E-1,5E-1,3.5E0,5E-1,5E-1,5E-1,7.5E0,5E-1,-3.0981574E-2,1.5E0,2.5E0,5E-1,5E-1,-2.4868354E-2,1.5E0,-6.5212235E-2,8.287888E-2,-6.994247E-2,1.5E0,1.5E0,2.5E0,1.5E0,8.875406E-2,1.5E0,1.5E0,7.1962014E-2,8.7605864E-2,6.519236E-2,-5.6191612E-2,-3.3762757E-2,-1.0813652E-2,1.37386415E-2,-7.522271E-2,4.0809926E-2,7.142849E-2,7.178061E-2,-5.1798213E-2,-1.0470205E-2,4.311902E-2,2.2082288E-2,6.169508E-2],"split_indices":[9,2,2,8,8,8,8,7,8,7,0,7,8,7,7,0,7,0,0,0,7,9,7,9,0,9,7,0,0,0,0,0,0,0,0,0,0,0,0,0,0,0,0],"split_type":[0,0,0,0,0,0,0,0,0,0,0,0,0,0,0,0,0,0,0,0,0,0,0,0,0,0,0,0,0,0,0,0,0,0,0,0,0,0,0,0,0,0,0],"sum_hessian":[1.6517195E4,7.006051E3,9.511145E3,3.142776E3,3.8632747E3,3.5081648E3,6.0029795E3,2.9915671E3,1.5120871E2,3.8463127E3,1.696192E1,2.4050994E3,1.1030653E3,4.951993E3,1.0509865E3,2.1861282E3,8.054389E2,1.2836426E2,2.2844439E1,3.5339497E3,3.1236322E2,2.2793835E3,1.2571598E2,1.9276697E2,9.102983E2,4.332342E3,6.196513E2,5.352008E2,5.1578564E2,7.8819354E2,1.7245398E1,2.5464227E2,5.7720943E1,2.0528071E3,2.2657639E2,9.74058E1,2.8310183E1,1.6682664E2,2.5940325E1,4.0347148E3,2.9762698E2,4.9350558E2,1.261457E2],"tree_param":{"num_deleted":"0","num_feature":"14","num_nodes":"43","size_leaf_vector":"0"}},{"base_weights":[-9.451564E-2,-3.6472964E-1,8.9533323E-1,5.4086185E-1,-1.2363641E0,1.3420528E0,-1.4673458E0,9.3333685E-1,4.273783E-1,-9.971274E-1,-1.8515972E0,1.7092599E0,6.2179315E-1,-6.757924E-1,-1.8354081E0,1.6201837E0,9.065673E-1,5.286941E-1,1.06589235E-1,-8.608584E-1,-1.3106778E0,-1.719256E0,-1.9009463E0,1.8055589E0,1.5107734E0,4.7448683E-1,1.2592214E0,-4.9587288E-1,-9.490435E-1,-1.573179E0,-1.9361839E0,5.202491E-1,1.7704828E0,9.509308E-2,1.5433079E0,-8.724056E-1,1.6810217E0,-1.3256369E0,1.5103235E0,1.2522161E0,1.7132342E0,2.5568435E-1,1.3418871E0,1.3292394E0,-2.886083E-1,-5.311351E-1,1.4092584E-1,-1.2355108E0,-1.4442259E-1,-1.8589807E0,-3.1193089E-2],"categories":[],"categories_nodes":[],"categories_segments":[],"categories_sizes":[],"default_left":[1,1,1,1,1,1,1,1,1,1,1,1,1,1,1,0,0,1,1,1,1,0,0,0,1,1,1,1,1,1,0,0,0,0,0,0,0,0,0,0,0,0,0,0,0,0,0,0,0,0,0],"id":4,"left_children":[1,3,5,7,9,11,13,15,17,19,21,23,25,27,29,-1,-1,31,33,35,37,-1,-1,-1,39,41,43,45,47,49,-1,-1,-1,-1,-1,-1,-1,-1,-1,-1,-1,-1,-1,-1,-1,-1,-1,-1,-1,-1,-1],"loss_changes":[4.4129604E3,1.0231698E4,3.7382412E3,2.822373E2,9.6814746E2,7.849053E2,1.6144202E2,2.2994385E1,1.60237E2,2.0090625E2,5.1625977E0,3.1872559E1,9.331287E1,7.867424E0,3.689087E0,0E0,0E0,3.7256836E1,1.9154945E1,1.00417725E2,6.4666504E1,0E0,0E0,0E0,2.9764404E1,1.5523755E2,2.1240051E1,2.7534637E0,1.5615292E1,5.142508E1,0E0,0E0,0E0,0E0,0E0,0E0,0E0,0E0,0E0,0E0,0E0,0E0,0E0,0E0,0E0,0E0,0E0,0E0,0E0,0E0,0E0],"parents":[2147483647,0,0,1,1,2,2,3,3,4,4,5,5,6,6,7,7,8,8,9,9,10,10,11,11,12,12,13,13,14,14,17,17,18,18,19,19,20,20,24,24,25,25,26,26,27,27,28,28,29,29],"right_children":[2,4,6,8,10,12,14,16,18,20,22,24,26,28,30,-1,-1,32,34,36,38,-1,-1,-1,40,42,44,46,48,50,-1,-1,-1,-1,-1,-1,-1,-1,-1,-1,-1,-1,-1,-1,-1,-1,-1,-1,-1,-1,-1],"split_conditions":[5E-1,7.5E0,1.65E1,3.5E0,1.95E1,7.5E0,2.35E1,1.5E0,6.5E0,1.25E1,2.35E1,5.5E0,1.55E1,2.05E1,2.75E1,8.100919E-2,4.5328364E-2,5E-1,5E-1,5E-1,5E-1,-8.59628E-2,-9.504732E-2,9.027795E-2,1.5E0,1.5E0,1.5E0,2.5E0,1.5E0,1.5E0,-9.68092E-2,2.6012456E-2,8.852414E-2,4.754654E-3,7.7165395E-2,-4.362028E-2,8.405109E-2,-6.628185E-2,7.551618E-2,6.2610805E-2,8.566171E-2,1.27842175E-2,6.7094356E-2,6.646197E-2,-1.4430416E-2,-2.6556754E-2,7.046292E-3,-6.1775543E-2,-7.2211297E-3,-9.294903E-2,-1.5596545E-3],"split_indices":[7,1,1,1,1,1,1,1,1,1,1,1,1,1,1,0,0,6,6,6,6,0,0,0,7,7,7,7,7,7,0,0,0,0,0,0,0,0,0,0,0,0,0,0,0,0,0,0,0,0,0],"split_type":[0,0,0,0,0,0,0,0,0,0,0,0,0,0,0,0,0,0,0,0,0,0,0,0,0,0,0,0,0,0,0,0,0,0,0,0,0,0,0,0,0,0,0,0,0,0,0,0,0,0,0],"sum_hessian":[1.6494594E4,1.2958484E4,3.5361094E3,6.3557607E3,6.602723E3,2.9745984E3,5.61511E2,1.422122E3,4.933639E3,4.757966E3,1.8447574E3,1.968249E3,1.00634937E3,1.8011026E2,3.814007E2,4.8741547E1,1.3733804E3,3.7482192E3,1.1854197E3,3.3220242E3,1.4359417E3,5.2107544E2,1.323682E3,1.3140287E3,6.542202E2,8.20404E2,1.859454E2,1.12217285E2,6.7892975E1,1.15381E2,2.660197E2,3.7257998E3,2.2419472E1,1.1781942E3,7.2255464E0,3.308348E3,1.3676221E1,1.4294572E3,6.4844475E0,2.938351E2,3.603851E2,6.573034E2,1.6310054E2,1.7823E2,7.715396E0,1.06792625E2,5.4246616E0,4.918606E1,1.8706915E1,9.69379E1,1.84431E1],"tree_param":{"num_deleted":"0","num_feature":"14","num_nodes":"51","size_leaf_vector":"0"}},{"base_weights":[-9.72369E-2,-3.2232058E-1,1.1707385E0,-1.23279184E-1,-1.486153E0,7.21954E-1,1.6187109E0,-1.313784E-1,1.823557E0,7.778199E-1,-3.663006E-1,1.271268E0,1.6764239E0,-1.4602277E-1,1.957582E0,7.686628E-1,1.4556737E0,7.4080026E-1,8.7368083E-1],"categories":[],"categories_nodes":[],"categories_segments":[],"categories_sizes":[],"default_left":[1,1,1,1,0,1,1,1,0,1,0,0,0,0,0,1,0,0,0],"id":5,"left_children":[1,3,5,7,-1,9,11,13,-1,15,-1,-1,-1,-1,-1,17,-1,-1,-1],"loss_changes":[4.6969214E3,3.2370117E3,4.962173E2,1.8853194E2,0E0,7.618689E1,2.030542E1,3.641092E2,0E0,4.883545E0,0E0,0E0,0E0,0E0,0E0,1.9727173E0,0E0,0E0,0E0],"parents":[2147483647,0,0,1,1,2,2,3,3,5,5,6,6,7,7,9,9,15,15],"right_children":[2,4,6,8,-1,10,12,14,-1,16,-1,-1,-1,-1,-1,18,-1,-1,-1],"split_conditions":[5E-1,5E-1,3.5E0,5E-1,-7.430765E-2,5E-1,4.5E0,5E-1,9.117785E-2,5E-1,-1.831503E-2,6.35634E-2,8.38212E-2,-7.3011382E-3,9.7879104E-2,2.5E0,7.2783686E-2,3.7040014E-2,4.3684043E-2],"split_indices":[8,0,8,6,0,0,8,13,0,6,0,0,0,0,0,8,0,0,0],"split_type":[0,0,0,0,0,0,0,0,0,0,0,0,0,0,0,0,0,0,0],"sum_hessian":[1.6452947E4,1.3973943E4,2.4790037E3,1.1935076E4,2.0388676E3,1.2411E3,1.2379036E3,1.1887538E4,4.753807E1,1.1811288E3,5.9971207E1,1.8314221E2,1.0547614E3,1.1806677E4,8.086096E1,1.1697423E3,1.1386463E1,9.379523E2,2.3179004E2],"tree_param":{"num_deleted":"0","num_feature":"14","num_nodes":"19","size_leaf_vector":"0"}},{"base_weights":[-9.453633E-2,-7.330727E-1,3.788999E-1,5.041101E-1,-1.3385696E0,5.792984E-2,1.4942629E0,2.9338542E-2,1.7522022E0,-1.3607477E0,1.8498669E0,1.6010891E0,-1.11256465E-1,-2.3588E-1,1.5720934E0,-3.3837017E-2,1.8192859E0,-1.4167634E0,-8.8937575E-1,1.6363956E0,-1.4742458E0,-1.5849902E-1,1.0134089E0,1.1649887E-1,-1.3482335E0,-5.3528696E-1,1.1957363E0,-1.4273862E0,-1.2310994E0,-5.5543226E-1,-1.0037695E0,8.0419517E-1,1.7315298E0,4.4870752E-1,-2.8108746E-1,1.4820838E-1,1.1503215E0,-3.1429216E-1,4.914657E-1,-5.318641E-1,-1.5901942E0],"categories":[],"categories_nodes":[],"categories_segments":[],"categories_sizes":[],"default_left":[1,1,1,1,1,1,1,1,0,1,0,1,1,1,0,1,0,1,1,1,0,1,1,1,1,0,0,0,0,0,0,0,0,0,0,0,0,0,0,0,0],"id":6,"left_children":[1,3,5,7,9,11,13,15,-1,17,-1,19,21,23,-1,25,-1,27,29,31,-1,33,35,37,39,-1,-1,-1,-1,-1,-1,-1,-1,-1,-1,-1,-1,-1,-1,-1,-1],"loss_changes":[4.9589004E3,5.2331924E3,3.3718887E3,1.3604111E3,3.3660645E2,1.9107958E3,2.843042E2,1.88649E2,0E0,1.2025098E2,0E0,8.335681E1,3.5067993E2,3.6613205E1,0E0,9.943378E2,0E0,4.4248047E0,1.7843048E1,5.363916E1,0E0,4.7154083E2,3.1047638E1,1.1934663E1,2.5269775E0,0E0,0E0,0E0,0E0,0E0,0E0,0E0,0E0,0E0,0E0,0E0,0E0,0E0,0E0,0E0,0E0],"parents":[2147483647,0,0,1,1,2,2,3,3,4,4,5,5,6,6,7,7,9,9,11,11,12,12,13,13,15,15,17,17,18,18,19,19,21,21,22,22,23,23,24,24],"right_children":[2,4,6,8,10,12,14,16,-1,18,-1,20,22,24,-1,26,-1,28,30,32,-1,34,36,38,40,-1,-1,-1,-1,-1,-1,-1,-1,-1,-1,-1,-1,-1,-1,-1,-1],"split_conditions":[5E-1,2.8073726E0,5E-1,5E-1,5E-1,2.501629E0,3.18931E0,5E-1,8.761011E-2,5E-1,9.249335E-2,1.5E0,1.5E0,1.5E0,7.860467E-2,2.8036997E0,9.0964295E-2,3.6912699E0,3.3142345E0,2.3072047E0,-7.371229E-2,2.9742475E0,3.5294409E0,3.0270782E0,3.1088614E0,-2.6764348E-2,5.9786815E-2,-7.136931E-2,-6.155497E-2,-2.7771613E-2,-5.0188478E-2,4.020976E-2,8.657649E-2,2.2435376E-2,-1.4054373E-2,7.410419E-3,5.7516076E-2,-1.5714608E-2,2.4573285E-2,-2.6593206E-2,-7.950971E-2],"split_indices":[9,5,8,7,13,5,5,13,0,7,0,9,7,9,0,5,0,5,5,5,0,5,5,5,5,0,0,0,0,0,0,0,0,0,0,0,0,0,0,0,0],"split_type":[0,0,0,0,0,0,0,0,0,0,0,0,0,0,0,0,0,0,0,0,0,0,0,0,0,0,0,0,0,0,0,0,0,0,0,0,0,0,0,0,0],"sum_hessian":[1.6399611E4,6.981962E3,9.417648E3,2.2942998E3,4.687662E3,7.314838E3,2.1028108E3,1.6635979E3,6.307019E2,4.656451E3,3.1211351E1,7.2112E2,6.5937183E3,9.029256E1,2.0125182E3,1.6087249E3,5.4873047E1,4.158098E3,4.9835297E2,7.1389246E2,7.2275414E0,6.329643E3,2.640752E2,6.986187E1,2.0430681E1,1.1435627E3,4.6516208E2,3.9199075E3,2.3819064E2,1.303665E2,3.6798645E2,7.528491E1,6.3860754E2,1.0622008E3,5.2674424E3,3.6747833E1,2.2732736E2,3.253736E1,3.7324512E1,6.2278047E0,1.4202876E1],"tree_param":{"num_deleted":"0","num_feature":"14","num_nodes":"41","size_leaf_vector":"0"}},{"base_weights":[-8.352816E-2,7.713147E-1,-9.509802E-1,1.2313883E0,5.739151E-1,-6.1792934E-1,-1.6390817E0,1.408577E0,-8.692835E-1,5.0100833E-1,1.7417295E0,-7.0089483E-1,1.1310889E0,-1.6778554E0,1.8695873E-1,1.4311113E0,1.6258855E-1,-3.944548E-1,-1.0226523E0,6.604084E-1,-1.1228118E0,-4.2908734E-1,-1.4552348E0,1.2776039E0,6.765848E-1,-1.3380587E0,-1.7738197E0,7.132019E-1,-5.636893E-1,5.4901505E-1,7.2814184E-1,-2.5074458E-1,-1.4334873E0,-8.7355995E-1,-2.970453E-1,-9.870885E-1,-1.5278059E0,1.1574402E0,1.7637091E0,4.4958836E-1,1.4747485E0,4.8640573E-1,1.301472E0,-1.0564941E0,-2.266023E-1],"categories":[],"categories_nodes":[],"categories_segments":[],"categories_sizes":[],"default_left":[1,1,1,1,1,1,1,1,1,1,0,1,1,1,1,0,0,0,0,1,1,1,1,1,1,0,0,1,1,0,0,0,0,0,0,0,0,0,0,0,0,0,0,0,0],"id":7,"left_children":[1,3,5,7,9,11,13,15,17,19,-1,21,23,25,27,-1,-1,-1,-1,29,31,33,35,37,39,-1,-1,41,43,-1,-1,-1,-1,-1,-1,-1,-1,-1,-1,-1,-1,-1,-1,-1,-1],"loss_changes":[1.208318E4,7.4376074E2,1.8512339E3,9.189702E2,4.8733032E2,7.9284644E2,1.8744775E2,6.3152344E1,1.3086166E1,1.4022858E3,0E0,1.06629E3,1.45686035E1,7.9135254E1,2.3163477E1,0E0,0E0,0E0,0E0,3.626709E1,1.3036884E2,2.2420697E2,4.3563477E1,6.4241333E0,1.0220997E1,0E0,0E0,3.1198883E0,3.4379907E0,0E0,0E0,0E0,0E0,0E0,0E0,0E0,0E0,0E0,0E0,0E0,0E0,0E0,0E0,0E0,0E0],"parents":[2147483647,0,0,1,1,2,2,3,3,4,4,5,5,6,6,7,7,8,8,9,9,11,11,12,12,13,13,14,14,19,19,20,20,21,21,22,22,23,23,24,24,27,27,28,28],"right_children":[2,4,6,8,10,12,14,16,18,20,-1,22,24,26,28,-1,-1,-1,-1,30,32,34,36,38,40,-1,-1,42,44,-1,-1,-1,-1,-1,-1,-1,-1,-1,-1,-1,-1,-1,-1,-1,-1],"split_conditions":[7.5E0,3.5E0,1.75E1,5E-1,5E-1,5E-1,5E-1,5E-1,2.5E0,5E-1,8.708648E-2,5E-1,1.25E1,2.15E1,2.35E1,7.155557E-2,8.129428E-3,-1.9722741E-2,-5.1132616E-2,5E-1,5E-1,5E-1,5E-1,1.5E0,1.5E0,-6.6902936E-2,-8.869099E-2,1.5E0,5E-1,2.7450753E-2,3.6407094E-2,-1.2537229E-2,-7.167437E-2,-4.3677997E-2,-1.4852265E-2,-4.9354427E-2,-7.6390296E-2,5.787201E-2,8.818545E-2,2.2479419E-2,7.373743E-2,2.4320288E-2,6.50736E-2,-5.2824706E-2,-1.1330116E-2],"split_indices":[1,1,1,2,11,11,11,0,1,0,0,0,1,1,1,0,0,0,0,2,2,2,2,11,11,0,0,11,2,0,0,0,0,0,0,0,0,0,0,0,0,0,0,0,0],"split_type":[0,0,0,0,0,0,0,0,0,0,0,0,0,0,0,0,0,0,0,0,0,0,0,0,0,0,0,0,0,0,0,0,0,0,0,0,0,0,0,0,0,0,0,0,0],"sum_hessian":[1.6290813E4,8.205095E3,8.0857197E3,2.4601973E3,5.744897E3,5.4512026E3,2.634517E3,2.2694768E3,1.9072058E2,5.4100884E3,3.348088E2,5.2055312E3,2.4567102E2,2.5799521E3,5.456495E1,2.2287905E3,4.0686207E1,4.8466026E1,1.4225456E2,4.927623E3,4.8246515E2,3.8290864E3,1.3764451E3,1.8287651E2,6.2794514E1,5.749739E2,2.0049783E3,3.221415E1,2.23508E1,1.8707319E3,3.056891E3,1.2776488E2,3.547003E2,8.74249E2,2.9548374E3,1.8884094E2,1.1876041E3,1.5221683E2,3.065969E1,5.142202E1,1.1372494E1,2.6010122E1,6.2040267E0,7.2242537E0,1.5126546E1],"tree_param":{"num_deleted":"0","num_feature":"14","num_nodes":"45","size_leaf_vector":"0"}},{"base_weights":[-8.8312E-2,7.403131E-1,-7.775148E-1,1.6172643E0,6.138336E-1,-1.0189832E0,8.494077E-1,-8.595267E-1,1.8026599E0,7.401816E-2,1.6113461E0,-1.132734E0,-3.388728E-1,-3.9237526E-1,1.3707349E0,-2.048991E-1,1.5166847E0,1.4361423E0,1.630081E0,-1.1831794E0,-7.907024E-1,1.4709066E0,-1.1988194E0,-6.7290145E-1,8.352648E-1,1.4556828E0,-2.4568754E-1,1.085953E0,-8.319359E-1,1.6728364E0,4.4087924E-2,-4.544348E-1,1.5100592E0,1.3381696E0,1.641839E0,-8.310848E-2,-1.2339253E0,-1.0343105E0,-4.7420427E-1,1.2031528E0,1.7337124E0,-1.2874699E0,-2.1815859E-1,6.526732E-1,-9.1053486E-1,-1.11548014E-1,1.1226014E0,1.0079465E0,1.5897149E0,-9.080917E-1,9.5895654E-1],"categories":[],"categories_nodes":[],"categories_segments":[],"categories_sizes":[],"default_left":[1,1,1,1,1,1,1,0,0,1,1,1,1,1,1,1,1,1,1,1,1,1,1,1,1,1,1,0,0,0,0,0,0,0,0,0,0,0,0,0,0,0,0,0,0,0,0,0,0,0,0],"id":8,"left_children":[1,3,5,7,9,11,13,-1,-1,15,17,19,21,23,25,27,29,31,33,35,37,39,41,43,45,47,49,-1,-1,-1,-1,-1,-1,-1,-1,-1,-1,-1,-1,-1,-1,-1,-1,-1,-1,-1,-1,-1,-1,-1,-1],"loss_changes":[9.258953E3,8.143345E2,3.4788408E3,4.2867944E2,3.4658406E3,5.954004E2,7.4236676E2,0E0,0E0,1.6823181E3,2.430664E0,1.1185254E2,1.727032E3,1.18211E2,1.1163098E2,2.8376821E3,1.554353E2,3.4411133E1,2.2631836E0,3.2063232E2,6.478375E1,2.0696411E1,6.465198E1,8.8772285E1,1.7783203E1,4.256067E1,3.52026E1,0E0,0E0,0E0,0E0,0E0,0E0,0E0,0E0,0E0,0E0,0E0,0E0,0E0,0E0,0E0,0E0,0E0,0E0,0E0,0E0,0E0,0E0,0E0,0E0],"parents":[2147483647,0,0,1,1,2,2,3,3,4,4,5,5,6,6,9,9,10,10,11,11,12,12,13,13,14,14,15,15,16,16,17,17,18,18,19,19,20,20,21,21,22,22,23,23,24,24,25,25,26,26],"right_children":[2,4,6,8,10,12,14,-1,-1,16,18,20,22,24,26,28,30,32,34,36,38,40,42,44,46,48,50,-1,-1,-1,-1,-1,-1,-1,-1,-1,-1,-1,-1,-1,-1,-1,-1,-1,-1,-1,-1,-1,-1,-1,-1],"split_conditions":[4.5E0,2.5E0,5E-1,2.7923589E0,3.3256116E0,3.6901884E0,3.5938678E0,-4.2976335E-2,9.0133E-2,5E-1,3.5E0,5E-1,7.5E0,5E-1,1.15E1,2.501629E0,2.5899346E0,3.418839E0,3.380182E0,2.8073726E0,3.500699E0,3.8080373E0,1.5E0,2.8642645E0,3.4249597E0,3.8075593E0,4.074256E0,5.4297652E-2,-4.1596796E-2,8.364182E-2,2.2043963E-3,-2.2721741E-2,7.550296E-2,6.690848E-2,8.209195E-2,-4.155424E-3,-6.169627E-2,-5.1715523E-2,-2.3710214E-2,6.0157638E-2,8.668562E-2,-6.437349E-2,-1.0907929E-2,3.263366E-2,-4.5526743E-2,-5.577401E-3,5.613007E-2,5.0397325E-2,7.9485744E-2,-4.5404587E-2,4.7947828E-2],"split_indices":[12,12,8,5,5,5,5,0,0,7,12,7,12,7,12,5,5,5,5,5,5,5,7,5,5,5,5,0,0,0,0,0,0,0,0,0,0,0,0,0,0,0,0,0,0,0,0,0,0,0,0],"split_type":[0,0,0,0,0,0,0,0,0,0,0,0,0,0,0,0,0,0,0,0,0,0,0,0,0,0,0,0,0,0,0,0,0,0,0,0,0,0,0,0,0,0,0,0,0,0,0,0,0,0,0],"sum_hessian":[1.62087295E4,7.3597935E3,8.848936E3,9.2460913E2,6.435184E3,7.706015E3,1.1429205E3,6.3846107E1,8.60763E2,4.1770005E3,2.2581836E3,6.60057E3,1.1054456E3,3.380353E2,8.048852E2,3.501656E3,6.753444E2,2.3366487E2,2.0245188E3,5.747651E3,8.529188E2,3.5558038E2,7.498652E2,2.7596106E2,6.2074245E1,7.6494574E2,3.993943E1,1.1443047E3,2.3573513E3,6.1029034E2,6.5054085E1,8.353671E0,2.2531119E2,8.7608734E1,1.9369102E3,2.5376561E2,5.4938853E3,4.7921548E2,3.7370334E2,1.8184671E2,1.7373369E2,6.8703076E2,6.2834393E1,4.1355644E1,2.3460541E2,1.4656066E1,4.741818E1,1.8033171E2,5.84614E2,2.6140675E1,1.3798755E1],"tree_param":{"num_deleted":"0","num_feature":"14","num_nodes":"51","size_leaf_vector":"0"}},{"base_weights":[-7.6111354E-2,7.292432E-1,-7.484242E-1,9.044367E-1,-1.4742897E0,-9.636276E-1,7.864517E-1,1.5828909E0,7.980173E-1,-6.079234E-1,-1.7932727E0,-7.6718384E-1,-1.6359707E0,1.3534446E0,-1.1011097E0,-6.861498E-1,1.737637E0,2.998932E-1,1.6327851E0,-8.666535E-1,1.2171553E0,-9.192839E-1,-1.5249744E-1,-1.3741635E0,-1.6858076E0,1.60233E0,7.8049946E-1,-7.375074E-1,-1.6912673E0,-1.1943519E0,-4.9386483E-1,1.0112861E0,-4.07748E-1,1.6498069E0,1.2453274E0,-1.6149567E-1,-9.7743046E-1,-9.3248403E-1,1.7880434E0,1.0491734E0,-1.0865761E0,-1.7309592E0,-3.4791026E-1,-1.7309903E0,-3.55675E-1,1.6120851E0,5.817771E-1,-2.9443744E-1,1.2338352E0,-7.868964E-1,1.8300213E-1,-1.7409359E0,-6.981191E-1],"categories":[],"categories_nodes":[],"categories_segments":[],"categories_sizes":[],"default_left":[1,1,1,1,1,1,1,1,1,1,0,1,1,1,1,1,0,1,1,1,0,1,1,1,1,1,1,1,1,0,0,0,0,0,0,0,0,0,0,0,0,0,0,0,0,0,0,0,0,0,0,0,0],"id":9,"left_children":[1,3,5,7,9,11,13,15,17,19,-1,21,23,25,27,29,-1,31,33,35,-1,37,39,41,43,45,47,49,51,-1,-1,-1,-1,-1,-1,-1,-1,-1,-1,-1,-1,-1,-1,-1,-1,-1,-1,-1,-1,-1,-1,-1,-1],"loss_changes":[8.728945E3,2.8342427E3,2.9037769E3,4.8791504E2,1.4707202E2,1.0151616E3,1.1604526E3,3.2527954E2,2.4433164E3,7.228174E1,0E0,5.575996E2,1.7773438E1,1.1598828E2,5.1097443E1,4.5229797E0,0E0,1.8555952E3,1.0087402E1,9.83754E0,0E0,1.7420776E2,1.3339386E3,1.0459686E2,8.589844E1,3.6635742E0,1.25654144E2,7.5719986E0,1.9618225E0,0E0,0E0,0E0,0E0,0E0,0E0,0E0,0E0,0E0,0E0,0E0,0E0,0E0,0E0,0E0,0E0,0E0,0E0,0E0,0E0,0E0,0E0,0E0,0E0],"parents":[2147483647,0,0,1,1,2,2,3,3,4,4,5,5,6,6,7,7,8,8,9,9,11,11,12,12,13,13,14,14,15,15,17,17,18,18,19,19,21,21,22,22,23,23,24,24,25,25,26,26,27,27,28,28],"right_children":[2,4,6,8,10,12,14,16,18,20,-1,22,24,26,28,30,-1,32,34,36,-1,38,40,42,44,46,48,50,52,-1,-1,-1,-1,-1,-1,-1,-1,-1,-1,-1,-1,-1,-1,-1,-1,-1,-1,-1,-1,-1,-1,-1,-1],"split_conditions":[4.5E0,7.5E0,3.8084953E0,2.5E0,1.25E1,2.05E1,1.65E1,2.7923589E0,3.3256116E0,3.6679516E0,-8.966364E-2,3.5899577E0,2.35E1,1.25E1,2.95E1,4.5E0,8.688185E-2,3.5E0,6.5E0,3.5E0,6.085777E-2,5E-1,7.5E0,1.25E1,1.65E1,8.5E0,1.05E1,1.95E1,2.35E1,-5.9717596E-2,-2.4693241E-2,5.0564308E-2,-2.0387402E-2,8.249035E-2,6.226637E-2,-8.074784E-3,-4.8871525E-2,-4.6624202E-2,8.940217E-2,5.245867E-2,-5.4328807E-2,-8.654796E-2,-1.7395513E-2,-8.654951E-2,-1.7783752E-2,8.0604255E-2,2.9088855E-2,-1.4721872E-2,6.169176E-2,-3.934482E-2,9.150106E-3,-8.7046795E-2,-3.4905955E-2],"split_indices":[12,1,5,12,1,1,1,5,5,5,0,5,1,1,1,1,0,1,1,12,0,6,12,12,12,12,12,12,12,0,0,0,0,0,0,0,0,0,0,0,0,0,0,0,0,0,0,0,0,0,0,0,0],"split_type":[0,0,0,0,0,0,0,0,0,0,0,0,0,0,0,0,0,0,0,0,0,0,0,0,0,0,0,0,0,0,0,0,0,0,0,0,0,0,0,0,0,0,0,0,0,0,0,0,0,0,0,0,0],"sum_hessian":[1.61174E4,7.3329907E3,8.78441E3,6.7940493E3,5.3894135E2,7.7049204E3,1.0794895E3,9.1730133E2,5.876748E3,1.4667996E2,3.9226135E2,5.966169E3,1.7387515E3,8.306075E2,2.4888211E2,5.8085163E1,8.592162E2,3.682286E3,2.194462E3,1.2943573E2,1.7244225E1,4.781792E3,1.1843768E3,2.875138E2,1.4512377E3,5.764372E2,2.5417024E2,1.5688959E2,9.199252E1,1.2940664E1,4.5144497E1,1.8359177E3,1.8463683E3,2.095623E3,9.883886E1,1.8363043E1,1.11072685E2,4.759932E3,2.1859917E1,5.178374E2,6.665395E2,2.1225029E2,7.52635E1,1.402905E3,4.83326E1,5.697341E2,6.7031655E0,7.553773E1,1.786325E2,1.492791E2,7.6104774E0,8.6080925E1,5.9115963E0],"tree_param":{"num_deleted":"0","num_feature":"14","num_nodes":"53","size_leaf_vector":"0"}},{"base_weights":[-7.201263E-2,-6.619267E-1,3.697765E-1,-8.925413E-1,5.2629524E-1,2.5731236E-1,1.5245261E0,-9.035583E-1,1.3827535E0,5.8962536E-1,-1.0207429E0,-3.2581057E-2,1.3440558E0,1.5352163E0,9.450006E-2,-4.7787923E-1,-1.1818497E0,9.5778096E-1,-3.6064517E-1,-6.172581E-2,8.303753E-1,1.1626117E0,1.463983E0,3.8849986E-1,1.7069596E0,-4.4889516E-1,-1.4473292E0,-1.167176E0,-1.4427428E0,1.0055122E0,-8.848826E-1,-4.712007E-1,2.0811684E-1,-5.847644E-2,-6.5658426E-1,6.9081366E-1,1.2468492E0,8.0672723E-1,1.4321591E0,-5.620702E-1,1.3327231E0,1.76777E0,1.5493805E0],"categories":[],"categories_nodes":[],"categories_segments":[],"categories_sizes":[],"default_left":[1,1,1,1,1,1,1,1,0,1,0,1,1,1,0,1,1,1,1,1,1,1,0,1,1,0,0,0,0,0,0,0,0,0,0,0,0,0,0,0,0,0,0],"id":10,"left_children":[1,3,5,7,9,11,13,15,-1,17,-1,19,21,23,-1,25,27,29,31,33,35,37,-1,39,41,-1,-1,-1,-1,-1,-1,-1,-1,-1,-1,-1,-1,-1,-1,-1,-1,-1,-1],"loss_changes":[4.1491973E3,1.8690862E3,1.1812577E3,1.4558643E2,1.09840515E2,2.6143657E3,1.1890137E1,6.720303E2,0E0,3.7402982E2,0E0,1.6482141E2,3.4358643E1,1.5625879E2,0E0,6.174469E1,9.522949E0,6.948511E1,1.904351E1,1.2106874E1,1.0527267E1,6.5136536E1,0E0,9.764335E1,8.6157227E-1,0E0,0E0,0E0,0E0,0E0,0E0,0E0,0E0,0E0,0E0,0E0,0E0,0E0,0E0,0E0,0E0,0E0,0E0],"parents":[2147483647,0,0,1,1,2,2,3,3,4,4,5,5,6,6,7,7,9,9,11,11,12,12,13,13,15,15,16,16,17,17,18,18,19,19,20,20,21,21,23,23,24,24],"right_children":[2,4,6,8,10,12,14,16,-1,18,-1,20,22,24,-1,26,28,30,32,34,36,38,-1,40,42,-1,-1,-1,-1,-1,-1,-1,-1,-1,-1,-1,-1,-1,-1,-1,-1,-1,-1],"split_conditions":[5E-1,5E-1,5E-1,5.5E0,5E-1,5E-1,1.5E0,5E-1,6.913768E-2,5E-1,-5.1037144E-2,1.5E0,5E-1,5E-1,4.725003E-3,1.5E0,5E-1,1.5E0,1.5E0,2.5E0,2.5E0,2.5E0,7.319915E-2,5E-1,5E-1,-2.2444759E-2,-7.236646E-2,-5.83588E-2,-7.213714E-2,5.0275613E-2,-4.4244133E-2,-2.3560036E-2,1.0405842E-2,-2.923822E-3,-3.2829214E-2,3.4540683E-2,6.234246E-2,4.0336363E-2,7.1607955E-2,-2.810351E-2,6.663616E-2,8.83885E-2,7.746903E-2],"split_indices":[9,7,10,8,8,8,9,2,0,2,0,7,7,2,0,8,8,7,7,9,7,8,0,7,8,0,0,0,0,0,0,0,0,0,0,0,0,0,0,0,0,0,0],"split_type":[0,0,0,0,0,0,0,0,0,0,0,0,0,0,0,0,0,0,0,0,0,0,0,0,0,0,0,0,0,0,0,0,0,0,0,0,0,0,0,0,0,0,0],"sum_hessian":[1.5916643E4,6.81539E3,9.101252E3,5.7081187E3,1.1072714E3,8.295832E3,8.054208E2,5.6818564E3,2.6261986E1,1.0649774E3,4.2293934E1,6.5503467E3,1.7454849E3,7.99229E2,6.1917233E0,2.248424E3,3.4334326E3,7.67659E2,2.9731842E2,6.338257E3,2.1209004E2,7.03439E2,1.0420459E3,1.0503368E2,6.941954E2,2.1860945E3,6.2329388E1,3.2613328E3,1.7209988E2,7.4921466E2,1.8444313E1,2.4936578E2,4.795264E1,6.3061743E3,3.2082275E1,1.6301933E2,4.9070717E1,3.0676837E2,3.966707E2,5.269153E1,5.234216E1,4.8569327E2,2.0850209E2],"tree_param":{"num_deleted":"0","num_feature":"14","num_nodes":"43","size_leaf_vector":"0"}},{"base_weights":[-6.9860056E-2,6.8722975E-1,-8.3297133E-1,-2.4226673E-1,1.3905675E0,-1.037467E0,-6.8261176E-1,4.8599E-1,-1.0738021E0,1.3403101E0,1.683839E0,-1.1867989E0,-8.6677015E-1,1.5312742E-1,-1.6034062E0,1.6420225E0,1.8823037E-1,-1.2284855E0,-8.1606364E-1,1.4212838E0,8.80881E-1,1.6907165E0,6.67106E-1,-1.2000957E0,9.411546E-1,-1.0523919E0,-4.631553E-1,4.8163494E-1,-4.3847537E-1,-1.6567552E0,-1.2298224E0,-8.404425E-1,1.7021517E0,5.6796014E-1,-8.129694E-1,1.5145497E0,1.3595207E0,3.050046E-1,1.0447984E0,8.504507E-1,1.6995554E0,-1.0983862E0,-1.2445614E0,-9.651649E-1,-1.5159605E0,-3.869282E-1,-1.2207714E0,-1.2802917E-1,1.12361E0,-7.5698817E-1,4.233144E-1,-1.2199757E0,-1.6876178E0,-5.9651893E-1,-1.6814504E0],"categories":[],"categories_nodes":[],"categories_segments":[],"categories_sizes":[],"default_left":[1,1,1,1,1,1,1,1,1,1,1,1,1,1,1,1,1,0,0,1,1,1,0,1,0,1,1,1,1,1,1,0,0,0,0,0,0,0,0,0,0,0,0,0,0,0,0,0,0,0,0,0,0,0,0],"id":11,"left_children":[1,3,5,7,9,11,13,15,17,19,21,23,25,27,29,31,33,-1,-1,35,37,39,-1,41,-1,43,45,47,49,51,53,-1,-1,-1,-1,-1,-1,-1,-1,-1,-1,-1,-1,-1,-1,-1,-1,-1,-1,-1,-1,-1,-1,-1,-1],"loss_changes":[9.185113E3,5.218127E3,2.4186133E2,2.083827E3,6.2148438E1,8.3148926E1,3.516591E3,6.307772E2,6.1836548E1,1.4193457E2,2.0998535E0,5.269165E1,1.1659094E2,4.6624042E2,3.896582E1,5.8993225E1,5.564793E2,0E0,0E0,1.4619141E1,5.4745575E1,1.6875E0,0E0,5.0427246E0,0E0,4.0274902E1,2.7695877E1,6.039674E2,2.3582492E2,2.1155273E1,7.775455E1,0E0,0E0,0E0,0E0,0E0,0E0,0E0,0E0,0E0,0E0,0E0,0E0,0E0,0E0,0E0,0E0,0E0,0E0,0E0,0E0,0E0,0E0,0E0,0E0],"parents":[2147483647,0,0,1,1,2,2,3,3,4,4,5,5,6,6,7,7,8,8,9,9,10,10,11,11,12,12,13,13,14,14,15,15,16,16,19,19,20,20,21,21,23,23,25,25,26,26,27,27,28,28,29,29,30,30],"right_children":[2,4,6,8,10,12,14,16,18,20,22,24,26,28,30,32,34,-1,-1,36,38,40,-1,42,-1,44,46,48,50,52,54,-1,-1,-1,-1,-1,-1,-1,-1,-1,-1,-1,-1,-1,-1,-1,-1,-1,-1,-1,-1,-1,-1,-1,-1],"split_conditions":[7.5E0,5E-1,5E-1,4.5E0,5E-1,1.15E1,1.65E1,2.5E0,6.5E0,4.5E0,4.5E0,8.5E0,1.05E1,7.5E0,1.25E1,3.5E0,3.5E0,-6.1424274E-2,-4.0803183E-2,3.5E0,6.5E0,5.5E0,3.33553E-2,8.5E0,4.705773E-2,1.65E1,2.85E1,1.05E1,1.55E1,1.85E1,3.15E1,-4.2022124E-2,8.510759E-2,2.8398007E-2,-4.064847E-2,7.5727485E-2,6.7976035E-2,1.525023E-2,5.223992E-2,4.2522535E-2,8.497777E-2,-5.491931E-2,-6.2228072E-2,-4.8258245E-2,-7.579803E-2,-1.934641E-2,-6.1038572E-2,-6.4014583E-3,5.6180503E-2,-3.7849408E-2,2.116572E-2,-6.0998786E-2,-8.438089E-2,-2.9825946E-2,-8.407252E-2],"split_indices":[1,9,9,1,10,1,1,12,1,12,12,12,12,12,12,1,1,0,0,1,1,1,0,1,0,1,1,1,1,1,1,0,0,0,0,0,0,0,0,0,0,0,0,0,0,0,0,0,0,0,0,0,0,0,0],"split_type":[0,0,0,0,0,0,0,0,0,0,0,0,0,0,0,0,0,0,0,0,0,0,0,0,0,0,0,0,0,0,0,0,0,0,0,0,0,0,0,0,0,0,0,0,0,0,0,0,0,0,0,0,0,0,0],"sum_hessian":[1.589424E4,7.9786323E3,7.915608E3,3.4372722E3,4.5413604E3,3.3487268E3,4.5668813E3,1.8328113E3,1.6044608E3,3.8867712E3,6.545889E2,1.7794806E3,1.5692461E3,2.3948271E3,2.1720542E3,3.7347064E2,1.4593407E3,9.977403E2,6.067205E2,3.300634E3,5.8613715E2,6.4877625E2,5.8126564E0,1.7693438E3,1.0136909E1,1.0725292E3,4.9671692E2,1.5401483E3,8.5467883E2,1.8943916E3,2.7766245E2,8.178998E0,3.6529163E2,1.0587491E3,4.005915E2,1.2955762E3,2.005058E3,1.3127429E2,4.5486288E2,8.895337E0,6.398809E2,5.54546E2,1.2147977E3,9.080471E2,1.644821E2,4.541739E2,4.2543026E1,7.9069495E2,7.4945337E2,6.243002E2,2.3037866E2,1.3058577E2,1.7638059E3,1.1760784E2,1.6005461E2],"tree_param":{"num_deleted":"0","num_feature":"14","num_nodes":"55","size_leaf_vector":"0"}},{"base_weights":[-7.134115E-2,6.601526E-1,-6.805802E-1,1.4600363E0,5.4163873E-1,-7.5866914E-1,1.0925572E0,-3.3443826E-1,6.710472E-1,-6.156339E-1,-9.7784424E-1,9.629804E-1,1.7252907E0,9.72339E-2,-1.2966256E0,8.6269665E-1,4.2704523E-1,-9.468398E-1,-5.0049007E-1,5.7369463E-2,1.3624552E0,8.4301746E-1,1.4569929E0,3.5458818E-1,1.5538802E0,-7.063805E-1,-1.1667515E0,-7.24532E-1,-7.369841E-2],"categories":[],"categories_nodes":[],"categories_segments":[],"categories_sizes":[],"default_left":[1,1,1,0,1,1,1,1,1,1,0,0,0,1,0,1,1,1,1,0,0,0,0,0,0,0,0,0,0],"id":12,"left_children":[1,3,5,-1,7,9,11,13,15,17,-1,-1,-1,19,-1,21,23,25,27,-1,-1,-1,-1,-1,-1,-1,-1,-1,-1],"loss_changes":[6.9949824E3,6.7434985E2,1.1873557E3,0E0,7.051205E2,2.558164E2,2.6087494E1,3.3313263E2,2.5240747E2,1.8843335E2,0E0,0E0,0E0,2.7685917E1,0E0,3.2765625E1,1.9358456E2,6.5826904E1,3.5285266E2,0E0,0E0,0E0,0E0,0E0,0E0,0E0,0E0,0E0,0E0],"parents":[2147483647,0,0,1,1,2,2,4,4,5,5,6,6,7,7,8,8,9,9,13,13,15,15,16,16,17,17,18,18],"right_children":[2,4,6,-1,8,10,12,14,16,18,-1,-1,-1,20,-1,22,24,26,28,-1,-1,-1,-1,-1,-1,-1,-1,-1,-1],"split_conditions":[4.5E0,2.5E0,5E-1,7.300182E-2,3.5E0,7.5E0,1.5E0,5E-1,5E-1,5E-1,-4.889221E-2,4.814902E-2,8.6264536E-2,5E-1,-6.483128E-2,5E-1,5E-1,5.5E0,6.5E0,2.8684733E-3,6.812277E-2,4.2150874E-2,7.2849646E-2,1.7729409E-2,7.769401E-2,-3.5319027E-2,-5.8337577E-2,-3.62266E-2,-3.6849205E-3],"split_indices":[12,12,11,0,12,12,11,2,2,2,0,0,0,11,0,11,11,12,12,0,0,0,0,0,0,0,0,0,0],"split_type":[0,0,0,0,0,0,0,0,0,0,0,0,0,0,0,0,0,0,0,0,0,0,0,0,0,0,0,0,0],"sum_hessian":[1.5691953E4,7.1303906E3,8.5615625E3,9.171051E2,6.2132856E3,8.201566E3,3.5999612E2,7.991579E2,5.414128E3,4.967691E3,3.2338755E3,3.03122E2,5.6874126E1,5.5283154E2,2.4632634E2,3.029304E3,2.3848237E3,1.2775535E3,3.6901375E3,5.380485E2,1.4783041E1,2.9370535E3,9.2250595E1,2.243295E3,1.415289E2,6.145077E2,6.630458E2,2.4187817E3,1.2713556E3],"tree_param":{"num_deleted":"0","num_feature":"14","num_nodes":"29","size_leaf_vector":"0"}},{"base_weights":[-6.156943E-2,-2.3154736E-1,9.5285976E-1,2.7565258E-2,-3.9403746E-1,5.753883E-1,1.354755E0,7.5592196E-1,-6.300962E-1,-4.8710176E-1,2.6320723E-1,-5.710938E-1,1.084059E0,8.31651E-1,1.4053015E0,1.1725746E0,2.6539716E-1,-9.115695E-1,-8.833682E-2,2.364182E-2,-6.394869E-1,8.4729165E-2,7.9716194E-1,-9.5971835E-1,-5.995235E-2,6.1823475E-1,1.3024708E0,-1.7150207E-1,1.4346887E0,1.4980533E0,9.3527246E-1,-9.665196E-2,1.4422498E0,-1.2300106E0,-8.4209347E-1,-2.013788E-1,6.5229493E-1,-2.6030853E-1,1.5757705E0,-8.6998653E-1,-4.1408578E-1,-1.350396E-1,7.214291E-1,5.955502E-1,1.1288564E0,1.3977828E0,-1.1317344E0,4.4566923E-1,-4.2850053E-1,3.9967018E-1,1.0052786E0,8.9688593E-1,1.3852788E0,-1.2672832E0,3.5379064E-1],"categories":[],"categories_nodes":[],"categories_segments":[],"categories_sizes":[],"default_left":[1,1,1,1,1,1,1,1,1,1,1,1,1,1,0,1,1,1,1,1,1,1,1,1,1,1,1,1,0,0,0,0,0,0,0,0,0,0,0,0,0,0,0,0,0,0,0,0,0,0,0,0,0,0,0],"id":13,"left_children":[1,3,5,7,9,11,13,15,17,19,21,23,25,27,-1,29,31,33,35,37,39,41,43,45,47,49,51,53,-1,-1,-1,-1,-1,-1,-1,-1,-1,-1,-1,-1,-1,-1,-1,-1,-1,-1,-1,-1,-1,-1,-1,-1,-1,-1,-1],"loss_changes":[2.688155E3,5.6223364E2,3.37661E2,2.4668E3,5.0224097E2,6.762234E2,2.604834E1,4.9864758E2,4.1240613E2,5.596481E2,9.68925E1,7.068362E1,7.983533E1,6.1362312E1,0E0,9.8951904E1,4.797477E2,3.7114502E1,7.787953E1,7.298727E2,2.868557E2,1.0745775E2,1.5530136E1,8.526451E1,2.9526066E1,2.1057579E1,1.5568237E1,2.3680695E1,0E0,0E0,0E0,0E0,0E0,0E0,0E0,0E0,0E0,0E0,0E0,0E0,0E0,0E0,0E0,0E0,0E0,0E0,0E0,0E0,0E0,0E0,0E0,0E0,0E0,0E0,0E0],"parents":[2147483647,0,0,1,1,2,2,3,3,4,4,5,5,6,6,7,7,8,8,9,9,10,10,11,11,12,12,13,13,15,15,16,16,17,17,18,18,19,19,20,20,21,21,22,22,23,23,24,24,25,25,26,26,27,27],"right_children":[2,4,6,8,10,12,14,16,18,20,22,24,26,28,-1,30,32,34,36,38,40,42,44,46,48,50,52,54,-1,-1,-1,-1,-1,-1,-1,-1,-1,-1,-1,-1,-1,-1,-1,-1,-1,-1,-1,-1,-1,-1,-1,-1,-1,-1,-1],"split_conditions":[5E-1,5E-1,3.5E0,2.8112135E0,3.7024632E0,3.425867E0,3.5725465E0,2.501629E0,3.484706E0,2.9742475E0,3.88766E0,3.1814194E0,3.7031424E0,4.5E0,7.026508E-2,2.0201867E0,5E-1,2.9838462E0,1.5E0,2.9708953E0,3.3808374E0,5E-1,5E-1,2.182006E0,5E-1,5E-1,5E-1,3.18931E0,7.1734436E-2,7.490267E-2,4.6763625E-2,-4.832598E-3,7.211249E-2,-6.150053E-2,-4.2104673E-2,-1.0068941E-2,3.261475E-2,-1.3015427E-2,7.878853E-2,-4.349933E-2,-2.070429E-2,-6.75198E-3,3.6071457E-2,2.977751E-2,5.6442823E-2,6.988914E-2,-5.658672E-2,2.2283463E-2,-2.1425027E-2,1.998351E-2,5.026393E-2,4.4844296E-2,6.926394E-2,-6.336416E-2,1.7689532E-2],"split_indices":[8,2,8,5,5,5,5,5,5,5,5,5,5,8,0,5,7,5,7,5,5,7,7,5,2,7,2,5,0,0,0,0,0,0,0,0,0,0,0,0,0,0,0,0,0,0,0,0,0,0,0,0,0,0,0],"split_type":[0,0,0,0,0,0,0,0,0,0,0,0,0,0,0,0,0,0,0,0,0,0,0,0,0,0,0,0,0,0,0,0,0,0,0,0,0,0,0,0,0,0,0,0,0,0,0,0,0,0,0,0,0,0,0],"sum_hessian":[1.5585641E4,1.3350304E4,2.235337E3,5.14575E3,8.204554E3,1.1553303E3,1.0800067E3,2.4415732E3,2.7041768E3,7.1874917E3,1.0170619E3,3.549266E2,8.004037E2,9.841323E1,9.815935E2,1.3185824E3,1.122991E3,1.7785658E3,9.2561096E2,1.6519036E3,5.5355884E3,7.6414557E2,2.5291632E2,2.0051941E2,1.544072E2,2.5808484E2,5.4231885E2,3.7423923E1,6.0989304E1,5.513352E2,7.672472E2,8.6012976E2,2.6286115E2,3.123002E2,1.4662656E3,8.0442365E2,1.2118728E2,1.3977887E3,2.5411485E2,2.7337942E3,2.8017942E3,5.691215E2,1.9502406E2,1.6096837E2,9.194795E1,1.2627319E1,1.8789209E2,6.480692E1,8.960028E1,1.6770505E2,9.03798E1,9.616794E1,4.4615088E2,1.1273104E1,2.615082E1],"tree_param":{"num_deleted":"0","num_feature":"14","num_nodes":"55","size_leaf_vector":"0"}},{"base_weights":[-6.511414E-2,-2.2963387E-1,1.0246155E0,1.0281456E0,-3.880021E-1,5.547059E-1,1.2024544E0,1.0140284E-1,1.1617358E0,3.4686002E-1,-8.5454684E-1,1.4406813E0,-8.186882E-1,1.3571423E0,-7.236965E-1,1.3761936E0,-9.052266E-1,1.4943029E0,9.382778E-1,-2.7239848E-2,1.4211768E0,-9.627471E-1,-4.3809927E-1,-9.263164E-1,-2.8448597E-2,1.4215991E0,9.788497E-1,-9.3883777E-1,7.1498775E-1,3.2561943E-1,-1.3094063E0,1.4352183E0,1.9797702E0,1.0139338E0,2.869426E-1,1.4173497E0,-4.969142E-1,1.0240853E0,1.4426545E0,-1.015612E0,8.697681E-1,7.9823697E-1,-1.1096247E0,-1.0068301E0,4.9104872E-1,2.5430056E-1,-5.155691E-1,-2.907834E-3,1.0955116E0,-1.0949599E0,6.990893E-1],"categories":[],"categories_nodes":[],"categories_segments":[],"categories_sizes":[],"default_left":[1,1,1,1,1,1,1,1,1,1,1,0,1,1,1,0,1,1,1,1,1,1,1,1,1,0,1,1,0,0,0,0,0,0,0,0,0,0,0,0,0,0,0,0,0,0,0,0,0,0,0],"id":14,"left_children":[1,3,5,7,9,11,13,15,17,19,21,-1,23,25,27,-1,29,31,33,35,37,39,41,43,45,-1,47,49,-1,-1,-1,-1,-1,-1,-1,-1,-1,-1,-1,-1,-1,-1,-1,-1,-1,-1,-1,-1,-1,-1,-1],"loss_changes":[2.7797173E3,2.6840103E3,1.6844702E2,1.8620044E2,4.103093E3,6.8654156E2,4.4106616E2,2.4910168E2,9.480859E1,1.8682832E3,3.2884473E2,0E0,1.8707977E1,3.0253418E1,3.56587E1,0E0,5.494055E1,9.0529785E0,3.8371887E1,2.3417217E3,7.038086E0,5.6446924E2,1.2583184E3,2.3287674E1,4.2482057E0,0E0,2.3632599E1,2.6453941E1,0E0,0E0,0E0,0E0,0E0,0E0,0E0,0E0,0E0,0E0,0E0,0E0,0E0,0E0,0E0,0E0,0E0,0E0,0E0,0E0,0E0,0E0,0E0],"parents":[2147483647,0,0,1,1,2,2,3,3,4,4,5,5,6,6,7,7,8,8,9,9,10,10,12,12,13,13,14,14,16,16,17,17,18,18,19,19,20,20,21,21,22,22,23,23,24,24,26,26,27,27],"right_children":[2,4,6,8,10,12,14,16,18,20,22,-1,24,26,28,-1,30,32,34,36,38,40,42,44,46,-1,48,50,-1,-1,-1,-1,-1,-1,-1,-1,-1,-1,-1,-1,-1,-1,-1,-1,-1,-1,-1,-1,-1,-1,-1],"split_conditions":[3.79545E0,2.501629E0,3.8841693E0,3.5E0,4.5E0,7.5E0,1.15E1,2.029407E0,2.0272927E0,3.3256116E0,3.5899577E0,7.203407E-2,3.8800368E0,7.5E0,4.1120577E0,6.880968E-2,2.5E0,5E-1,5E-1,2.5E0,3.5E0,5E-1,7.5E0,5E-1,1.15E1,7.107996E-2,5E-1,5E-1,3.5749387E-2,1.6280971E-2,-6.5470316E-2,7.1760915E-2,9.898851E-2,5.069669E-2,1.434713E-2,7.086749E-2,-2.484571E-2,5.1204264E-2,7.213273E-2,-5.07806E-2,4.3488406E-2,3.9911848E-2,-5.5481236E-2,-5.0341506E-2,2.4552437E-2,1.2715029E-2,-2.5778456E-2,-1.453917E-4,5.4775577E-2,-5.4747995E-2,3.4954466E-2],"split_indices":[5,5,5,12,12,12,12,5,5,5,5,0,5,12,5,0,12,2,2,12,12,11,12,11,12,0,2,11,0,0,0,0,0,0,0,0,0,0,0,0,0,0,0,0,0,0,0,0,0,0,0],"split_type":[0,0,0,0,0,0,0,0,0,0,0,0,0,0,0,0,0,0,0,0,0,0,0,0,0,0,0,0,0,0,0,0,0,0,0,0,0,0,0,0,0,0,0,0,0,0,0,0,0,0,0],"sum_hessian":[1.5500535E4,1.3468783E4,2.0317518E3,1.5049191E3,1.1963864E4,5.602322E2,1.4715197E3,1.9014073E2,1.3147784E3,4.6460674E3,7.317797E3,3.4053085E2,2.1970135E2,1.362723E3,1.08796585E2,8.361552E1,1.06525215E2,5.236385E2,7.911399E2,3.447449E3,1.1986185E3,5.806344E3,1.5114525E3,1.9295107E2,2.675028E1,1.1593949E3,2.033281E2,9.5308495E1,1.3488088E1,2.6368052E1,8.015716E1,4.7406085E2,4.957762E1,7.0767303E2,8.34669E1,8.448067E2,2.602642E3,6.67384E1,1.1318801E3,5.6444575E3,1.6188683E2,5.318129E2,9.796396E2,1.8319452E2,9.756555E0,1.7400673E1,9.349608E0,2.1711323E1,1.8161678E2,8.7675575E1,7.6329193E0],"tree_param":{"num_deleted":"0","num_feature":"14","num_nodes":"51","size_leaf_vector":"0"}},{"base_weights":[-5.585174E-2,-5.8277375E-1,3.367924E-1,-1.095259E-1,-9.689023E-1,9.7871E-2,1.2497965E0,7.022489E-1,-8.889657E-1,-1.0393933E0,-6.854296E-1,9.92336E-1,-1.3388792E0,1.3553238E0,-1.3973156E0,7.288387E-1,-5.7243615E-1,-9.218371E-1,1.464799E0,-1.0245697E0,-1.2672973E0,1.2143838E0,8.9362E-1,-1.7138432E0,1.1664313E0,2.2980636E-1,7.7220005E-1,-1.8170735E-1,-1.1040475E0,-9.575973E-1,-7.150275E-1,-1.1850091E0,-9.546735E-1,-1.3392986E0,-7.8005594E-1,1.3653855E0,-5.7829425E-2,1.2160904E0,2.0845038E-1],"categories":[],"categories_nodes":[],"categories_segments":[],"categories_sizes":[],"default_left":[1,1,1,1,1,1,1,1,1,1,0,1,0,0,1,1,1,1,0,1,1,1,1,0,0,0,0,0,0,0,0,0,0,0,0,0,0,0,0],"id":15,"left_children":[1,3,5,7,9,11,13,15,17,19,-1,21,-1,-1,23,25,27,29,-1,31,33,35,37,-1,-1,-1,-1,-1,-1,-1,-1,-1,-1,-1,-1,-1,-1,-1,-1],"loss_changes":[3.1623052E3,1.1922769E3,1.9101321E3,1.8581774E3,7.021167E1,8.926549E3,5.1115747E2,4.9609924E1,1.18559814E2,6.8828125E0,0E0,9.145361E1,0E0,0E0,6.1328384E1,3.0059387E1,5.792965E0,9.399658E0,0E0,2.7904297E1,3.5451355E0,2.5224817E2,6.5584985E2,0E0,0E0,0E0,0E0,0E0,0E0,0E0,0E0,0E0,0E0,0E0,0E0,0E0,0E0,0E0,0E0],"parents":[2147483647,0,0,1,1,2,2,3,3,4,4,5,5,6,6,7,7,8,8,9,9,11,11,14,14,15,15,16,16,17,17,19,19,20,20,21,21,22,22],"right_children":[2,4,6,8,10,12,14,16,18,20,-1,22,-1,-1,24,26,28,30,-1,32,34,36,38,-1,-1,-1,-1,-1,-1,-1,-1,-1,-1,-1,-1,-1,-1,-1,-1],"split_conditions":[5E-1,5E-1,5E-1,4.5E0,1.35E1,1.15E1,1.95E1,5E-1,5E-1,5E-1,-3.427148E-2,5E-1,-6.6943966E-2,6.776619E-2,4.5E0,2.5E0,1.5E0,1.45E1,7.323995E-2,6.5E0,1.05E1,7.5E0,7.5E0,-8.569216E-2,5.8321565E-2,1.1490318E-2,3.8610004E-2,-9.085367E-3,-5.5202376E-2,-4.7879867E-2,-3.5751376E-2,-5.9250455E-2,-4.7733676E-2,-6.696493E-2,-3.90028E-2,6.8269275E-2,-2.8914714E-3,6.0804524E-2,1.0422519E-2],"split_indices":[9,2,8,1,1,1,1,8,3,8,0,2,0,0,8,1,8,1,0,1,1,1,1,0,0,0,0,0,0,0,0,0,0,0,0,0,0,0,0],"split_type":[0,0,0,0,0,0,0,0,0,0,0,0,0,0,0,0,0,0,0,0,0,0,0,0,0,0,0,0,0,0,0,0,0,0,0,0,0,0,0],"sum_hessian":[1.5280734E4,6.5243926E3,8.756342E3,2.932761E3,3.5916316E3,6.9420264E3,1.8143151E3,1.4366165E3,1.4961445E3,2.8718125E3,7.1981903E2,4.2788613E3,2.663165E3,1.745735E3,6.858006E1,1.408177E3,2.8439497E1,1.4767798E3,1.9364668E1,2.7071597E3,1.64653E2,1.3095631E3,2.969298E3,6.166833E1,6.911729E0,1.1376766E2,1.2944093E3,1.8046919E1,1.0392578E1,1.2524667E3,2.243132E2,8.113808E2,1.8957788E3,1.4022826E2,2.4424755E1,1.1705591E3,1.3900404E2,2.0178943E3,9.5140393E2],"tree_param":{"num_deleted":"0","num_feature":"14","num_nodes":"39","size_leaf_vector":"0"}},{"base_weights":[-5.7891864E-2,1.0727145E-1,-1.1182752E0,-8.336517E-2,7.7837133E-1,-1.2259171E0,1.0433939E0,4.83145E-1,-6.464386E-1,1.301039E0,2.726565E-2,-1.1050413E0,-1.2826282E0,1.0003909E-1,1.4542971E0,1.3117476E0,3.1272498E-1,-7.4453515E-1,2.7348757E-1,1.3672049E0,9.660265E-1,-4.018312E-1,1.1056027E0,-1.2388002E0,1.8479699E-1,-1.2874295E0,-1.5118584E-1,-1.6704977E-1,8.16093E-1,8.424742E-1,1.3238136E0,-4.9635088E-1,9.028763E-2,1.1627493E0,3.9819458E-1,-1.1972218E-1,1.0513237E0,-1.3133028E0,-1.0259664E0],"categories":[],"categories_nodes":[],"categories_segments":[],"categories_sizes":[],"default_left":[1,1,1,1,1,1,1,1,1,1,1,1,1,1,0,0,0,0,0,0,1,1,1,0,1,1,0,0,0,0,0,0,0,0,0,0,0,0,0],"id":16,"left_children":[1,3,5,7,9,11,13,15,17,19,21,23,25,27,-1,-1,-1,-1,-1,-1,29,31,33,-1,35,37,-1,-1,-1,-1,-1,-1,-1,-1,-1,-1,-1,-1,-1],"loss_changes":[2.6468093E3,1.6731174E3,4.7649072E2,3.2495588E3,1.1355549E3,1.0232422E1,3.740354E1,7.161008E2,4.614983E2,3.49375E1,5.512319E2,1.1009601E2,6.5734863E0,6.4286165E0,0E0,0E0,0E0,0E0,0E0,0E0,1.0301941E1,3.9766357E1,1.2627167E1,0E0,1.6526093E1,5.8813477E0,0E0,0E0,0E0,0E0,0E0,0E0,0E0,0E0,0E0,0E0,0E0,0E0,0E0],"parents":[2147483647,0,0,1,1,2,2,3,3,4,4,5,5,6,6,7,7,8,8,9,9,10,10,11,11,12,12,13,13,20,20,21,21,22,22,24,24,25,25],"right_children":[2,4,6,8,10,12,14,16,18,20,22,24,26,28,-1,-1,-1,-1,-1,-1,30,32,34,-1,36,38,-1,-1,-1,-1,-1,-1,-1,-1,-1,-1,-1,-1,-1],"split_conditions":[5E-1,5E-1,1.5E0,4.5E0,5.5E0,5.5E0,4.5E0,2.5E0,5E-1,4.5E0,5E-1,5E-1,1.75E1,5E-1,7.271486E-2,6.558738E-2,1.5636249E-2,-3.722676E-2,1.3674378E-2,6.836025E-2,1.5E0,1.5E0,2.5E0,-6.194001E-2,1.5E0,5E-1,-7.559292E-3,-8.352488E-3,4.080465E-2,4.2123713E-2,6.619068E-2,-2.4817545E-2,4.5143818E-3,5.8137465E-2,1.990973E-2,-5.986109E-3,5.2566182E-2,-6.566514E-2,-5.129832E-2],"split_indices":[0,7,8,12,12,12,8,12,8,12,8,7,12,7,0,0,0,0,0,0,7,7,7,0,7,7,0,0,0,0,0,0,0,0,0,0,0,0,0],"split_type":[0,0,0,0,0,0,0,0,0,0,0,0,0,0,0,0,0,0,0,0,0,0,0,0,0,0,0,0,0,0,0,0,0,0,0,0,0,0,0],"sum_hessian":[1.5108896E4,1.3074189E4,2.0347078E3,1.0183115E4,2.8910737E3,1.9390626E3,9.564513E1,5.0761196E3,5.1069956E3,1.7038369E3,1.1872367E3,6.3287213E2,1.3061906E3,2.9848654E1,6.579647E1,8.635338E2,4.212586E3,4.615329E3,4.916667E2,1.4174297E3,2.8640726E2,8.5011646E2,3.3712027E2,5.735504E2,5.9321693E1,1.3003087E3,5.881916E0,2.2754837E1,7.0938163E0,2.1808589E2,6.832136E1,7.133011E2,1.3681541E2,3.1060034E2,2.6519945E1,4.5085716E1,1.4235978E1,1.1755525E3,1.2475616E2],"tree_param":{"num_deleted":"0","num_feature":"14","num_nodes":"39","size_leaf_vector":"0"}},{"base_weights":[-5.2998085E-2,5.6773365E-1,-5.7357246E-1,-1.308311E-1,1.0401115E0,-7.4704224E-1,1.149917E-1,-9.7258836E-2,-1.1486704E0,9.823076E-1,1.3070371E0,-8.4076995E-1,2.822645E-1,-3.341992E-1,1.1611109E0,-1.0675925E-1,1.629085E0,-9.4587696E-1,-1.373747E0,1.030969E0,5.1482946E-1,-8.5120213E-1,1.9686674E0,-9.0285784E-1,9.9446297E-1,-3.1127867E-1,-1.1573175E0,-8.720115E-1,1.347296E0,1.0683795E0,-3.214019E-1,1.4888377E0,9.519643E-1,-7.9098374E-1,8.2018036E-1,-7.481835E-1,-1.0228904E0,-1.1853704E0,1.1977706E0,1.1051773E0,1.6671556E-1,1.2587205E-1,-6.4471006E-1,-9.9896866E-1,-1.0926385E-1],"categories":[],"categories_nodes":[],"categories_segments":[],"categories_sizes":[],"default_left":[1,1,1,1,1,1,1,1,1,1,0,1,1,1,1,1,0,0,0,1,1,1,0,1,1,1,0,1,0,0,0,0,0,0,0,0,0,0,0,0,0,0,0,0,0],"id":17,"left_children":[1,3,5,7,9,11,13,15,17,19,-1,21,23,25,27,29,-1,-1,-1,31,33,35,-1,37,39,41,-1,43,-1,-1,-1,-1,-1,-1,-1,-1,-1,-1,-1,-1,-1,-1,-1,-1,-1],"loss_changes":[4.8355103E3,2.2526946E3,9.723662E2,9.380115E1,6.003662E1,6.277434E2,7.712242E2,4.397847E1,1.1720428E0,7.512134E1,0E0,1.778999E2,4.6096808E2,2.079889E1,1.8901184E2,6.707625E2,0E0,0E0,0E0,1.0678784E2,1.2912106E2,1.0333057E2,0E0,1.2461458E2,3.0736969E1,1.6348721E2,0E0,3.7890854E0,0E0,0E0,0E0,0E0,0E0,0E0,0E0,0E0,0E0,0E0,0E0,0E0,0E0,0E0,0E0,0E0,0E0],"parents":[2147483647,0,0,1,1,2,2,3,3,4,4,5,5,6,6,7,7,8,8,9,9,11,11,12,12,13,13,14,14,15,15,19,19,20,20,21,21,23,23,24,24,25,25,27,27],"right_children":[2,4,6,8,10,12,14,16,18,20,-1,22,24,26,28,30,-1,-1,-1,32,34,36,-1,38,40,42,-1,44,-1,-1,-1,-1,-1,-1,-1,-1,-1,-1,-1,-1,-1,-1,-1,-1,-1],"split_conditions":[4.5E0,5E-1,5E-1,5E-1,2.5E0,5E-1,5E-1,5E-1,1.5E0,1.5E0,6.535186E-2,5E-1,5E-1,1.5E0,5E-1,2.5E0,8.145425E-2,-4.729385E-2,-6.868735E-2,2.5E0,3.5E0,7.5E0,9.843337E-2,5.5E0,7.5E0,7.5E0,-5.7865877E-2,3.5E0,6.7364804E-2,5.3418975E-2,-1.6070096E-2,7.444189E-2,4.7598217E-2,-3.9549187E-2,4.100902E-2,-3.7409175E-2,-5.114452E-2,-5.9268523E-2,5.988853E-2,5.5258866E-2,8.3357785E-3,6.2936023E-3,-3.2235503E-2,-4.9948435E-2,-5.4631927E-3],"split_indices":[12,9,7,8,8,8,8,6,8,9,0,6,9,9,9,12,0,0,0,12,12,12,0,8,12,12,0,8,0,0,0,0,0,0,0,0,0,0,0,0,0,0,0,0,0],"split_type":[0,0,0,0,0,0,0,0,0,0,0,0,0,0,0,0,0,0,0,0,0,0,0,0,0,0,0,0,0,0,0,0,0,0,0,0,0,0,0,0,0,0,0,0,0],"sum_hessian":[1.4960255E4,6.8235254E3,8.1367295E3,2.7532224E3,4.0703027E3,6.4993306E3,1.6373989E3,2.6675264E3,8.5695946E1,3.3537646E3,7.165381E2,5.9573257E3,5.42005E2,1.1464099E3,4.90989E2,2.6548506E3,1.2675933E1,5.0786564E1,3.490938E1,3.0351963E3,3.185684E2,5.9367104E3,2.061503E1,2.0319905E2,3.3880594E2,1.1181517E3,2.8258188E1,4.052758E1,4.5046143E2,4.0872375E2,2.2461267E3,4.4121188E2,2.5939844E3,5.9710793E1,2.5885757E2,3.7174285E3,2.2192822E3,1.7992062E2,2.3278429E1,2.9813776E2,4.0668186E1,4.8423395E2,6.339178E2,3.4101055E1,6.426524E0],"tree_param":{"num_deleted":"0","num_feature":"14","num_nodes":"45","size_leaf_vector":"0"}},{"base_weights":[-5.549222E-2,-5.4303867E-1,3.1702784E-1,3.335138E-1,-8.689698E-1,1.0229512E0,-1.0669585E0,3.2882857E-1,1.2608821E0,-9.3462163E-1,1.0075272E0,9.8876125E-1,1.4834754E0,-1.0953277E0,1.7319892E-1,6.3786197E-1,-1.0143417E0,-9.4966954E-1,1.9508452E0,7.655403E-1,1.1353297E0,1.1860491E0,4.0745533E-1,-2.1544626E-1,-1.4490201E0,5.6045943E-1,-9.520994E-1,1.843805E-1,6.7878026E-1,-1.1570371E0,-8.9330596E-1,-1.1462169E0,-8.960915E-1,9.684691E-1,5.62237E-1,1.283106E0,1.1041523E0,-1.5149708E-1,1.0660188E0,-4.3205357E-1,3.9411718E-1,-9.9605936E-1,-1.4621733E0,8.6988014E-1,3.521914E-1],"categories":[],"categories_nodes":[],"categories_segments":[],"categories_sizes":[],"default_left":[1,1,1,1,1,1,1,1,0,1,1,1,0,1,1,1,1,1,0,1,0,1,1,1,1,1,0,0,0,0,0,0,0,0,0,0,0,0,0,0,0,0,0,0,0],"id":18,"left_children":[1,3,5,7,9,11,13,15,-1,17,19,21,-1,23,25,27,29,31,-1,33,-1,35,37,39,41,43,-1,-1,-1,-1,-1,-1,-1,-1,-1,-1,-1,-1,-1,-1,-1,-1,-1,-1,-1],"loss_changes":[2.6846755E3,1.8297697E3,8.1887026E3,6.5577087E0,5.769121E2,8.420654E1,1.0008252E2,7.1968567E2,0E0,1.9947363E2,2.979538E0,5.9210254E2,0E0,8.6072925E2,2.9339355E1,2.5796387E1,3.3313904E0,4.501294E1,0E0,1.2851524E0,0E0,2.761621E1,4.840628E2,1.0546692E2,8.603027E0,2.4651518E0,0E0,0E0,0E0,0E0,0E0,0E0,0E0,0E0,0E0,0E0,0E0,0E0,0E0,0E0,0E0,0E0,0E0,0E0,0E0],"parents":[2147483647,0,0,1,1,2,2,3,3,4,4,5,5,6,6,7,7,9,9,10,10,11,11,13,13,14,14,15,15,16,16,17,17,19,19,21,21,22,22,23,23,24,24,25,25],"right_children":[2,4,6,8,10,12,14,16,-1,18,20,22,-1,24,26,28,30,32,-1,34,-1,36,38,40,42,44,-1,-1,-1,-1,-1,-1,-1,-1,-1,-1,-1,-1,-1,-1,-1,-1,-1,-1,-1],"split_conditions":[5E-1,4.5E0,1.15E1,5E-1,5E-1,5E-1,5E-1,5E-1,6.304411E-2,5E-1,1.05E1,7.5E0,7.417377E-2,1.65E1,2.25E1,2.5E0,3.5E0,6.5E0,9.754226E-2,7.5E0,5.6766488E-2,5E-1,1.05E1,1.55E1,1.75E1,1.35E1,-4.760497E-2,9.219025E-3,3.3939015E-2,-5.785186E-2,-4.46653E-2,-5.7310846E-2,-4.4804577E-2,4.8423454E-2,2.811185E-2,6.41553E-2,5.5207618E-2,-7.574854E-3,5.3300943E-2,-2.1602679E-2,1.970586E-2,-4.980297E-2,-7.3108666E-2,4.349401E-2,1.760957E-2],"split_indices":[9,1,1,6,11,11,11,2,0,6,1,1,0,1,1,1,1,1,0,1,0,2,1,1,1,1,0,0,0,0,0,0,0,0,0,0,0,0,0,0,0,0,0,0,0],"split_type":[0,0,0,0,0,0,0,0,0,0,0,0,0,0,0,0,0,0,0,0,0,0,0,0,0,0,0,0,0,0,0,0,0,0,0,0,0,0,0,0,0,0,0,0,0],"sum_hessian":[1.4777739E4,6.400393E3,8.377347E3,1.7347198E3,4.665673E3,5.5480654E3,2.8292815E3,1.7288027E3,5.9171963E0,4.5089775E3,1.5669559E2,5.1706963E3,3.7736896E2,2.766315E3,6.29664E1,1.4063563E3,3.2244638E2,4.486954E3,2.2023415E1,5.9257412E1,9.743817E1,3.8588118E3,1.3118846E3,7.9416656E2,1.9721484E3,4.7658085E1,1.5308313E1,1.1750874E2,1.2888475E3,1.3974663E2,1.8269975E2,9.5199023E2,3.5349639E3,2.5642712E1,3.36147E1,1.7519731E3,2.1068386E3,7.1035913E2,6.015256E2,5.86501E2,2.076656E2,6.0196285E1,1.9119521E3,1.6423832E1,3.1234253E1],"tree_param":{"num_deleted":"0","num_feature":"14","num_nodes":"45","size_leaf_vector":"0"}},{"base_weights":[-5.1923435E-2,5.392225E-1,-6.5300953E-1,3.4617978E-1,1.2652886E0,-8.103323E-1,-1.7586097E-3,3.031085E-1,1.4239223E0,1.3523469E0,1.0775237E0,-5.8701015E-1,-1.3464855E0,4.8647583E-1,-1.238622E0,2.811609E-1,1.8008478E0,1.1351302E0,9.7803915E-1,-5.982523E-1,1.6939839E0,-1.0776157E0,-1.3840705E0,5.718267E-1,-1.4155284E-1,-9.122932E-1,-1.431476E0,5.144092E-1,2.1306697E-1,1.1036912E0,1.9592729E0,8.6811566E-1,1.2649001E0,8.8157207E-1,1.2449552E0,-5.0008917E-1,-8.500863E-1,2.184165E-1,7.015202E-1,-2.570895E-1,1.20683745E-1,-1.2729846E0,4.968908E-1],"categories":[],"categories_nodes":[],"categories_segments":[],"categories_sizes":[],"default_left":[1,1,1,1,1,1,1,1,0,0,1,1,1,1,1,1,1,1,1,1,0,0,0,1,1,1,0,0,0,0,0,0,0,0,0,0,0,0,0,0,0,0,0],"id":19,"left_children":[1,3,5,7,9,11,13,15,-1,-1,17,19,21,23,25,27,29,31,33,35,-1,-1,-1,37,39,41,-1,-1,-1,-1,-1,-1,-1,-1,-1,-1,-1,-1,-1,-1,-1,-1,-1],"loss_changes":[5.193414E3,1.0317881E3,7.4241284E2,2.693119E2,2.212793E1,6.970935E2,8.540502E2,1.8295355E2,0E0,0E0,4.3493652E-1,1.0767517E2,1.40979E1,5.4550964E1,2.2345398E1,8.744971E1,4.2577515E0,8.113525E0,2.703888E0,1.0050525E2,0E0,0E0,0E0,4.0536835E1,3.7952185E0,7.981941E1,0E0,0E0,0E0,0E0,0E0,0E0,0E0,0E0,0E0,0E0,0E0,0E0,0E0,0E0,0E0,0E0,0E0],"parents":[2147483647,0,0,1,1,2,2,3,3,4,4,5,5,6,6,7,7,10,10,11,11,12,12,13,13,14,14,15,15,16,16,17,17,18,18,19,19,23,23,24,24,25,25],"right_children":[2,4,6,8,10,12,14,16,-1,-1,18,20,22,24,26,28,30,32,34,36,-1,-1,-1,38,40,42,-1,-1,-1,-1,-1,-1,-1,-1,-1,-1,-1,-1,-1,-1,-1,-1,-1],"split_conditions":[7.5E0,5E-1,5E-1,5E-1,5.5E0,1.85E1,2.15E1,5E-1,7.119612E-2,6.761735E-2,6.5E0,5E-1,2.05E1,1.65E1,2.75E1,3.5E0,5E0,1.5E0,1.5E0,1.25E1,8.46992E-2,-5.388079E-2,-6.9203526E-2,1.05E1,1.5E0,1.5E0,-7.15738E-2,2.572046E-2,1.0653349E-2,5.518456E-2,9.7963646E-2,4.3405782E-2,6.3245006E-2,4.4078603E-2,6.224776E-2,-2.500446E-2,-4.2504314E-2,1.0920825E-2,3.507601E-2,-1.2854475E-2,6.0341875E-3,-6.364923E-2,2.484454E-2],"split_indices":[1,7,7,11,1,1,1,13,0,0,1,6,1,1,1,1,1,7,7,1,0,0,0,1,7,7,0,0,0,0,0,0,0,0,0,0,0,0,0,0,0,0,0],"split_type":[0,0,0,0,0,0,0,0,0,0,0,0,0,0,0,0,0,0,0,0,0,0,0,0,0,0,0,0,0,0,0,0,0,0,0,0,0,0,0,0,0,0,0],"sum_hessian":[1.4611752E4,7.3668086E3,7.2449434E3,5.821982E3,1.5448268E3,5.8347905E3,1.410153E3,5.6008047E3,2.2117723E2,1.0466185E3,4.982083E2,4.122172E3,1.7126188E3,1.01186566E3,3.9828723E2,5.5223237E3,7.848103E1,3.016898E2,1.9651851E2,4.1034663E3,1.8705244E1,2.1764743E2,1.4949713E3,8.911007E2,1.20764946E2,1.5239644E2,2.4589081E2,1.2445786E3,4.277745E3,1.759925E1,6.088178E1,1.0395077E2,1.9773903E2,1.5094513E2,4.557338E1,2.957156E3,1.1463105E3,2.40872E2,6.502287E2,8.4122635E1,3.6642307E1,1.2154925E2,3.08472E1],"tree_param":{"num_deleted":"0","num_feature":"14","num_nodes":"43","size_leaf_vector":"0"}},{"base_weights":[-5.3822245E-2,-1.9609582E-1,9.358051E-1,-2.3934788E-1,1.0973693E0,4.4985616E-1,1.2441463E0,9.179223E-1,-3.8975582E-1,1.4635196E0,9.707649E-1,2.7467677E-1,6.73331E-1,1.0888356E0,1.2645307E0,1.3990082E0,6.0281277E-1,-4.3335536E-1,1.6902162E-1,8.4032905E-1,2.5985372E-1,5.8163047E-1,9.2914784E-1,1.132337E0,6.330777E-1,1.3156246E0,1.6841494E0,-5.1395667E-1,8.672067E-1,-1.360442E-1,-5.421865E-1,-6.5187126E-1,6.0887593E-1,-4.4578114E-1,2.7159292E-1,9.107439E-1,4.8659292E-1,2.8671804E-1,7.2384053E-1],"categories":[],"categories_nodes":[],"categories_segments":[],"categories_sizes":[],"default_left":[1,1,1,1,1,1,1,1,1,0,0,1,1,1,0,1,1,1,1,0,1,1,0,0,1,0,0,0,0,0,0,0,0,0,0,0,0,0,0],"id":20,"left_children":[1,3,5,7,9,11,13,15,17,-1,-1,19,21,23,-1,25,27,29,31,-1,33,35,-1,-1,37,-1,-1,-1,-1,-1,-1,-1,-1,-1,-1,-1,-1,-1,-1],"loss_changes":[2.0306997E3,7.058987E2,2.7034717E2,2.124847E3,1.5842346E1,2.7213348E1,5.1831055E-1,2.1097668E2,2.6332153E2,0E0,0E0,2.806778E0,6.017929E0,1.2347412E0,0E0,8.442627E0,2.5251736E2,3.2400977E2,2.835349E2,0E0,3.4786186E0,6.2659454E0,0E0,0E0,2.5822163E-2,0E0,0E0,0E0,0E0,0E0,0E0,0E0,0E0,0E0,0E0,0E0,0E0,0E0,0E0],"parents":[2147483647,0,0,1,1,2,2,3,3,4,4,5,5,6,6,7,7,8,8,11,11,12,12,13,13,15,15,16,16,17,17,18,18,20,20,21,21,24,24],"right_children":[2,4,6,8,10,12,14,16,18,-1,-1,20,22,24,-1,26,28,30,32,-1,34,36,-1,-1,38,-1,-1,-1,-1,-1,-1,-1,-1,-1,-1,-1,-1,-1,-1],"split_conditions":[3.7888155E0,5E-1,5E-1,2.501629E0,2.9583106E0,3.88766E0,3.879973E0,2.0201867E0,5E-1,7.317598E-2,4.8538245E-2,3.7944946E0,4.006155E0,3.873023E0,6.3226536E-2,1.9938867E0,2.2901325E0,2.9742475E0,3.3225799E0,4.2016454E-2,3.7948709E0,3.9130423E0,4.645739E-2,5.661685E-2,3.8745904E0,6.578123E-2,8.420747E-2,-2.5697833E-2,4.3360334E-2,-6.80221E-3,-2.7109325E-2,-3.2593563E-2,3.0443797E-2,-2.2289058E-2,1.3579646E-2,4.5537196E-2,2.4329646E-2,1.4335902E-2,3.6192026E-2],"split_indices":[5,11,8,5,5,5,5,5,8,0,0,5,5,5,0,5,5,5,5,0,5,5,0,0,5,0,0,0,0,0,0,0,0,0,0,0,0,0,0],"split_type":[0,0,0,0,0,0,0,0,0,0,0,0,0,0,0,0,0,0,0,0,0,0,0,0,0,0,0,0,0,0,0,0,0,0,0,0,0,0,0],"sum_hessian":[1.4418727E4,1.2607864E4,1.8108623E3,1.2201564E4,4.0629974E2,7.050069E2,1.1058555E3,1.4021624E3,1.0799402E4,9.8762184E1,3.0753754E2,3.9795795E2,3.0704895E2,1.4149774E2,9.643577E2,5.520843E2,8.5007806E2,1.0018333E4,7.8106934E2,7.1457553E0,3.908122E2,2.3113428E2,7.591468E1,1.2625814E2,1.5239602E1,4.3612677E2,1.15957504E2,1.6229533E2,6.877828E2,2.6859956E3,7.332337E3,2.7208682E2,5.0898254E2,5.0458193E0,3.8576636E2,4.7707115E1,1.8342717E2,5.1201935E0,1.0119409E1],"tree_param":{"num_deleted":"0","num_feature":"14","num_nodes":"39","size_leaf_vector":"0"}},{"base_weights":[-4.956848E-2,4.951587E-1,-5.0831634E-1,1.8671569E-1,1.263348E0,-6.7314875E-1,6.410467E-1,8.8523686E-1,-9.487717E-2,9.431091E-1,1.2775031E0,-7.326993E-1,9.0659153E-1,1.8448573E-1,8.976621E-1,1.3461214E0,5.5917E-1,-6.149795E-1,9.721215E-2,1.6059896E0,1.2394222E0,1.1383157E0,-7.585486E-1,7.4363923E-1,1.6608282E0,8.131876E-2,1.2293484E0,6.6299224E-1,1.09824E0,1.2685305E0,1.6080443E0,-9.834929E-1,8.9386415E-1,-1.7798476E-2,-1.4132351E0,6.535171E-1,-2.2326635E-1,7.06927E-1,1.2715129E0,1.9513975E0,4.6550977E-1,-8.593555E-1,-3.727964E-1,1.3908253E0,6.508979E-1,-7.947205E-4,3.0598512E-1,6.0964185E-1,1.1747096E0,9.947182E-1,1.3159736E0],"categories":[],"categories_nodes":[],"categories_segments":[],"categories_sizes":[],"default_left":[1,1,1,1,1,1,1,1,1,0,1,1,1,1,1,1,1,1,1,0,1,1,1,1,0,1,0,1,1,0,0,0,0,0,0,0,0,0,0,0,0,0,0,0,0,0,0,0,0,0,0],"id":21,"left_children":[1,3,5,7,9,11,13,15,17,-1,19,21,23,25,27,29,31,33,35,-1,37,39,41,43,-1,45,-1,47,49,-1,-1,-1,-1,-1,-1,-1,-1,-1,-1,-1,-1,-1,-1,-1,-1,-1,-1,-1,-1,-1,-1],"loss_changes":[3.5940803E3,1.5573016E3,1.4799961E3,9.235183E2,5.9050293E0,6.437656E2,1.14400024E2,2.0101038E2,3.3455444E2,0E0,1.8220703E1,3.2003833E2,2.7882614E1,3.7973995E1,2.787265E1,6.9594116E0,4.1146057E2,4.303386E2,4.3638644E2,0E0,2.5685059E1,4.742E1,2.5175879E2,1.0495087E1,0E0,6.0385466E0,0E0,6.4195557E0,4.694916E0,0E0,0E0,0E0,0E0,0E0,0E0,0E0,0E0,0E0,0E0,0E0,0E0,0E0,0E0,0E0,0E0,0E0,0E0,0E0,0E0,0E0,0E0],"parents":[2147483647,0,0,1,1,2,2,3,3,4,4,5,5,6,6,7,7,8,8,10,10,11,11,12,12,13,13,14,14,15,15,16,16,17,17,18,18,20,20,21,21,22,22,23,23,25,25,27,27,28,28],"right_children":[2,4,6,8,10,12,14,16,18,-1,20,22,24,26,28,30,32,34,36,-1,38,40,42,44,-1,46,-1,48,50,-1,-1,-1,-1,-1,-1,-1,-1,-1,-1,-1,-1,-1,-1,-1,-1,-1,-1,-1,-1,-1,-1],"split_conditions":[4.5E0,3.3256116E0,3.79545E0,2.501629E0,3.380182E0,5E-1,3.882047E0,2.0201867E0,2.7911897E0,4.7155455E-2,3.3816004E0,2.5899346E0,1.5E0,5E-1,3.974178E0,1.9804821E0,2.3072047E0,2.6170468E0,2.9201121E0,8.029948E-2,3.4238482E0,2.3260264E0,3.5877287E0,3.0110276E0,8.3041415E-2,3.856936E0,6.146742E-2,5E-1,4.143429E0,6.3426524E-2,8.040222E-2,-4.9174648E-2,4.469321E-2,-8.8992383E-4,-7.066175E-2,3.267586E-2,-1.1163318E-2,3.534635E-2,6.357565E-2,9.7569875E-2,2.3275489E-2,-4.2967778E-2,-1.863982E-2,6.954127E-2,3.2544896E-2,-3.9736024E-5,1.5299256E-2,3.0482093E-2,5.873548E-2,4.973591E-2,6.5798685E-2],"split_indices":[12,5,5,5,5,11,5,5,5,0,5,5,11,11,5,5,5,5,5,0,5,5,5,5,0,5,0,11,5,0,0,0,0,0,0,0,0,0,0,0,0,0,0,0,0,0,0,0,0,0,0],"split_type":[0,0,0,0,0,0,0,0,0,0,0,0,0,0,0,0,0,0,0,0,0,0,0,0,0,0,0,0,0,0,0,0,0,0,0,0,0,0,0,0,0,0,0,0,0,0,0,0,0,0,0],"sum_hessian":[1.4378489E4,6.573087E3,7.805403E3,4.6918384E3,1.8812485E3,6.8272144E3,9.7818835E2,1.3468645E3,3.3449736E3,8.565893E1,1.7955896E3,6.5802964E3,2.4691803E2,3.5334937E2,6.24839E2,5.5534283E2,7.915217E2,9.0114496E2,2.4438286E3,1.7770766E2,1.617882E3,8.844663E1,6.4918496E3,2.0642462E2,4.049341E1,3.2364487E2,2.9704481E1,2.9214633E2,3.3269263E2,4.3773746E2,1.17605354E2,1.4036758E2,6.511541E2,5.167387E2,3.8440628E2,8.9261316E2,1.5512155E3,9.4754234E1,1.5231277E3,3.8260117E1,5.0186516E1,5.1446953E3,1.3471543E3,2.222911E1,1.8419551E2,2.3815079E2,8.5494095E1,2.687095E2,2.3436834E1,2.3334471E2,9.9347916E1],"tree_param":{"num_deleted":"0","num_feature":"14","num_nodes":"51","size_leaf_vector":"0"}},{"base_weights":[-4.0714506E-2,-1.6794167E-1,8.8679975E-1,8.716834E-1,-2.9773086E-1,5.86336E-1,1.1116366E0,6.747803E-1,1.1185848E0,-6.794482E-1,4.7118343E-2,-7.468525E-1,7.943167E-1,-8.105591E-1,1.173002E0,6.910306E-1,5.9508735E-1,1.1488383E0,-1.2509392E0,-7.1449786E-1,1.7865804E0,-1.6075465E-1,1.2385055E-1,-4.4567323E-1,-8.3064145E-1,8.250863E-1,3.925449E-1,-1.1567163E0,-5.2163875E-1,1.2840873E0,-9.919419E-1,1.2398803E0,-1.0907012E0,4.0126145E-1,1.2435465E0,-1.7212747E-2,-9.4475377E-1,-8.428463E-1,1.0451067E-1,6.7284673E-1,3.697015E-3,2.023181E-1,-9.846818E-1,-9.3927944E-1,-6.220373E-1,7.255248E-1,1.0207974E0,-2.1195823E-1,8.0335015E-1,4.817762E-2,-1.0502836E0],"categories":[],"categories_nodes":[],"categories_segments":[],"categories_sizes":[],"default_left":[1,1,1,1,1,1,1,1,1,1,1,1,1,1,0,1,1,1,0,1,0,1,1,1,1,1,1,0,1,0,0,0,0,0,0,0,0,0,0,0,0,0,0,0,0,0,0,0,0,0,0],"id":22,"left_children":[1,3,5,7,9,11,13,15,17,19,21,23,25,27,-1,29,31,33,-1,35,-1,37,39,41,43,45,47,-1,49,-1,-1,-1,-1,-1,-1,-1,-1,-1,-1,-1,-1,-1,-1,-1,-1,-1,-1,-1,-1,-1,-1],"loss_changes":[1.6732634E3,1.6829685E3,1.14072754E2,6.561206E1,1.4595559E3,2.0540544E2,1.1705066E2,5.3131104E-2,4.66593E1,4.572976E2,9.297197E1,1.6645164E0,7.1194153E0,1.7581158E0,0E0,6.320125E2,1.6227051E2,4.162372E1,0E0,8.3317334E2,0E0,2.84571E2,2.8074197E2,9.703703E0,3.9627838E-1,9.854126E0,1.2677658E1,0E0,6.4891515E0,0E0,0E0,0E0,0E0,0E0,0E0,0E0,0E0,0E0,0E0,0E0,0E0,0E0,0E0,0E0,0E0,0E0,0E0,0E0,0E0,0E0,0E0],"parents":[2147483647,0,0,1,1,2,2,3,3,4,4,5,5,6,6,7,7,8,8,9,9,10,10,11,11,12,12,13,13,15,15,16,16,17,17,19,19,21,21,22,22,23,23,24,24,25,25,26,26,28,28],"right_children":[2,4,6,8,10,12,14,16,18,20,22,24,26,28,-1,30,32,34,-1,36,-1,38,40,42,44,46,48,-1,50,-1,-1,-1,-1,-1,-1,-1,-1,-1,-1,-1,-1,-1,-1,-1,-1,-1,-1,-1,-1,-1,-1],"split_conditions":[3.79545E0,2.501629E0,3.93222E0,5E-1,5E-1,5E-1,5E-1,5E-1,1.5E0,5E-1,5E-1,5E-1,1.5E0,5E-1,5.8650102E-2,2.0272927E0,2.3260264E0,2.3048558E0,-6.254696E-2,2.8073726E0,8.932903E-2,3.1791997E0,2.9742475E0,3.8373158E0,3.8531804E0,3.8841693E0,5E-1,-5.7835817E-2,3.9958646E0,6.4204365E-2,-4.9597096E-2,6.1994016E-2,-5.453506E-2,2.0063072E-2,6.2177327E-2,-8.6063734E-4,-4.723769E-2,-4.2142313E-2,5.2255336E-3,3.3642337E-2,1.8485075E-4,1.0115906E-2,-4.923409E-2,-4.696397E-2,-3.1101866E-2,3.627624E-2,5.103987E-2,-1.0597912E-2,4.0167507E-2,2.408881E-3,-5.2514177E-2],"split_indices":[5,5,5,9,9,9,9,2,9,13,2,2,9,2,0,5,5,5,0,5,0,5,5,5,5,5,2,0,5,0,0,0,0,0,0,0,0,0,0,0,0,0,0,0,0,0,0,0,0,0,0],"split_type":[0,0,0,0,0,0,0,0,0,0,0,0,0,0,0,0,0,0,0,0,0,0,0,0,0,0,0,0,0,0,0,0,0,0,0,0,0,0,0,0,0,0,0,0,0,0,0,0,0,0,0],"sum_hessian":[1.4175682E4,1.2467288E4,1.7083928E3,1.3823461E3,1.1084942E4,7.344976E2,9.7389526E2,7.7341833E2,6.089278E2,5.2604463E3,5.824496E3,9.835624E1,6.3614136E2,2.932355E1,9.445717E2,6.286353E2,1.4478307E2,6.023101E2,6.6176395E0,5.188168E3,7.227835E1,1.5693965E3,4.2550996E3,2.4417824E1,7.3938416E1,5.886999E2,4.7441525E1,1.0450026E1,1.8873524E1,4.6522852E2,1.6340675E2,1.0515206E2,3.9631E1,6.902135E1,5.332888E2,1.2885696E3,3.8995984E3,4.383261E2,1.1310703E3,7.622508E2,3.4928489E3,1.1571017E1,1.2846806E1,4.369693E1,3.0241486E1,3.9677762E2,1.9192224E2,1.9488583E1,2.7952942E1,9.866824E0,9.006699E0],"tree_param":{"num_deleted":"0","num_feature":"14","num_nodes":"51","size_leaf_vector":"0"}},{"base_weights":[-4.1835826E-2,-2.0433442E-1,6.183678E-1,-3.7997074E-2,-1.1376672E0,7.025341E-1,-4.2192897E-1,-5.221211E-2,1.6603014E0,6.639892E-1,8.5588115E-1,-5.6742465E-1,3.290274E-1,-1.11275874E-1,6.621739E-1,6.5524393E-1,7.7794963E-1,8.736604E-1,7.0163196E-1,-6.2838376E-1,1.0597662E0,8.3354616E-1,1.0046546E0],"categories":[],"categories_nodes":[],"categories_segments":[],"categories_sizes":[],"default_left":[1,1,1,1,0,1,1,1,0,1,1,1,0,0,0,0,0,1,0,0,0,0,0],"id":23,"left_children":[1,3,5,7,-1,9,11,13,-1,15,17,19,-1,-1,-1,-1,-1,21,-1,-1,-1,-1,-1],"loss_changes":[1.5071604E3,1.7500262E3,2.4357935E2,2.3106102E2,0E0,1.3890015E1,2.321717E1,4.0065125E2,0E0,8.9178467E-1,1.071167E-2,1.8727207E1,0E0,0E0,0E0,0E0,0E0,4.9072266E-1,0E0,0E0,0E0,0E0,0E0],"parents":[2147483647,0,0,1,1,2,2,3,3,5,5,6,6,7,7,9,9,10,10,11,11,17,17],"right_children":[2,4,6,8,-1,10,12,14,-1,16,18,20,-1,-1,-1,-1,-1,22,-1,-1,-1,-1,-1],"split_conditions":[5E-1,5E-1,5E-1,5E-1,-5.688336E-2,1.5E0,1.5E0,5E-1,8.301508E-2,5E-1,5E-1,5E-1,1.6451372E-2,-5.5637937E-3,3.3108696E-2,3.2762196E-2,3.889748E-2,2.5E0,3.50816E-2,-3.1419188E-2,5.298831E-2,4.1677307E-2,5.0232735E-2],"split_indices":[7,0,0,13,0,7,7,10,0,10,10,10,0,0,0,0,0,7,0,0,0,0,0],"split_type":[0,0,0,0,0,0,0,0,0,0,0,0,0,0,0,0,0,0,0,0,0,0,0],"sum_hessian":[1.4044595E4,1.1271763E4,2.772832E3,9.568641E3,1.7031221E3,2.5659749E3,2.0685728E2,9.491194E3,7.744547E1,2.0595933E3,5.063816E2,1.7380501E2,3.3052273E1,8.768098E3,7.230972E2,1.9261589E3,1.3343439E2,4.4510168E2,6.1279915E1,1.6877147E2,5.0335464E0,3.5261163E2,9.249005E1],"tree_param":{"num_deleted":"0","num_feature":"14","num_nodes":"23","size_leaf_vector":"0"}},{"base_weights":[-4.269734E-2,4.6522248E-1,-4.6953547E-1,1.1950119E0,3.5608095E-1,-5.335927E-1,9.557534E-1,-4.8378786E-1,4.8246357E-1,-4.1026568E-1,-7.291129E-1,8.32846E-1,1.5707506E0,-4.906746E-1,-3.4113136E-1,3.9425293E-1,1.0662082E0,-5.5208504E-1,-1.0398358E-1,-7.777747E-1,4.7422454E-1,1.0509803E0,4.6967798E-1,-3.3975446E-1,-8.772043E-1,-8.086315E-2,-1.0267197E0,-9.322286E-1,-5.2432454E-1,7.891258E-1,-7.213807E-1,1.0872121E0,2.010799E-2,4.1720295E-1,1.0541773E0],"categories":[],"categories_nodes":[],"categories_segments":[],"categories_sizes":[],"default_left":[1,1,1,0,1,1,1,1,1,1,1,1,0,0,0,0,0,1,1,1,1,1,1,0,0,0,0,0,0,0,0,0,0,0,0],"id":24,"left_children":[1,3,5,-1,7,9,11,13,15,17,19,21,-1,-1,-1,-1,-1,23,25,27,29,31,33,-1,-1,-1,-1,-1,-1,-1,-1,-1,-1,-1,-1],"loss_changes":[3.0258818E3,5.0661963E2,6.933844E2,0E0,5.8925433E2,1.7432397E2,2.184784E1,2.957306E-1,2.4734045E2,1.9338184E2,1.6500916E2,2.0787674E1,0E0,0E0,0E0,0E0,0E0,2.0949847E2,2.986873E1,1.0444104E2,4.2627308E1,6.237488E0,2.2751427E0,0E0,0E0,0E0,0E0,0E0,0E0,0E0,0E0,0E0,0E0,0E0,0E0],"parents":[2147483647,0,0,1,1,2,2,4,4,5,5,6,6,7,7,8,8,9,9,10,10,11,11,17,17,18,18,19,19,20,20,21,21,22,22],"right_children":[2,4,6,-1,8,10,12,14,16,18,20,22,-1,-1,-1,-1,-1,24,26,28,30,32,34,-1,-1,-1,-1,-1,-1,-1,-1,-1,-1,-1,-1],"split_conditions":[4.5E0,2.5E0,5E-1,5.9750594E-2,3.5E0,7.5E0,1.5E0,5E-1,5E-1,6.5E0,5E-1,7.5E0,7.853753E-2,-2.453373E-2,-1.7056568E-2,1.9712647E-2,5.3310413E-2,5.5E0,5E-1,1.05E1,1.15E1,5E-1,5E-1,-1.6987724E-2,-4.3860216E-2,-4.0431577E-3,-5.1335987E-2,-4.6611432E-2,-2.6216228E-2,3.945629E-2,-3.6069036E-2,5.4360606E-2,1.0053995E-3,2.0860149E-2,5.2708864E-2],"split_indices":[12,12,11,0,12,12,11,10,10,12,10,12,0,0,0,0,0,12,10,12,12,10,3,0,0,0,0,0,0,0,0,0,0,0,0],"split_type":[0,0,0,0,0,0,0,0,0,0,0,0,0,0,0,0,0,0,0,0,0,0,0,0,0,0,0,0,0,0,0,0,0,0,0],"sum_hessian":[1.3953032E4,6.371178E3,7.5818545E3,8.261567E2,5.5450215E3,7.257021E3,3.248334E2,7.244279E2,4.8205938E3,4.454189E3,2.8028318E3,2.74788E2,5.0045403E1,6.857437E2,3.8684235E1,4.190832E3,6.2976154E2,3.0431653E3,1.4110238E3,2.694653E3,1.08178696E2,1.6913504E2,1.0565297E2,1.8435607E3,1.1996046E3,1.3787606E3,3.2263123E1,1.6707428E3,1.02391034E3,8.623066E1,2.1948034E1,1.6319302E2,5.9420114E0,1.00251274E2,5.401695E0],"tree_param":{"num_deleted":"0","num_feature":"14","num_nodes":"35","size_leaf_vector":"0"}},{"base_weights":[-4.3239E-2,4.7798043E-1,-5.783122E-1,4.060111E-1,1.1316463E0,-3.0968547E-1,-1.2648511E0,3.568395E-1,8.891429E-1,8.839599E-1,1.2107737E0,-4.789799E-1,7.8285694E-1,-1.2757124E0,2.7868143E-1,7.8788614E-1,1.1329412E0,-5.0132436E-1,9.573346E-2,6.2245816E-1,1.3222069E0,-1.2654691E0,-1.5032351E0,-2.0754203E-1,8.704899E-1,9.7778994E-1,7.080453E-1,-3.7840694E-1,-6.72026E-1,-5.6152177E-1,9.1289544E-1,1.3245855E-1,8.4439164E-1,-1.092308E0,-1.3293988E0],"categories":[],"categories_nodes":[],"categories_segments":[],"categories_sizes":[],"default_left":[1,1,1,1,1,1,1,0,0,1,0,1,1,1,1,1,0,1,1,1,0,1,0,0,0,0,0,0,0,0,0,0,0,0,0],"id":25,"left_children":[1,3,5,7,9,11,13,-1,-1,15,-1,17,19,21,23,25,-1,27,29,31,-1,33,-1,-1,-1,-1,-1,-1,-1,-1,-1,-1,-1,-1,-1],"loss_changes":[3.8691458E3,3.2953442E2,1.2615618E3,1.497107E2,1.1285828E1,9.113207E2,3.3073975E1,0E0,0E0,2.23674E0,0E0,5.489331E1,5.5360687E1,3.7329102E-1,4.750897E0,4.781189E-1,0E0,8.551636E1,8.757857E1,5.552693E1,0E0,1.7246826E1,0E0,0E0,0E0,0E0,0E0,0E0,0E0,0E0,0E0,0E0,0E0,0E0,0E0],"parents":[2147483647,0,0,1,1,2,2,3,3,4,4,5,5,6,6,9,9,11,11,12,12,13,13,14,14,15,15,17,17,18,18,19,19,21,21],"right_children":[2,4,6,8,10,12,14,-1,-1,16,-1,18,20,22,24,26,-1,28,30,32,-1,34,-1,-1,-1,-1,-1,-1,-1,-1,-1,-1,-1,-1,-1],"split_conditions":[7.5E0,2.5E0,1.95E1,5E-1,4.5E0,5E-1,3.5E0,1.7841976E-2,4.4457145E-2,5E-1,6.0538687E-2,5E-1,4.5E0,5E-1,6.5E0,3.5E0,5.6647062E-2,1.15E1,1.25E1,1.05E1,6.611034E-2,2.35E1,-7.5161755E-2,-1.0377102E-2,4.3524496E-2,4.88895E-2,3.5402264E-2,-1.8920347E-2,-3.36013E-2,-2.8076088E-2,4.564477E-2,6.6229277E-3,4.2219583E-2,-5.4615404E-2,-6.646994E-2],"split_indices":[1,8,1,10,8,8,8,0,0,10,0,10,8,8,8,1,0,1,1,1,0,1,0,0,0,0,0,0,0,0,0,0,0,0,0],"split_type":[0,0,0,0,0,0,0,0,0,0,0,0,0,0,0,0,0,0,0,0,0,0,0,0,0,0,0,0,0,0,0,0,0,0,0],"sum_hessian":[1.3869329E4,7.0256294E3,6.8436997E3,6.331878E3,6.937518E2,4.9211973E3,1.9225024E3,5.7503135E3,5.8156415E2,1.7416945E2,5.195823E2,4.261996E3,6.59201E2,1.9094781E3,1.3024355E1,1.319751E2,4.2194347E1,4.1029077E3,1.5908879E2,5.1156027E2,1.4764073E2,1.8401947E3,6.928346E1,7.7701373E0,5.254217E0,3.203438E1,9.994071E1,2.3893928E3,1.7135145E3,8.8450264E1,7.063853E1,1.6060657E2,3.509537E2,5.0636957E2,1.3338251E3],"tree_param":{"num_deleted":"0","num_feature":"14","num_nodes":"35","size_leaf_vector":"0"}},{"base_weights":[-4.1302852E-2,4.5848814E-1,-5.5370104E-1,-3.278997E-1,1.1099095E0,-2.9168928E-1,-1.2314423E0,-3.7889373E-1,1.5646607E0,1.0913146E0,1.2826955E0,-7.203535E-1,1.9100259E-1,-5.269234E-1,-1.3422749E0,1.7373861E-1,-9.939324E-1,1.0233295E0,1.6727805E0,1.1455625E0,7.6421285E-1,-6.539655E-3,1.3441207E0,-9.0565866E-1,-4.3825606E-1,5.444514E-1,-2.98509E-1,-1.2781026E0,5.608421E-2,-1.3774322E0,-7.927984E-1,1.2940494E0,-1.09828174E-1,-1.0689278E0,-8.548186E-1,1.3944621E0,1.105256E0,2.3064744E-1,9.193839E-1,-3.7780635E-2,5.589825E-3,1.1287817E0,1.4162148E0,-1.2319502E0,-8.763155E-1,-5.660048E-1,-5.1874172E-2,7.50753E-2,1.0779608E0,-1.14963874E-1,-1.0383371E0,2.4752656E-1,-8.3800113E-1,-1.3932884E0,-1.146732E0,1.506056E-1,-1.3643413E0],"categories":[],"categories_nodes":[],"categories_segments":[],"categories_sizes":[],"default_left":[1,1,1,1,1,1,1,1,1,1,1,1,1,1,1,1,1,0,0,1,1,1,1,1,1,1,1,0,1,1,1,0,0,0,0,0,0,0,0,0,0,0,0,0,0,0,0,0,0,0,0,0,0,0,0,0,0],"id":26,"left_children":[1,3,5,7,9,11,13,15,17,19,21,23,25,27,29,31,33,-1,-1,35,37,39,41,43,45,47,49,-1,51,53,55,-1,-1,-1,-1,-1,-1,-1,-1,-1,-1,-1,-1,-1,-1,-1,-1,-1,-1,-1,-1,-1,-1,-1,-1,-1,-1],"loss_changes":[3.5171438E3,3.5623403E3,1.2033499E3,3.0520563E2,9.181641E0,1.01284155E3,1.4597632E2,1.0440155E3,1.1660004E0,5.923242E1,2.8469177E1,1.3458167E2,3.9883258E2,1.142739E2,2.9119873E1,5.146832E2,1.3144531E1,0E0,0E0,2.6291016E1,4.058319E1,1.0529984E-2,1.8485718E0,1.2589844E1,5.081006E1,3.3484848E2,1.3093861E2,0E0,2.575873E1,2.1496582E0,5.6072037E1,0E0,0E0,0E0,0E0,0E0,0E0,0E0,0E0,0E0,0E0,0E0,0E0,0E0,0E0,0E0,0E0,0E0,0E0,0E0,0E0,0E0,0E0,0E0,0E0,0E0,0E0],"parents":[2147483647,0,0,1,1,2,2,3,3,4,4,5,5,6,6,7,7,8,8,9,9,10,10,11,11,12,12,13,13,14,14,15,15,16,16,19,19,20,20,21,21,22,22,23,23,24,24,25,25,26,26,28,28,29,29,30,30],"right_children":[2,4,6,8,10,12,14,16,18,20,22,24,26,28,30,32,34,-1,-1,36,38,40,42,44,46,48,50,-1,52,54,56,-1,-1,-1,-1,-1,-1,-1,-1,-1,-1,-1,-1,-1,-1,-1,-1,-1,-1,-1,-1,-1,-1,-1,-1,-1,-1],"split_conditions":[7.5E0,5E-1,1.95E1,5E-1,1.5E0,5E-1,5E-1,4.5E0,5E0,4.5E0,3.5E0,7.5E0,1.15E1,1.25E1,1.45E1,2.5E0,6.5E0,5.1166475E-2,8.3639026E-2,2.5E0,6.5E0,2.5E0,4.5E0,4.5E0,1.05E1,1.05E1,1.65E1,-6.3905135E-2,2.95E1,1.25E1,3.45E1,6.470247E-2,-5.491409E-3,-5.344639E-2,-4.274093E-2,6.972311E-2,5.52628E-2,1.1532373E-2,4.5969196E-2,-1.8890317E-3,2.7949127E-4,5.6439083E-2,7.081074E-2,-6.1597507E-2,-4.3815773E-2,-2.830024E-2,-2.5937087E-3,3.753765E-3,5.3898044E-2,-5.7481937E-3,-5.1916856E-2,1.2376328E-2,-4.1900057E-2,-6.966442E-2,-5.73366E-2,7.5302804E-3,-6.821706E-2],"split_indices":[1,9,1,13,9,9,9,1,1,12,1,12,1,12,12,12,1,0,0,12,1,1,1,12,12,1,1,0,1,12,1,0,0,0,0,0,0,0,0,0,0,0,0,0,0,0,0,0,0,0,0,0,0,0,0,0,0],"split_type":[0,0,0,0,0,0,0,0,0,0,0,0,0,0,0,0,0,0,0,0,0,0,0,0,0,0,0,0,0,0,0,0,0,0,0,0,0,0,0,0,0,0,0,0,0,0,0,0,0,0,0,0,0,0,0,0,0],"sum_hessian":[1.3729887E4,6.9504565E3,6.7794307E3,3.1493906E3,3.801066E3,4.891433E3,1.8879976E3,3.0683677E3,8.102311E1,3.4454792E3,3.5558655E2,2.5902932E3,2.3011396E3,2.5832678E2,1.6296709E3,1.6168488E3,1.4515189E3,1.712693E1,6.389618E1,2.9507961E3,4.9468314E2,1.6178566E1,3.39408E2,1.5604705E3,1.0298229E3,1.3362723E3,9.648673E2,1.1191558E2,1.464112E2,1.5286661E3,1.0100469E2,3.2521613E2,1.2916326E3,9.339475E2,5.175714E2,4.015407E2,2.5492554E3,1.12716736E2,3.819664E2,5.6475134E0,1.0531053E1,9.383418E1,2.4557379E2,1.2170914E2,1.4387614E3,7.730441E2,2.5677875E2,7.121761E2,6.240962E2,7.750339E2,1.8983342E2,1.2187365E2,2.4537546E1,1.4205206E3,1.0814554E2,3.8595673E1,6.2409023E1],"tree_param":{"num_deleted":"0","num_feature":"14","num_nodes":"57","size_leaf_vector":"0"}},{"base_weights":[-3.6483206E-2,-1.9439688E-1,6.0380995E-1,-2.3971191E-1,1.0121319E0,5.6280226E-1,1.226572E0,-2.4793872E-1,1.718268E0,6.188815E-1,4.8892152E-1,6.134228E-1,1.2475309E0,4.3857372E-1,7.180291E-1,5.914729E-1,7.107603E-1,6.4452577E-1,8.8423455E-1],"categories":[],"categories_nodes":[],"categories_segments":[],"categories_sizes":[],"default_left":[1,1,1,1,0,1,0,0,0,1,1,1,0,0,1,0,0,0,0],"id":27,"left_children":[1,3,5,7,-1,9,-1,-1,-1,11,13,15,-1,-1,17,-1,-1,-1,-1],"loss_changes":[1.3639805E3,5.9204724E2,6.659546E1,1.6873053E2,0E0,9.674072E0,0E0,0E0,0E0,3.1470337E0,1.185556E1,2.039856E0,0E0,0E0,1.068985E0,0E0,0E0,0E0,0E0],"parents":[2147483647,0,0,1,1,2,2,3,3,5,5,9,9,10,10,11,11,14,14],"right_children":[2,4,6,8,-1,10,-1,-1,-1,12,14,16,-1,-1,18,-1,-1,-1,-1],"split_conditions":[5E-1,5E-1,5E-1,5E-1,5.0606597E-2,5E-1,6.13286E-2,-1.2396936E-2,8.5913405E-2,5E-1,1.5E0,1.5E0,6.2376548E-2,2.1928687E-2,2.5E0,2.9573647E-2,3.5538014E-2,3.222629E-2,4.4211727E-2],"split_indices":[7,11,11,6,0,2,0,0,0,6,7,7,0,0,7,0,0,0,0],"split_type":[0,0,0,0,0,0,0,0,0,0,0,0,0,0,0,0,0,0,0],"sum_hessian":[1.3486008E4,1.0819239E4,2.666769E3,1.0429222E4,3.9001712E2,2.505739E3,1.6103E2,1.0387375E4,4.184668E1,1.4153269E3,1.0904122E3,1.4072183E3,8.108623E0,8.990954E2,1.9131685E2,1.1606655E3,2.4655275E2,1.3983371E2,5.1483135E1],"tree_param":{"num_deleted":"0","num_feature":"14","num_nodes":"19","size_leaf_vector":"0"}},{"base_weights":[-3.844822E-2,4.4548956E-1,-5.358009E-1,5.754932E-1,-1.100287E0,-4.2389095E-1,-9.868393E-1,7.821878E-1,4.8753363E-1,4.1797662E-1,-1.1389031E0,-2.629689E-2,-1.2209688E0,-1.0119785E0,9.2253035E-1,8.011004E-1,-2.2472881E-1,4.1287115E-1,9.6831316E-1,-1.1549859E0,6.3481055E-2,-3.5213622E-1,2.0176962E-1,-1.0257634E0,-1.2868588E0,-1.0186684E0,9.9108E-2,1.9534273E-1,1.2626265E0,-5.86349E-1,9.5842856E-1,6.191571E-1,-1.4032648E0,1.1817049E0,2.2590426E-1,-1.4983909E0,1.1624719E0,-1.3212005E0,-1.0981659E0,-8.5114196E-2,-4.981859E-1,7.8107744E-1,-1.1272231E-1,-1.413797E0,2.858044E-1,-1.349149E0,-4.1711313E-1,-1.0243112E0,-2.3769823E-1],"categories":[],"categories_nodes":[],"categories_segments":[],"categories_sizes":[],"default_left":[1,1,1,1,1,1,1,1,1,0,1,1,1,1,1,1,1,1,1,1,0,1,1,1,1,1,0,0,0,0,0,0,0,0,0,0,0,0,0,0,0,0,0,0,0,0,0,0,0],"id":28,"left_children":[1,3,5,7,9,11,13,15,17,-1,19,21,23,25,27,29,31,33,35,37,-1,39,41,43,45,47,-1,-1,-1,-1,-1,-1,-1,-1,-1,-1,-1,-1,-1,-1,-1,-1,-1,-1,-1,-1,-1,-1,-1],"loss_changes":[3.2378164E3,1.3713552E3,3.338899E2,1.1347705E2,3.2072083E1,1.6855005E3,6.509961E1,3.610852E1,1.5766394E2,0E0,1.0253906E1,2.6404193E2,1.9895752E1,9.9646E0,3.8400583E0,4.0284277E2,3.763735E1,5.496006E2,2.8709595E2,1.6765137E0,0E0,5.6911697E1,3.8101273E2,2.3347333E2,6.994873E1,5.087158E0,0E0,0E0,0E0,0E0,0E0,0E0,0E0,0E0,0E0,0E0,0E0,0E0,0E0,0E0,0E0,0E0,0E0,0E0,0E0,0E0,0E0,0E0,0E0],"parents":[2147483647,0,0,1,1,2,2,3,3,4,4,5,5,6,6,7,7,8,8,10,10,11,11,12,12,13,13,14,14,15,15,16,16,17,17,18,18,19,19,21,21,22,22,23,23,24,24,25,25],"right_children":[2,4,6,8,10,12,14,16,18,-1,20,22,24,26,28,30,32,34,36,38,-1,40,42,44,46,48,-1,-1,-1,-1,-1,-1,-1,-1,-1,-1,-1,-1,-1,-1,-1,-1,-1,-1,-1,-1,-1,-1,-1],"split_conditions":[7.5E0,5E-1,5E-1,3.5E0,2.5E0,1.95E1,5E-1,5E-1,5E-1,2.0898832E-2,5E-1,1.05E1,2.35E1,2.45E1,1.05E1,3.5E0,2.5E0,2.5E0,5.5E0,4.5E0,3.1740528E-3,5.5E0,1.15E1,9.5E0,1.55E1,1.55E1,4.9554002E-3,9.767137E-3,6.3131325E-2,-2.9317452E-2,4.792143E-2,3.0957853E-2,-7.016324E-2,5.9085246E-2,1.1295213E-2,-7.4919544E-2,5.8123596E-2,-6.606003E-2,-5.4908294E-2,-4.2557097E-3,-2.4909295E-2,3.9053872E-2,-5.6361156E-3,-7.068985E-2,1.429022E-2,-6.745745E-2,-2.0855656E-2,-5.121556E-2,-1.1884912E-2],"split_indices":[1,0,0,1,1,1,10,10,10,0,10,1,1,1,1,12,1,12,1,1,0,12,1,12,12,12,0,0,0,0,0,0,0,0,0,0,0,0,0,0,0,0,0,0,0,0,0,0,0],"split_type":[0,0,0,0,0,0,0,0,0,0,0,0,0,0,0,0,0,0,0,0,0,0,0,0,0,0,0,0,0,0,0,0,0,0,0,0,0,0,0,0,0,0,0,0,0,0,0,0,0],"sum_hessian":[1.3448331E4,6.8160933E3,6.6322383E3,6.288532E3,5.275612E2,5.317085E3,1.3151533E3,1.8721891E3,4.4163433E3,1.2533836E1,5.150274E2,3.5489888E3,1.768096E3,1.2990422E3,1.611118E1,1.8381715E3,3.401756E1,3.8260964E3,5.902467E2,5.083893E2,6.63808E0,1.4610017E3,2.087987E3,4.5494156E2,1.3131544E3,1.2915223E3,7.519882E0,6.2309847E0,9.880195E0,1.8658876E2,1.6515828E3,2.0326954E1,1.3690606E1,7.4624756E2,3.0798489E3,4.2051414E1,5.4819525E2,1.1773037E2,3.9065894E2,5.1792737E2,9.430743E2,7.33746E2,1.3542412E3,3.5101303E2,1.0392853E2,1.2242572E3,8.889722E1,1.2815117E3,1.0010592E1],"tree_param":{"num_deleted":"0","num_feature":"14","num_nodes":"49","size_leaf_vector":"0"}},{"base_weights":[-3.0156488E-2,-1.8097785E-1,5.882211E-1,-6.592556E-1,2.2702529E-1,4.4535267E-1,6.6750133E-1,2.1297789E-1,3.565893E-1,5.008507E-1,-1.0673843E-1,5.7232994E-1,9.54709E-1,7.712126E-1,-1.2951009E0,3.8885784E-1,-1.981175E-1,4.794872E-1,1.2907459E0,1.9202173E-2,-6.2753975E-1,7.39823E-1,-7.23131E-1,1.0059619E0,2.704866E-1,7.0509505E-1,1.2195516E0,-1.3078827E0,-0E0,3.737988E-1,1.0935061E0,5.5357575E-1,-1.0637178E0,1.4991051E-1,-7.255488E-1,-2.1773623E-1,-1.0515735E0,6.8026996E-1,1.3512104E0,9.5614946E-1,1.1394668E0,-0E0,8.7805575E-1],"categories":[],"categories_nodes":[],"categories_segments":[],"categories_sizes":[],"default_left":[1,1,1,0,1,1,1,1,1,1,1,1,1,1,1,1,0,1,0,1,1,1,0,1,1,0,0,0,0,0,0,0,0,0,0,0,0,0,0,0,0,0,0],"id":29,"left_children":[1,3,5,-1,7,9,11,13,15,17,19,21,23,25,27,29,-1,31,-1,33,35,37,-1,39,41,-1,-1,-1,-1,-1,-1,-1,-1,-1,-1,-1,-1,-1,-1,-1,-1,-1,-1],"loss_changes":[1.2405981E3,2.0871406E3,2.8835999E1,0E0,1.0296936E1,2.8863937E1,4.448163E1,4.390861E3,1.0214058E1,1.2965408E1,5.7974772E0,2.7485498E2,1.3815552E1,1.1091553E2,2.3360107E1,4.670006E0,0E0,9.637015E1,0E0,7.161099E0,2.399477E0,3.8678772E1,0E0,1.6152954E-1,5.191537E0,0E0,0E0,0E0,0E0,0E0,0E0,0E0,0E0,0E0,0E0,0E0,0E0,0E0,0E0,0E0,0E0,0E0,0E0],"parents":[2147483647,0,0,1,1,2,2,4,4,5,5,6,6,7,7,8,8,9,9,10,10,11,11,12,12,13,13,14,14,15,15,17,17,19,19,20,20,21,21,23,23,24,24],"right_children":[2,4,6,-1,8,10,12,14,16,18,20,22,24,26,28,30,-1,32,-1,34,36,38,-1,40,42,-1,-1,-1,-1,-1,-1,-1,-1,-1,-1,-1,-1,-1,-1,-1,-1,-1,-1],"split_conditions":[5E-1,5E-1,5E-1,-3.296278E-2,1.5E0,1.5E0,1.5E0,5E-1,5E-1,5E-1,2.5E0,5E-1,5E-1,5E-1,5E-1,3.5E0,-9.905875E-3,5E-1,6.4537294E-2,5E-1,5E-1,5E-1,-3.615655E-2,2.5E0,2.5E0,3.5254754E-2,6.097758E-2,-6.539413E-2,-0E0,1.868994E-2,5.4675307E-2,2.7678788E-2,-5.318589E-2,7.4955258E-3,-3.627744E-2,-1.0886812E-2,-5.2578676E-2,3.40135E-2,6.756052E-2,4.7807474E-2,5.6973338E-2,-0E0,4.390279E-2],"split_indices":[7,9,9,0,9,7,7,0,0,0,7,0,0,10,10,9,0,10,0,10,10,10,0,7,7,0,0,0,0,0,0,0,0,0,0,0,0,0,0,0,0,0,0],"split_type":[0,0,0,0,0,0,0,0,0,0,0,0,0,0,0,0,0,0,0,0,0,0,0,0,0,0,0,0,0,0,0,0,0,0,0,0,0,0,0,0,0,0,0],"sum_hessian":[1.3298081E4,1.0691915E4,2.6061658E3,4.921614E3,5.7703013E3,9.352601E2,1.6709056E3,5.211344E3,5.589571E2,8.501654E2,8.509468E1,1.2597865E3,4.111191E2,3.8042104E3,1.4071335E3,5.289643E2,2.999282E1,8.3103E2,1.913536E1,6.9920654E1,1.5174024E1,1.1163821E3,1.4340453E2,3.814587E2,2.9660418E1,3.319975E3,4.8423544E2,1.3933821E3,1.3751558E1,5.2103217E2,7.932121E0,7.9424603E2,3.6783993E1,6.095447E1,8.966187E0,9.375735E0,5.798288E0,1.0212907E3,9.509132E1,2.9023944E2,9.121925E1,2.1922308E1,7.738111E0],"tree_param":{"num_deleted":"0","num_feature":"14","num_nodes":"43","size_leaf_vector":"0"}},{"base_weights":[-2.4177622E-2,-4.5214963E-1,3.1523806E-1,-1.0694156E-1,-7.437259E-1,1.3817641E-1,1.0847446E0,4.0431765E-1,-8.0943805E-1,1.2749683E0,-8.090207E-1,1.0378335E0,4.6314497E-2,-2.044422E-1,1.1514103E0,1.2436329E0,7.392446E-2,-1.0097154E0,-7.649497E-1,1.7206192E0,7.014304E-1,-9.397698E-1,-6.7457426E-1,3.0391484E-1,1.1331288E0,-4.7357533E-2,4.6012625E-1,6.166307E-3,-8.930917E-1,8.7884253E-1,1.2019864E0,1.1774923E0,1.4720128E0,-1.128979E0,4.2679906E-1,-6.193665E-1,-1.1495563E0,-3.1020883E-1,-8.492378E-1,-7.5384176E-1,1.2561462E0,-9.89459E-1,1.7040752E0,-7.159378E-1,1.5033017E0,6.982822E-1,-1.2211852E0,1.2920742E0,9.338672E-1,-9.7418964E-1,-9.686535E-3,5.021829E-1,-2.069881E-1,-4.235034E-1,2.6303494E-1,9.097023E-1,7.648183E-2],"categories":[],"categories_nodes":[],"categories_segments":[],"categories_sizes":[],"default_left":[1,1,1,1,1,1,1,1,1,1,1,1,1,1,1,1,1,1,1,0,1,1,1,1,1,1,1,1,0,1,0,0,0,0,0,0,0,0,0,0,0,0,0,0,0,0,0,0,0,0,0,0,0,0,0,0,0],"id":30,"left_children":[1,3,5,7,9,11,13,15,17,19,21,23,25,27,29,31,33,35,37,-1,39,41,43,45,47,49,51,53,-1,55,-1,-1,-1,-1,-1,-1,-1,-1,-1,-1,-1,-1,-1,-1,-1,-1,-1,-1,-1,-1,-1,-1,-1,-1,-1,-1,-1],"loss_changes":[1.9142201E3,5.864313E2,1.0009053E3,9.6012964E2,4.1843933E2,4.9374933E2,1.1868042E2,4.287765E2,8.310242E0,2.283049E1,5.2388916E1,3.7882202E1,2.1038438E2,1.01359E1,1.5698486E1,2.8672485E0,4.7312753E2,9.207123E0,3.5002563E1,0E0,3.9946163E1,2.0648499E2,1.3872296E2,4.1630836E1,1.2854187E1,1.5439862E2,2.8344437E1,6.262332E0,0E0,5.0196533E0,0E0,0E0,0E0,0E0,0E0,0E0,0E0,0E0,0E0,0E0,0E0,0E0,0E0,0E0,0E0,0E0,0E0,0E0,0E0,0E0,0E0,0E0,0E0,0E0,0E0,0E0,0E0],"parents":[2147483647,0,0,1,1,2,2,3,3,4,4,5,5,6,6,7,7,8,8,9,9,10,10,11,11,12,12,13,13,14,14,15,15,16,16,17,17,18,18,20,20,21,21,22,22,23,23,24,24,25,25,26,26,27,27,29,29],"right_children":[2,4,6,8,10,12,14,16,18,20,22,24,26,28,30,32,34,36,38,-1,40,42,44,46,48,50,52,54,-1,56,-1,-1,-1,-1,-1,-1,-1,-1,-1,-1,-1,-1,-1,-1,-1,-1,-1,-1,-1,-1,-1,-1,-1,-1,-1,-1,-1],"split_conditions":[5E-1,5E-1,5E-1,2.8112135E0,2.3386583E0,2.501629E0,3.1814194E0,2.0272927E0,2.9489574E0,2.059039E0,3.2647583E0,2.3072047E0,3.689475E0,1.5E0,3.5864108E0,1.9804821E0,2.5534987E0,2.8875313E0,3.089559E0,8.603096E-2,2.2508144E0,5E-1,5E-1,2.2411828E0,2.3386583E0,2.7508144E0,1.5E0,2.9051342E0,-4.4654585E-2,1.5E0,6.0099322E-2,5.8874615E-2,7.360064E-2,-5.6448948E-2,2.1339953E-2,-3.0968327E-2,-5.7477813E-2,-1.5510442E-2,-4.246189E-2,-3.769209E-2,6.2807314E-2,-4.947295E-2,8.520376E-2,-3.5796892E-2,7.5165085E-2,3.491411E-2,-6.1059263E-2,6.460371E-2,4.6693362E-2,-4.8709482E-2,-4.8432677E-4,2.5109146E-2,-1.0349405E-2,-2.117517E-2,1.3151747E-2,4.5485117E-2,3.8240913E-3],"split_indices":[9,2,8,5,5,5,5,5,5,5,5,5,5,9,5,5,5,5,5,0,5,13,13,5,5,5,9,5,0,9,0,0,0,0,0,0,0,0,0,0,0,0,0,0,0,0,0,0,0,0,0,0,0,0,0,0,0],"split_type":[0,0,0,0,0,0,0,0,0,0,0,0,0,0,0,0,0,0,0,0,0,0,0,0,0,0,0,0,0,0,0,0,0,0,0,0,0,0,0,0,0,0,0,0,0,0,0,0,0,0,0,0,0,0,0,0,0],"sum_hessian":[1.3173794E4,5.8266074E3,7.3471865E3,2.6693457E3,3.1572617E3,5.9748716E3,1.3723151E3,1.5453705E3,1.1239751E3,9.771325E1,3.0595486E3,5.515489E2,5.4233228E3,6.719821E1,1.3051168E3,4.3485486E2,1.1105157E3,1.9599696E2,9.2797815E2,5.2638023E1,4.5075226E1,1.5446514E3,1.5148972E3,6.446884E1,4.8708005E2,4.423526E3,9.9979694E2,5.2866898E1,1.4331314E1,2.1032933E2,1.0947875E3,3.4708548E2,8.776937E1,2.508202E2,8.596955E2,5.474793E1,1.4124902E2,1.4675748E2,7.8122064E2,1.2191958E1,3.2883266E1,1.5174219E3,2.7229519E1,1.4880242E3,2.6872997E1,5.2136898E1,1.2331948E1,2.645697E2,2.2251035E2,1.7072583E2,4.2528E3,9.4111115E2,5.8685802E1,1.914908E1,3.3717815E1,2.0216174E2,8.167594E0],"tree_param":{"num_deleted":"0","num_feature":"14","num_nodes":"57","size_leaf_vector":"0"}},{"base_weights":[-3.8287327E-2,1.0669874E-1,-9.4889474E-1,3.622546E-1,-1.1428674E0,-2.0309502E-2,-9.554383E-1,1.8730164E-1,1.071762E0,-1.1781934E0,3.9917853E-1,-7.4236315E-1,6.954298E-1,-1.0165427E0,5.055056E-1,4.089213E-1,-2.8964338E-1,1.2577147E0,3.471701E-1,-6.0882753E-1,-1.237023E0,1.0612698E0,-3.4342003E-1,1.4147682E0,-1.0494572E0,8.868812E-1,-6.7979E-1,6.7566913E-1,2.9265118E-1,-3.4578833E-1,9.7534484E-1,1.2144551E0,1.400059E0,4.2082882E-1,-3.8996282E-1,-1.087646E0,-1.2861763E0,2.543149E-2,-9.615961E-1,5.992986E-1,1.6281018E0,-1.3697339E0,-1.006237E0,1.1880758E0,4.6198907E-1],"categories":[],"categories_nodes":[],"categories_segments":[],"categories_sizes":[],"default_left":[1,1,1,1,1,1,1,1,1,1,1,0,0,1,1,1,1,1,1,0,1,0,1,1,1,1,0,0,0,0,0,0,0,0,0,0,0,0,0,0,0,0,0,0,0],"id":31,"left_children":[1,3,5,7,9,11,13,15,17,19,21,-1,-1,23,25,27,29,31,33,-1,35,-1,37,39,41,43,-1,-1,-1,-1,-1,-1,-1,-1,-1,-1,-1,-1,-1,-1,-1,-1,-1,-1,-1],"loss_changes":[1.7168881E3,3.5830132E3,1.0716675E1,1.1557236E3,1.04798096E2,8.607814E0,1.593977E2,7.903386E2,2.4715747E2,6.071216E1,2.248148E1,0E0,0E0,1.3921777E2,3.398536E1,1.5781952E2,1.691065E2,5.3588867E0,2.091224E1,0E0,9.347412E0,0E0,5.210021E0,1.9241943E0,2.0281372E1,5.87302E0,0E0,0E0,0E0,0E0,0E0,0E0,0E0,0E0,0E0,0E0,0E0,0E0,0E0,0E0,0E0,0E0,0E0,0E0,0E0],"parents":[2147483647,0,0,1,1,2,2,3,3,4,4,5,5,6,6,7,7,8,8,9,9,10,10,13,13,14,14,15,15,16,16,17,17,18,18,20,20,22,22,23,23,24,24,25,25],"right_children":[2,4,6,8,10,12,14,16,18,20,22,-1,-1,24,26,28,30,32,34,-1,36,-1,38,40,42,44,-1,-1,-1,-1,-1,-1,-1,-1,-1,-1,-1,-1,-1,-1,-1,-1,-1,-1,-1],"split_conditions":[5E-1,1.75E1,2.5E0,3.6422606E0,5E-1,3.4964976E0,5E-1,7.5E0,1.15E1,1.95E1,2.35E1,-3.711816E-2,3.477149E-2,2.3606343E0,1.55E1,3.5E0,5E-1,1.05E1,1.65E1,-3.0441377E-2,2.35E1,5.306349E-2,2.95E1,3.5E0,5.5E0,1.15E1,-3.39895E-2,3.378346E-2,1.4632559E-2,-1.7289417E-2,4.8767243E-2,6.0722757E-2,7.000295E-2,2.1041442E-2,-1.9498141E-2,-5.4382302E-2,-6.4308815E-2,1.2715745E-3,-4.8079804E-2,2.996493E-2,8.1405096E-2,-6.84867E-2,-5.0311852E-2,5.940379E-2,2.3099454E-2],"split_indices":[0,1,1,5,11,5,11,1,1,1,1,0,0,5,1,1,11,1,1,0,1,0,1,1,1,1,0,0,0,0,0,0,0,0,0,0,0,0,0,0,0,0,0,0,0],"split_type":[0,0,0,0,0,0,0,0,0,0,0,0,0,0,0,0,0,0,0,0,0,0,0,0,0,0,0,0,0,0,0,0,0,0,0,0,0,0,0,0,0,0,0,0,0],"sum_hessian":[1.3000056E4,1.1215922E4,1.7841329E3,9.312808E3,1.9031147E3,1.2648927E1,1.771484E3,7.4728047E3,1.840003E3,1.8610183E3,4.2096363E1,6.329205E0,6.3197217E0,1.7010155E3,7.0468506E1,5.102395E3,2.3704097E3,1.462954E3,3.77049E2,1.7656664E2,1.6844517E3,2.1871984E1,2.0224377E1,2.155832E1,1.6794572E3,5.3759106E1,1.67094E1,1.5457168E3,3.5566782E3,2.2711404E3,9.9269424E1,1.1371356E3,3.2581842E2,3.436985E2,3.335052E1,4.2900186E2,1.2554498E3,1.3766296E1,6.4580803E0,6.1473145E0,1.5411004E1,1.9211583E2,1.4873414E3,2.9218893E1,2.454021E1],"tree_param":{"num_deleted":"0","num_feature":"14","num_nodes":"45","size_leaf_vector":"0"}},{"base_weights":[-2.8989948E-2,-4.5080572E-1,3.0732107E-1,-4.7778007E-1,1.5011876E0,1.4547299E-1,1.0489417E0,-4.843525E-1,1.3762838E0,1.4757304E-1,-3.3443913E-1,8.956752E-1,1.157754E0,-4.551632E-1,-1.005909E0,-1.0288762E0,-2.2848968E-1],"categories":[],"categories_nodes":[],"categories_segments":[],"categories_sizes":[],"default_left":[1,1,1,1,0,1,1,1,0,0,0,0,0,0,1,0,0],"id":32,"left_children":[1,3,5,7,-1,9,11,13,-1,-1,-1,-1,-1,-1,15,-1,-1],"loss_changes":[1.833584E3,3.0323572E2,8.627569E2,7.01803E1,0E0,6.0318604E0,1.9198242E1,8.478113E1,0E0,0E0,0E0,0E0,0E0,0E0,4.7073364E0,0E0,0E0],"parents":[2147483647,0,0,1,1,2,2,3,3,5,5,6,6,7,7,14,14],"right_children":[2,4,6,8,-1,10,12,14,-1,-1,-1,-1,-1,-1,16,-1,-1],"split_conditions":[5E-1,5E-1,5E-1,5E-1,7.505938E-2,2.5E0,2.5E0,5E-1,6.881419E-2,7.378652E-3,-1.6721956E-2,4.478376E-2,5.78877E-2,-2.2758162E-2,4.5E0,-5.144381E-2,-1.1424485E-2],"split_indices":[9,13,8,3,0,9,8,8,0,0,0,0,0,0,8,0,0],"split_type":[0,0,0,0,0,0,0,0,0,0,0,0,0,0,0,0,0],"sum_hessian":[1.2921135E4,5.731747E3,7.1893877E3,5.6551606E3,7.6586334E1,5.90355E3,1.285838E3,5.636711E3,1.844991E1,5.879415E3,2.413436E1,5.419127E2,7.4392523E2,5.3416963E3,2.9501477E2,2.85796E2,9.218794E0],"tree_param":{"num_deleted":"0","num_feature":"14","num_nodes":"17","size_leaf_vector":"0"}},{"base_weights":[-2.8919086E-2,-1.2809166E-1,8.1101704E-1,3.305773E-1,-6.0927624E-1,1.0932205E0,-7.2688633E-1,1.985331E-1,1.1144722E0,-3.808528E-1,-1.1893171E0,1.1992959E0,5.6757873E-1,-3.8726443E-1,-1.318969E0,2.4394493E-1,1.6081876E-1,1.2078636E0,8.5619575E-1,-4.6883678E-1,1.4884053E-1,-1.2165116E0,-4.348251E-1,-2.6185057E-1,9.7543293E-1,-6.582506E-1,5.740321E-2,8.011583E-1,-6.1206087E-2,-1.5648009E-1,1.2266734E0,1.2387235E0,1.179114E-1,-6.615861E-1,1.2684828E0,8.418141E-2,-5.289469E-1,-1.2550855E-1,3.439064E-1,-1.2899588E0,-1.0396476E0,3.9426348E-1,-1.1876894E0,-4.1988388E-1,7.183764E-1,-5.656481E-1,1.1096822E0,3.519744E-1,-9.007271E-1,-3.443675E-1,2.7606153E-1],"categories":[],"categories_nodes":[],"categories_segments":[],"categories_sizes":[],"default_left":[1,1,1,1,1,1,1,1,1,1,1,0,1,1,0,1,1,1,1,1,1,1,1,1,1,1,1,0,0,0,0,0,0,0,0,0,0,0,0,0,0,0,0,0,0,0,0,0,0,0,0],"id":33,"left_children":[1,3,5,7,9,11,13,15,17,19,21,-1,23,25,-1,27,29,31,33,35,37,39,41,43,45,47,49,-1,-1,-1,-1,-1,-1,-1,-1,-1,-1,-1,-1,-1,-1,-1,-1,-1,-1,-1,-1,-1,-1,-1,-1],"loss_changes":[1.066937E3,2.5288848E3,5.886618E2,6.0666675E2,7.3981274E2,6.223462E1,4.1209602E1,8.484467E0,1.811206E1,1.8728455E2,3.1171387E1,0E0,6.688916E1,1.6636793E1,0E0,3.8683475E2,9.309777E2,2.0278137E1,1.4667192E2,1.1460748E2,3.0786457E1,1.6864258E1,3.7323135E1,1.0814035E1,2.8598618E1,2.160506E1,4.8879633E0,0E0,0E0,0E0,0E0,0E0,0E0,0E0,0E0,0E0,0E0,0E0,0E0,0E0,0E0,0E0,0E0,0E0,0E0,0E0,0E0,0E0,0E0,0E0,0E0],"parents":[2147483647,0,0,1,1,2,2,3,3,4,4,5,5,6,6,7,7,8,8,9,9,10,10,12,12,13,13,15,15,16,16,17,17,18,18,19,19,20,20,21,21,22,22,23,23,24,24,25,25,26,26],"right_children":[2,4,6,8,10,12,14,16,18,20,22,-1,24,26,-1,28,30,32,34,36,38,40,42,44,46,48,50,-1,-1,-1,-1,-1,-1,-1,-1,-1,-1,-1,-1,-1,-1,-1,-1,-1,-1,-1,-1,-1,-1,-1,-1],"split_conditions":[3.8077924E0,7.5E0,1.65E1,5E-1,1.95E1,1.25E1,2.95E1,5E-1,5E-1,5E-1,1.5E0,5.9964795E-2,5E-1,5E-1,-6.594845E-2,2.501629E0,3.3256116E0,6.5E0,3.3263412E0,3.0054967E0,3.486133E0,3.5077927E0,2.75E1,3.9805994E0,3.859427E0,5E-1,5E-1,4.0057916E-2,-3.0603043E-3,-7.824005E-3,6.1333667E-2,6.1936177E-2,5.89557E-3,-3.3079308E-2,6.342414E-2,4.209071E-3,-2.6447345E-2,-6.2754275E-3,1.719532E-2,-6.449794E-2,-5.198238E-2,1.9713175E-2,-5.9384473E-2,-2.0994194E-2,3.591882E-2,-2.8282404E-2,5.5484112E-2,1.759872E-2,-4.5036357E-2,-1.7218376E-2,1.3803077E-2],"split_indices":[5,1,1,7,1,1,1,2,2,7,7,0,7,7,0,5,5,1,5,5,5,5,1,5,5,2,2,0,0,0,0,0,0,0,0,0,0,0,0,0,0,0,0,0,0,0,0,0,0,0,0],"split_type":[0,0,0,0,0,0,0,0,0,0,0,0,0,0,0,0,0,0,0,0,0,0,0,0,0,0,0,0,0,0,0,0,0,0,0,0,0,0,0,0,0,0,0,0,0,0,0,0,0,0,0],"sum_hessian":[1.2804903E4,1.1454291E4,1.3506122E3,5.864562E3,5.5897295E3,1.1417463E3,2.088658E2,5.021365E3,8.4319653E2,4.0129084E3,1.5768209E3,9.477379E2,1.9400844E2,1.3494032E2,7.3925476E1,2.2720286E3,2.749337E3,6.1358636E2,2.2961018E2,3.4416555E3,5.7125305E2,1.5206539E3,5.6166897E1,6.410751E1,1.2990094E2,8.33873E1,5.155303E1,8.029318E2,1.4690967E3,2.1198748E3,6.294621E2,5.963374E2,1.7248964E1,4.8737484E1,1.808727E2,3.3717276E2,3.1044827E3,2.3746814E2,3.3378488E2,1.065165E3,4.5548892E2,2.7120438E1,2.9046457E1,5.6279392E1,7.828117E0,9.834657E0,1.2006628E2,1.5886042E1,6.750126E1,1.7602465E1,3.3950565E1],"tree_param":{"num_deleted":"0","num_feature":"14","num_nodes":"51","size_leaf_vector":"0"}},{"base_weights":[-2.8666176E-2,1.1295897E-1,-9.2375624E-1,3.5083503E-1,-1.0863268E0,1.5437135E-1,-9.315135E-1,1.8976592E-1,1.0359544E0,-1.2442194E0,-8.030141E-1,-3.612885E-1,5.718953E-1,-3.371211E-1,-1.0744809E0,3.8898668E-1,-2.439975E-1,1.2268184E0,3.2778797E-1,-1.332116E0,-1.1141648E0,1.773747E-1,-1.1879865E0,-4.6641192E-1,9.592484E-1,1.0587316E0,-1.0867478E0,6.283989E-1,2.869386E-1,-4.392376E-1,-2.7953893E-2,1.179233E0,1.3750466E0,4.0087646E-1,-4.3283612E-1,5.8310267E-2,-1.2223959E0,-7.2818466E-2,2.5386688E-1,-7.9755706E-1,-1.2680147E0,-6.090602E-1,-2.1046314E-1,1.1804086E0,2.1401617E-1,-1.5449595E0,-1.0377656E0],"categories":[],"categories_nodes":[],"categories_segments":[],"categories_sizes":[],"default_left":[1,1,1,1,1,1,1,1,1,1,1,0,0,1,1,1,1,1,1,0,1,1,1,1,1,0,1,0,0,0,0,0,0,0,0,0,0,0,0,0,0,0,0,0,0,0,0],"id":34,"left_children":[1,3,5,7,9,11,13,15,17,19,21,-1,-1,23,25,27,29,31,33,-1,35,37,39,41,43,-1,45,-1,-1,-1,-1,-1,-1,-1,-1,-1,-1,-1,-1,-1,-1,-1,-1,-1,-1,-1,-1],"loss_changes":[1.606263E3,3.1215813E3,1.4842041E1,1.0070563E3,7.881445E1,3.4461758E0,1.4521167E2,6.392545E2,2.338739E2,1.00373535E1,2.4736111E2,0E0,0E0,5.722003E1,3.8536865E1,1.2338141E2,9.814862E1,6.148926E0,2.1007221E1,0E0,6.118799E1,3.616044E0,1.2454285E1,1.0879913E1,4.478903E0,0E0,2.7457764E1,0E0,0E0,0E0,0E0,0E0,0E0,0E0,0E0,0E0,0E0,0E0,0E0,0E0,0E0,0E0,0E0,0E0,0E0,0E0,0E0],"parents":[2147483647,0,0,1,1,2,2,3,3,4,4,5,5,6,6,7,7,8,8,9,9,10,10,13,13,14,14,15,15,16,16,17,17,18,18,20,20,21,21,22,22,23,23,24,24,26,26],"right_children":[2,4,6,8,10,12,14,16,18,20,22,-1,-1,24,26,28,30,32,34,-1,36,38,40,42,44,-1,46,-1,-1,-1,-1,-1,-1,-1,-1,-1,-1,-1,-1,-1,-1,-1,-1,-1,-1,-1,-1],"split_conditions":[5E-1,1.75E1,2.5E0,3.6422606E0,3.5112045E0,3.294455E0,5E-1,7.5E0,1.15E1,3.2599633E0,2.45E1,-1.8064424E-2,2.8594766E-2,3.858389E0,2.4125104E0,3.5E0,1.05E1,1.05E1,1.65E1,-6.66058E-2,2.15E1,1.85E1,2.75E1,1.05E1,1.65E1,5.293658E-2,5.5E0,3.1419944E-2,1.434693E-2,-2.196188E-2,-1.3976947E-3,5.896165E-2,6.875233E-2,2.0043824E-2,-2.1641806E-2,2.9155135E-3,-6.1119795E-2,-3.6409234E-3,1.2693345E-2,-3.9877854E-2,-6.340074E-2,-3.0453011E-2,-1.0523157E-2,5.902043E-2,1.0700809E-2,-7.724798E-2,-5.1888283E-2],"split_indices":[0,1,1,5,5,5,2,1,1,5,1,0,0,5,5,1,1,1,1,0,1,1,1,1,1,0,1,0,0,0,0,0,0,0,0,0,0,0,0,0,0,0,0,0,0,0,0],"split_type":[0,0,0,0,0,0,0,0,0,0,0,0,0,0,0,0,0,0,0,0,0,0,0,0,0,0,0,0,0,0,0,0,0,0,0,0,0,0,0,0,0,0,0,0,0,0,0],"sum_hessian":[1.2666675E4,1.0937699E4,1.7289756E3,9.128563E3,1.809135E3,1.1989188E1,1.7169865E3,7.3931587E3,1.7354053E3,1.1571239E3,6.5201105E2,5.3775516E0,6.6116366E0,3.3434595E2,1.3826405E3,5.06659E3,2.3265686E3,1.3657139E3,3.6969138E2,6.789829E2,4.7814102E2,1.8406961E2,4.6794147E2,3.052591E2,2.9086834E1,6.8831487E0,1.3757573E3,1.5108141E3,3.5557756E3,1.220797E3,1.1057717E3,1.0478953E3,3.1781866E2,3.3826486E2,3.1426527E1,4.0407032E1,4.3773398E2,4.2815613E1,1.41254E2,8.3543396E1,3.8439807E2,1.9399158E2,1.1126753E2,2.1426178E1,7.6606574E0,1.2676708E2,1.2489902E3],"tree_param":{"num_deleted":"0","num_feature":"14","num_nodes":"47","size_leaf_vector":"0"}},{"base_weights":[-2.1389097E-2,-7.794932E-2,1.0763884E0,-1.8592617E-1,4.448929E-1,7.2217155E-1,1.1498268E0,-2.24546E-1,4.2064235E-1,4.3263194E-1,7.824676E-1,4.4508836E-1,1.0496134E0,-2.3794118E-1,1.4020741E0,4.230244E-1,4.997709E-1],"categories":[],"categories_nodes":[],"categories_segments":[],"categories_sizes":[],"default_left":[1,1,1,1,1,1,0,1,0,1,0,0,0,0,0,0,0],"id":35,"left_children":[1,3,5,7,9,11,-1,13,-1,15,-1,-1,-1,-1,-1,-1,-1],"loss_changes":[7.757834E2,6.709983E2,1.4077148E1,2.3092633E2,7.62204E0,8.963417E0,0E0,2.023692E2,0E0,7.5427246E-1,0E0,0E0,0E0,0E0,0E0,0E0,0E0],"parents":[2147483647,0,0,1,1,2,2,3,3,4,4,5,5,7,7,9,9],"right_children":[2,4,6,8,10,12,-1,14,-1,16,-1,-1,-1,-1,-1,-1,-1],"split_conditions":[3.5E0,5E-1,4.5E0,5E-1,2.5E0,5E-1,5.749134E-2,5E-1,2.1032117E-2,1.5E0,3.9123382E-2,2.2254419E-2,5.2480668E-2,-1.1897059E-2,7.0103705E-2,2.115122E-2,2.4988545E-2],"split_indices":[8,7,8,10,7,7,0,13,0,7,0,0,0,0,0,0,0],"split_type":[0,0,0,0,0,0,0,0,0,0,0,0,0,0,0,0,0],"sum_hessian":[1.2491295E4,1.18811E4,6.101947E2,9.848647E3,2.0324528E3,1.0873932E2,5.014554E2,9.260464E3,5.8818335E2,1.9659087E3,6.654402E1,6.1620052E1,4.7119263E1,9.186582E3,7.388228E1,1.7338822E3,2.320265E2],"tree_param":{"num_deleted":"0","num_feature":"14","num_nodes":"17","size_leaf_vector":"0"}},{"base_weights":[-2.5354486E-2,1.11110926E-1,-8.871102E-1,3.392885E-1,-1.0591767E0,-2.8647822E-1,-1.0342252E0,1.8755995E-1,9.9884695E-1,-5.350398E-1,-1.1556947E0,-4.8192897E-1,5.3488153E-1,1.5179393E0,-1.046846E0,3.760221E-1,-2.245118E-1,1.1934404E0,3.085771E-1,-7.444752E-1,-3.4875304E-1,-9.416662E-1,-1.2126913E0,-6.097952E-1,-1.9843371E-1,1.1967162E0,-1.3381453E-1,-1.4807358E0,-9.974785E-1,6.080797E-1,2.7644318E-1,-4.094123E-1,-2.2061367E-2,1.1548009E0,1.3116697E0,3.8767138E-1,-4.9186122E-1,-6.202594E-1,-9.884547E-1,-1.24521494E-1,-4.5864376E-1,-4.2213172E-1,-8.159453E-1,-2.4904309E-1,2.5734758E-1,-3.611141E-4,-2.6638103E-1,-1.002324E0,9.018829E-2],"categories":[],"categories_nodes":[],"categories_segments":[],"categories_sizes":[],"default_left":[1,1,1,1,1,1,1,1,1,1,1,1,1,0,1,1,1,1,1,1,1,0,0,1,1,0,1,0,1,0,0,0,0,0,0,0,0,0,0,0,0,0,0,0,