{"learner":{"attributes":{"best_iteration":"499","best_ntree_limit":"500","scikit_learn":"{\"use_label_encoder\": false, \"n_estimators\": 500, \"objective\": \"binary:logistic\", \"max_depth\": 5, \"max_leaves\": null, \"max_bin\": null, \"grow_policy\": null, \"learning_rate\": 0.05, \"verbosity\": null, \"booster\": null, \"tree_method\": null, \"gamma\": null, \"min_child_weight\": 5, \"max_delta_step\": null, \"subsample\": 0.8, \"sampling_method\": null, \"colsample_bytree\": 0.4, \"colsample_bylevel\": 0.7, \"colsample_bynode\": null, \"reg_alpha\": 0.1, \"reg_lambda\": 2.0, \"scale_pos_weight\": null, \"base_score\": null, \"missing\": NaN, \"num_parallel_tree\": null, \"random_state\": 42, \"n_jobs\": null, \"monotone_constraints\": null, \"interaction_constraints\": null, \"importance_type\": null, \"gpu_id\": null, \"validate_parameters\": null, \"predictor\": null, \"enable_categorical\": false, \"max_cat_to_onehot\": null, \"eval_metric\": \"auc\", \"early_stopping_rounds\": null, \"callbacks\": null, \"classes_\": [0, 1], \"n_classes_\": 2, \"_estimator_type\": \"classifier\"}"},"feature_names":["HTTP","URL Length","Popular tld in URL","IP","Non-latin characters","Entropy","@ in url","Suspicious characters","Digits","Subdomains","Sus domains","Number of phishing words","Levenshtein Distance","URL is shortened"],"feature_types":["int","int","int","int","int","float","int","int","int","int","int","int","int","int"],"gradient_booster":{"model":{"gbtree_model_param":{"num_parallel_tree":"1","num_trees":"500","size_leaf_vector":"0"},"tree_info":[0,0,0,0,0,0,0,0,0,0,0,0,0,0,0,0,0,0,0,0,0,0,0,0,0,0,0,0,0,0,0,0,0,0,0,0,0,0,0,0,0,0,0,0,0,0,0,0,0,0,0,0,0,0,0,0,0,0,0,0,0,0,0,0,0,0,0,0,0,0,0,0,0,0,0,0,0,0,0,0,0,0,0,0,0,0,0,0,0,0,0,0,0,0,0,0,0,0,0,0,0,0,0,0,0,0,0,0,0,0,0,0,0,0,0,0,0,0,0,0,0,0,0,0,0,0,0,0,0,0,0,0,0,0,0,0,0,0,0,0,0,0,0,0,0,0,0,0,0,0,0,0,0,0,0,0,0,0,0,0,0,0,0,0,0,0,0,0,0,0,0,0,0,0,0,0,0,0,0,0,0,0,0,0,0,0,0,0,0,0,0,0,0,0,0,0,0,0,0,0,0,0,0,0,0,0,0,0,0,0,0,0,0,0,0,0,0,0,0,0,0,0,0,0,0,0,0,0,0,0,0,0,0,0,0,0,0,0,0,0,0,0,0,0,0,0,0,0,0,0,0,0,0,0,0,0,0,0,0,0,0,0,0,0,0,0,0,0,0,0,0,0,0,0,0,0,0,0,0,0,0,0,0,0,0,0,0,0,0,0,0,0,0,0,0,0,0,0,0,0,0,0,0,0,0,0,0,0,0,0,0,0,0,0,0,0,0,0,0,0,0,0,0,0,0,0,0,0,0,0,0,0,0,0,0,0,0,0,0,0,0,0,0,0,0,0,0,0,0,0,0,0,0,0,0,0,0,0,0,0,0,0,0,0,0,0,0,0,0,0,0,0,0,0,0,0,0,0,0,0,0,0,0,0,0,0,0,0,0,0,0,0,0,0,0,0,0,0,0,0,0,0,0,0,0,0,0,0,0,0,0,0,0,0,0,0,0,0,0,0,0,0,0,0,0,0,0,0,0,0,0,0,0,0,0,0,0,0,0,0,0,0,0,0,0,0,0,0,0,0,0,0,0,0,0,0,0,0,0,0,0,0,0,0,0,0,0,0,0,0,0,0,0,0,0,0,0,0,0,0,0,0,0,0,0,0,0,0,0,0,0,0,0,0,0,0,0,0,0,0],"trees":[{"base_weights":[-1.20539755E-1,-3.9277226E-1,1.3975937E0,-8.091556E-1,-1.209744E-2,-1.2729651E0,1.8233325E0,-6.121819E-2,1.1177539E0,-1.4938712E0,1.8273684E0,1.6595228E0,1.9941515E0,-1.08347E-1,1.163214E0,1.1954743E0,-2.8E-1,-1.5485463E0,-1.034568E0,1.3740307E0,1.9370967E0,-1.3490789E-1,6.567332E-2,9.7754836E-1,1.6676692E0,-1.5772563E0,-2.742857E-1,-1.1795621E0,-1.6969697E-1,1.2443832E0,1.6020645E0],"categories":[],"categories_nodes":[],"categories_segments":[],"categories_sizes":[],"default_left":[1,1,1,0,1,1,1,1,1,1,0,1,0,1,1,0,0,1,1,1,0,0,0,0,0,0,0,0,0,0,0],"id":0,"left_children":[1,3,5,-1,7,9,11,13,15,17,-1,19,-1,21,23,-1,-1,25,27,29,-1,-1,-1,-1,-1,-1,-1,-1,-1,-1,-1],"loss_changes":[6.777326E3,2.2038936E3,2.839708E3,0E0,4.03288E2,2.41026E2,5.321875E1,4.0208347E2,3.3649963E1,4.630005E0,0E0,8.234717E1,0E0,3.1034546E1,2.066269E1,0E0,0E0,9.330322E0,4.5434875E0,1.212146E1,0E0,0E0,0E0,0E0,0E0,0E0,0E0,0E0,0E0,0E0,0E0],"parents":[2147483647,0,0,1,1,2,2,4,4,5,5,6,6,7,7,8,8,9,9,11,11,13,13,14,14,17,17,18,18,19,19],"right_children":[2,4,6,-1,8,10,12,14,16,18,-1,20,-1,22,24,-1,-1,26,28,30,-1,-1,-1,-1,-1,-1,-1,-1,-1,-1,-1],"split_conditions":[5E-1,5E-1,5E-1,-4.045778E-2,1.5E0,7.5E0,4.5E0,1.5E0,5E-1,5E-1,9.136842E-2,5E-1,9.970757E-2,5E-1,2.5E0,5.9773713E-2,-1.4E-2,4.5E0,3.5E0,2.5E0,9.6854836E-2,-6.7453943E-3,3.2836662E-3,4.8877418E-2,8.338346E-2,-7.8862816E-2,-1.3714286E-2,-5.8978107E-2,-8.484849E-3,6.221916E-2,8.0103226E-2],"split_indices":[8,9,9,0,9,8,8,7,7,7,0,7,0,7,7,0,0,8,8,8,0,0,0,0,0,0,0,0,0,0,0],"split_type":[0,0,0,0,0,0,0,0,0,0,0,0,0,0,0,0,0,0,0,0,0,0,0,0,0,0,0,0,0,0,0],"sum_hessian":[1.639425E4,1.390275E4,2.4915E3,6.63875E3,7.264E3,3.42E2,2.1495E3,6.96325E3,3.0075E2,3.2025E2,2.175E1,1.1085E3,1.041E3,6.707E3,2.5625E2,2.8525E2,1.55E1,2.8175E2,3.85E1,5.525E2,5.56E2,5.81975E3,8.8725E2,1.9175E2,6.45E1,2.75E2,6.75E0,3.225E1,6.25E0,3.6075E2,1.9175E2],"tree_param":{"num_deleted":"0","num_feature":"14","num_nodes":"31","size_leaf_vector":"0"}},{"base_weights":[-1.1197349E-1,-1.8070462E-1,1.4776264E0,2.8420958E-1,-4.9733272E-1,1.3865939E0,1.872276E0,2.7763024E-1,1.5663817E0,-5.114922E-1,1.9457185E0,3.5610378E-2,1.8383533E0,-7.399734E-1,1.0970664E0],"categories":[],"categories_nodes":[],"categories_segments":[],"categories_sizes":[],"default_left":[1,1,1,1,1,0,0,1,0,1,0,0,0,0,0],"id":1,"left_children":[1,3,5,7,9,-1,-1,11,-1,13,-1,-1,-1,-1,-1],"loss_changes":[1.7906775E3,2.3127295E3,1.8886353E1,5.26427E1,3.251316E2,0E0,0E0,2.3927026E3,0E0,3.4171252E3,0E0,0E0,0E0,0E0,0E0],"parents":[2147483647,0,0,1,1,2,2,3,3,4,4,7,7,9,9],"right_children":[2,4,6,8,10,-1,-1,12,-1,14,-1,-1,-1,-1,-1],"split_conditions":[5E-1,5E-1,1.5E0,5E-1,5E-1,6.93297E-2,9.3613796E-2,3.5E0,7.831909E-2,5E-1,9.728593E-2,1.7805189E-3,9.1917664E-2,-3.699867E-2,5.485332E-2],"split_indices":[11,2,11,13,13,0,0,8,0,8,0,0,0,0,0],"split_type":[0,0,0,0,0,0,0,0,0,0,0,0,0,0,0],"sum_hessian":[1.6384188E4,1.5706888E4,6.77299E2,6.3633237E3,9.343564E3,5.578922E2,1.1940682E2,6.333336E3,2.9987827E1,9.291336E3,5.2228626E1,5.4849062E3,8.484297E2,8.1367285E3,1.1546068E3],"tree_param":{"num_deleted":"0","num_feature":"14","num_nodes":"15","size_leaf_vector":"0"}},{"base_weights":[-1.07936665E-1,-3.5448357E-1,1.2661936E0,-4.1804168E-1,1.2928838E0,7.780114E-1,1.7380034E0,7.85605E-3,-6.884195E-1,1.2004311E0,1.7557576E0,7.1509355E-1,1.687051E0,1.336376E0,1.807119E0,9.446808E-4,1.8113278E0,-6.968278E-1,1.897039E0,7.015204E-1,1.6453635E0,4.6740803E-1,7.9187286E-1],"categories":[],"categories_nodes":[],"categories_segments":[],"categories_sizes":[],"default_left":[1,1,1,1,1,1,1,1,1,0,0,1,0,0,0,0,0,0,0,1,0,0,0],"id":2,"left_children":[1,3,5,7,9,11,13,15,17,-1,-1,19,-1,-1,-1,-1,-1,-1,-1,21,-1,-1,-1],"loss_changes":[5.540522E3,1.4527827E3,5.700742E2,1.5376284E3,1.7550049E1,6.749341E1,2.9927002E1,6.4465515E1,1.8007861E2,0E0,0E0,1.1985474E1,0E0,0E0,0E0,0E0,0E0,0E0,0E0,2.319867E1,0E0,0E0,0E0],"parents":[2147483647,0,0,1,1,2,2,3,3,4,4,5,5,6,6,7,7,8,8,11,11,19,19],"right_children":[2,4,6,8,10,12,14,16,18,-1,-1,20,-1,-1,-1,-1,-1,-1,-1,22,-1,-1,-1],"split_conditions":[5E-1,5E-1,3.5E0,5E-1,1.5E0,5E-1,4.5E0,5E-1,5E-1,6.0021557E-2,8.778788E-2,5E-1,8.435255E-2,6.6818796E-2,9.0355955E-2,4.7234043E-5,9.056639E-2,-3.4841392E-2,9.4851956E-2,5E-1,8.226817E-2,2.3370402E-2,3.9593644E-2],"split_indices":[8,11,8,2,11,11,8,6,6,0,0,6,0,0,0,0,0,0,0,2,0,0,0],"split_type":[0,0,0,0,0,0,0,0,0,0,0,0,0,0,0,0,0,0,0,0,0,0,0],"sum_hessian":[1.6349591E4,1.3863715E4,2.4858757E3,1.3350196E4,5.135189E2,1.2244479E3,1.2614279E3,5.1847607E3,8.1654355E3,4.3419705E2,7.9321884E1,1.1486304E3,7.581743E1,1.9138977E2,1.0700381E3,5.167016E3,1.774484E1,8.140461E3,2.4974419E1,1.1356759E3,1.2954492E1,3.1999362E2,8.156823E2],"tree_param":{"num_deleted":"0","num_feature":"14","num_nodes":"23","size_leaf_vector":"0"}},{"base_weights":[-1.0244662E-1,6.6371936E-1,-9.8573196E-1,9.0909964E-1,-5.0032896E-1,-8.128947E-1,-1.1827803E0,1.7572614E0,7.859441E-1,-4.6978173E-1,-1.3902067E0,-1.1330389E0,-3.6068183E-1,-1.3681483E0,-8.709368E-1,-8.943161E-1,1.7975895E0,1.2942675E0,4.4106475E-1,-1.0017692E0,-1.8606152E-1,-1.5263528E0,-1.5410496E-1,-8.288267E-1,-1.3462335E0,-1.3472557E0,1.8065864E-1,-1.4379003E0,3.3290863E-1,-3.930504E-2,-1.252381E0,-5.3458995E-1,1.5125029E0,1.5869702E-1,1.5846701E0,-1.0444534E0,5.365751E-1,-1.16201445E-1,-1.0570349E0,-9.513924E-1,7.8821623E-1,-1.4222234E0,-8.434745E-2,4.7220752E-1,-1.0840882E0,-9.425285E-1,-1.4425197E0,-7.3403394E-1,7.2187907E-1,-8.180109E-1,1.7012288E-1,-1.3421797E0,-7.6543146E-1],"categories":[],"categories_nodes":[],"categories_segments":[],"categories_sizes":[],"default_left":[1,1,1,1,1,1,1,1,1,1,1,1,1,1,1,0,0,1,1,1,1,0,0,1,1,0,1,1,1,1,1,0,0,0,0,0,0,0,0,0,0,0,0,0,0,0,0,0,0,0,0,0,0],"id":3,"left_children":[1,3,5,7,9,11,13,15,17,19,21,23,25,27,29,-1,-1,31,33,35,37,-1,-1,39,41,-1,43,45,47,49,51,-1,-1,-1,-1,-1,-1,-1,-1,-1,-1,-1,-1,-1,-1,-1,-1,-1,-1,-1,-1,-1,-1],"loss_changes":[1.1045621E4,2.4975112E3,2.5607764E2,7.511011E2,3.990564E1,5.8470776E2,2.0190332E2,1.01005615E2,1.1045127E3,2.222142E2,7.6772995E0,1.5110132E2,8.9780115E2,2.6390674E2,4.1999017E2,0E0,0E0,1.01890967E3,1.2138947E3,3.483264E1,5.8345764E1,0E0,0E0,1.9593048E2,1.3276465E2,0E0,4.0156448E2,1.9125977E0,3.7921394E1,6.862357E1,3.7438965E1,0E0,0E0,0E0,0E0,0E0,0E0,0E0,0E0,0E0,0E0,0E0,0E0,0E0,0E0,0E0,0E0,0E0,0E0,0E0,0E0,0E0,0E0],"parents":[2147483647,0,0,1,1,2,2,3,3,4,4,5,5,6,6,7,7,8,8,9,9,10,10,11,11,12,12,13,13,14,14,17,17,18,18,19,19,20,20,23,23,24,24,26,26,27,27,28,28,29,29,30,30],"right_children":[2,4,6,8,10,12,14,16,18,20,22,24,26,28,30,-1,-1,32,34,36,38,-1,-1,40,42,-1,44,46,48,50,52,-1,-1,-1,-1,-1,-1,-1,-1,-1,-1,-1,-1,-1,-1,-1,-1,-1,-1,-1,-1,-1,-1],"split_conditions":[7.5E0,4.5E0,7.5E0,2.5E0,5E-1,6.5E0,1.05E1,3.5E0,3.5E0,6.5E0,5.5E0,5.5E0,1.05E1,5E-1,1.65E1,-4.4715803E-2,8.9879476E-2,3.5E0,5E-1,5.5E0,5.5E0,-7.631764E-2,-7.7052484E-3,1.15E1,5E-1,-6.7362785E-2,1.15E1,1.05E1,8.5E0,1.55E1,2.25E1,-2.6729498E-2,7.5625144E-2,7.934852E-3,7.9233505E-2,-5.222267E-2,2.6828755E-2,-5.810072E-3,-5.2851744E-2,-4.756962E-2,3.941081E-2,-7.111117E-2,-4.2173727E-3,2.3610376E-2,-5.420441E-2,-4.7126424E-2,-7.2125986E-2,-3.6701698E-2,3.6093954E-2,-4.0900547E-2,8.506144E-3,-6.710898E-2,-3.8271572E-2],"split_indices":[1,12,12,12,10,12,12,1,1,1,12,12,1,10,1,0,0,12,10,12,12,0,0,1,10,0,1,1,12,1,1,0,0,0,0,0,0,0,0,0,0,0,0,0,0,0,0,0,0,0,0,0,0],"split_type":[0,0,0,0,0,0,0,0,0,0,0,0,0,0,0,0,0,0,0,0,0,0,0,0,0,0,0,0,0,0,0,0,0,0,0,0,0,0,0,0,0,0,0,0,0,0,0,0,0,0,0,0,0],"sum_hessian":[1.6317752E4,8.738403E3,7.579349E3,7.2174873E3,1.5209155E3,4.0434595E3,3.5358896E3,9.1165424E2,6.305833E3,1.4735022E3,4.741332E1,2.3655417E3,1.6779178E3,2.213205E3,1.3226844E3,1.2986132E1,8.986681E2,2.5465845E3,3.7592485E3,5.106318E2,9.628704E2,4.2213356E1,5.199961E0,9.789295E2,1.386612E3,5.9349725E2,1.0844205E3,2.1263809E3,8.682419E1,4.1668597E2,9.059985E2,2.7112698E2,2.2754575E3,3.016748E3,7.425006E2,4.975339E2,1.3097898E1,8.935788E2,6.9291595E1,9.1078094E2,6.814859E1,1.3075394E3,7.907265E1,8.823532E2,2.0206732E2,2.36341E1,2.1027468E3,2.2653767E1,6.417042E1,8.7183044E1,3.2950293E2,7.61797E2,1.4420146E2],"tree_param":{"num_deleted":"0","num_feature":"14","num_nodes":"53","size_leaf_vector":"0"}},{"base_weights":[-9.094746E-2,6.344685E-1,-9.278399E-1,1.2308244E0,3.8476095E-1,-1.176274E0,9.854001E-1,1.1543218E0,1.6795897E0,2.2495261E-1,1.599756E0,-1.1950102E0,-6.009882E-1,7.703726E-1,1.694612E0,5.663969E-1,1.2228075E0,3.0959955E-1,-1.4310018E-2,1.2777106E0,1.7251161E0,-1.0450076E0,-1.3592346E0,-1.2197136E0,3.5947502E-1,1.4336921E-2,1.1040347E0,1.7296612E0,8.571648E-1,1.6778208E0,2.5598872E-1,1.2407522E0,9.3055445E-1,2.3316526E-1,1.7110379E0,-1.6936326E-1,1.1560922E0,8.6462206E-1,1.3714402E0,-1.2994196E0,-3.8234156E-1,-1.4230762E0,3.1405106E-1,-1.2692171E0,-4.6823725E-2,9.318281E-1,-4.466811E-1,2.0848732E-1,-7.571355E-1,1.2242831E0,-9.0319026E-1],"categories":[],"categories_nodes":[],"categories_segments":[],"categories_sizes":[],"default_left":[1,1,1,1,1,1,1,1,0,1,1,1,1,1,1,1,1,1,1,1,0,1,1,1,1,1,1,0,0,0,0,0,0,0,0,0,0,0,0,0,0,0,0,0,0,0,0,0,0,0,0],"id":4,"left_children":[1,3,5,7,9,11,13,15,-1,17,19,21,23,25,27,29,31,33,35,37,-1,39,41,43,45,47,49,-1,-1,-1,-1,-1,-1,-1,-1,-1,-1,-1,-1,-1,-1,-1,-1,-1,-1,-1,-1,-1,-1,-1,-1],"loss_changes":[9.895835E3,1.2991763E3,3.5997798E3,8.427954E1,1.1947136E3,7.059863E1,1.2995056E2,8.7318115E1,0E0,1.1030124E2,2.417212E1,1.567002E2,1.2903165E2,1.6938452E2,2.6709595E0,7.9742256E1,7.8327637E0,4.2983096E2,2.5877805E2,5.4729614E0,0E0,5.718496E2,3.3102393E2,7.3899994E0,4.052384E1,3.1399448E1,1.14754395E2,0E0,0E0,0E0,0E0,0E0,0E0,0E0,0E0,0E0,0E0,0E0,0E0,0E0,0E0,0E0,0E0,0E0,0E0,0E0,0E0,0E0,0E0,0E0,0E0],"parents":[2147483647,0,0,1,1,2,2,3,3,4,4,5,5,6,6,7,7,9,9,10,10,11,11,12,12,13,13,14,14,15,15,16,16,17,17,18,18,19,19,21,21,22,22,23,23,24,24,25,25,26,26],"right_children":[2,4,6,8,10,12,14,16,-1,18,20,22,24,26,28,30,32,34,36,38,-1,40,42,44,46,48,50,-1,-1,-1,-1,-1,-1,-1,-1,-1,-1,-1,-1,-1,-1,-1,-1,-1,-1,-1,-1,-1,-1,-1,-1],"split_conditions":[7.5E0,3.5E0,5E-1,3.5E0,2.5E0,5E-1,4.5E0,2.5E0,8.397949E-2,6.5E0,4.5E0,1.15E1,1.25E1,1.05E1,1.75E1,1.5E0,5E-1,5E-1,5E-1,5.5E0,8.625581E-2,1.05E1,5E-1,5E-1,1.35E1,9.5E0,1.65E1,8.648306E-2,4.285824E-2,8.389104E-2,1.2799436E-2,6.2037613E-2,4.6527725E-2,1.1658263E-2,8.5551895E-2,-8.468163E-3,5.780461E-2,4.3231104E-2,6.857201E-2,-6.4970985E-2,-1.9117078E-2,-7.115381E-2,1.5702553E-2,-6.346086E-2,-2.3411864E-3,4.6591405E-2,-2.2334056E-2,1.0424366E-2,-3.7856776E-2,6.1214156E-2,-4.5159515E-2],"split_indices":[1,1,8,8,8,10,8,1,0,1,8,1,1,1,1,1,8,11,8,1,0,1,11,11,1,1,1,0,0,0,0,0,0,0,0,0,0,0,0,0,0,0,0,0,0,0,0,0,0,0,0],"split_type":[0,0,0,0,0,0,0,0,0,0,0,0,0,0,0,0,0,0,0,0,0,0,0,0,0,0,0,0,0,0,0,0,0,0,0,0,0,0,0,0,0,0,0,0,0,0,0,0,0,0,0],"sum_hessian":[1.6296316E4,8.729755E3,7.5665615E3,2.5740664E3,6.155688E3,6.69769E3,8.688718E2,2.2054614E3,3.6860507E2,5.442313E3,7.1337506E2,6.4841816E3,2.1350851E2,6.700357E2,1.9883607E2,2.321907E2,1.9732706E3,4.0199539E3,1.4223594E3,2.0637852E2,5.0699658E2,3.3968418E3,3.0873396E3,1.2959096E2,8.391754E1,2.0589331E2,4.6414243E2,1.8868878E2,1.0147293E1,4.8697075E1,1.8349362E2,1.8526809E3,1.20589745E2,3.814325E3,2.0562871E2,1.2575562E3,1.6480324E2,4.2146248E1,1.6423227E2,2.4530059E3,9.438359E2,2.9742217E3,1.1311788E2,1.2410348E2,5.487486E0,4.896543E1,3.4952114E1,1.6576553E2,4.0127777E1,4.386913E2,2.5451092E1],"tree_param":{"num_deleted":"0","num_feature":"14","num_nodes":"51","size_leaf_vector":"0"}},{"base_weights":[-9.604065E-2,7.824628E-1,-8.295485E-1,6.603931E-1,1.6161633E0,-1.0912534E0,9.1053265E-1,-3.0996798E-2,1.2232075E0,-1.6026195E0,1.6575824E0,-1.1018201E0,1.887193E0,-1.2195258E0,1.5082622E0,1.3281039E0,-2.650488E-1,1.8856213E0,1.1120864E0,-9.672933E-1,-1.2970238E0,-1.4721594E0,1.5434368E0,1.4350289E0,1.6982433E0,-2.2859737E-1,-1.3794292E0,1.0860642E0,1.3893538E0,-1.3950622E0,-5.0872684E-1,-1.0316283E0,-1.5086945E0,-1.5313497E0,-9.302614E-1,1.4044831E0,1.7094477E0],"categories":[],"categories_nodes":[],"categories_segments":[],"categories_sizes":[],"default_left":[1,1,1,1,1,1,1,1,1,0,0,1,0,1,1,0,1,0,1,1,1,1,0,1,0,0,0,0,0,0,0,0,0,0,0,0,0],"id":5,"left_children":[1,3,5,7,9,11,13,15,17,-1,-1,19,-1,21,23,-1,25,-1,27,29,31,33,-1,35,-1,-1,-1,-1,-1,-1,-1,-1,-1,-1,-1,-1,-1],"loss_changes":[1.0479566E4,7.507368E2,4.0379805E3,2.5133186E3,1.3112354E2,2.465752E2,1.4802546E3,9.2309863E2,2.575791E2,0E0,0E0,1.9891699E2,0E0,1.8266626E2,7.425049E0,0E0,9.977396E1,0E0,1.8769043E1,8.917544E2,1.7228662E2,4.4382324E0,0E0,4.8291016E-1,0E0,0E0,0E0,0E0,0E0,0E0,0E0,0E0,0E0,0E0,0E0,0E0,0E0],"parents":[2147483647,0,0,1,1,2,2,3,3,4,4,5,5,6,6,7,7,8,8,11,11,13,13,14,14,16,16,18,18,19,19,20,20,21,21,23,23],"right_children":[2,4,6,8,10,12,14,16,18,-1,-1,20,-1,22,24,-1,26,-1,28,30,32,34,-1,36,-1,-1,-1,-1,-1,-1,-1,-1,-1,-1,-1,-1,-1],"split_conditions":[4.5E0,2.5E0,5E-1,5E-1,5E-1,5E-1,5E-1,2.5E0,2.5E0,-8.013098E-2,8.287912E-2,7.5E0,9.435965E-2,7.5E0,4.5E0,6.64052E-2,5E-1,9.428107E-2,5E-1,5E-1,5E-1,3.5E0,7.717184E-2,1.5E0,8.4912166E-2,-1.1429869E-2,-6.897146E-2,5.430321E-2,6.9467686E-2,-6.975311E-2,-2.5436342E-2,-5.1581413E-2,-7.543473E-2,-7.6567486E-2,-4.651307E-2,7.022416E-2,8.547239E-2],"split_indices":[12,8,8,9,9,6,9,12,12,0,0,12,0,8,8,0,8,0,8,9,9,8,0,9,0,0,0,0,0,0,0,0,0,0,0,0,0],"split_type":[0,0,0,0,0,0,0,0,0,0,0,0,0,0,0,0,0,0,0,0,0,0,0,0,0,0,0,0,0,0,0,0,0,0,0,0,0],"sum_hessian":[1.625877E4,7.3980483E3,8.860722E3,6.4564106E3,9.4163745E2,7.703007E3,1.1577145E3,2.8980322E3,3.5583784E3,1.0974609E1,9.3066284E2,7.6770645E3,2.5942488E1,2.5319287E2,9.045216E2,4.2431723E2,2.473715E3,5.0645648E2,3.0519219E3,4.552251E3,3.1248132E3,2.3287071E2,2.0322159E1,6.655869E2,2.3893463E2,2.3977834E3,7.593157E1,2.799387E3,2.5253497E2,2.3529883E3,2.199263E3,1.3918783E3,1.732935E3,2.0648094E2,2.6389767E1,6.102589E2,5.5328026E1],"tree_param":{"num_deleted":"0","num_feature":"14","num_nodes":"37","size_leaf_vector":"0"}},{"base_weights":[-8.9231566E-2,-3.7147912E-1,9.32362E-1,-1.831941E-1,-1.4306101E0,1.0173285E0,-2.8869826E-1,-2.3834021E-1,1.2842273E0,-1.4905059E0,3.3572447E-1,9.73983E-1,1.6437092E0,-3.891287E-1,9.401174E-1,-2.4674508E-1,1.8055257E0,1.1977828E0,1.642463E0,-1.8813635E-1,1.4631414E0,9.172829E-1,1.2000473E0,-6.067814E-1,6.638646E-1,-8.070104E-2,-3.532042E-1,4.047292E-1,-5.459102E-1,9.628124E-1,8.439141E-1,3.3518678E-1,-1.065129E0,1.1749724E0,5.5233587E-2],"categories":[],"categories_nodes":[],"categories_segments":[],"categories_sizes":[],"default_left":[1,1,1,1,1,1,1,1,1,0,1,1,0,1,0,1,0,0,0,1,0,1,0,1,1,0,0,0,0,0,0,0,0,0,0],"id":6,"left_children":[1,3,5,7,9,11,13,15,17,-1,19,21,-1,23,-1,25,-1,-1,-1,27,-1,29,-1,31,33,-1,-1,-1,-1,-1,-1,-1,-1,-1,-1],"loss_changes":[4.663468E3,2.5263528E3,3.638999E2,8.713716E2,2.0343506E2,8.542456E1,2.896905E1,1.7893848E2,7.859558E0,0E0,3.8652943E1,3.689966E1,0E0,4.9713833E1,0E0,1.8255481E2,0E0,0E0,0E0,1.0130675E1,0E0,6.414551E0,0E0,7.763371E1,1.1392113E1,0E0,0E0,0E0,0E0,0E0,0E0,0E0,0E0,0E0,0E0],"parents":[2147483647,0,0,1,1,2,2,3,3,4,4,5,5,6,6,7,7,8,8,10,10,11,11,13,13,15,15,19,19,21,21,23,23,24,24],"right_children":[2,4,6,8,10,12,14,16,18,-1,20,22,-1,24,-1,26,-1,-1,-1,28,-1,30,-1,32,34,-1,-1,-1,-1,-1,-1,-1,-1,-1,-1],"split_conditions":[5E-1,5E-1,5E-1,5E-1,5E-1,5E-1,5E-1,5E-1,1.5E0,-7.45253E-2,1.5E0,1.5E0,8.218546E-2,1.5E0,4.7005873E-2,5E-1,9.0276286E-2,5.9889138E-2,8.212315E-2,5E-1,7.315707E-2,5E-1,6.0002364E-2,5E-1,5E-1,-4.035052E-3,-1.766021E-2,2.023646E-2,-2.729551E-2,4.8140623E-2,4.2195704E-2,1.675934E-2,-5.3256452E-2,5.874862E-2,2.7616795E-3],"split_indices":[7,0,0,11,11,11,11,6,11,0,11,7,0,7,0,2,0,0,0,2,0,2,0,2,2,0,0,0,0,0,0,0,0,0,0],"split_type":[0,0,0,0,0,0,0,0,0,0,0,0,0,0,0,0,0,0,0,0,0,0,0,0,0,0,0,0,0,0,0,0,0,0,0],"sum_hessian":[1.6169167E4,1.2670039E4,3.4991284E3,1.0759694E4,1.9103442E3,3.2718733E3,2.2725516E2,1.0371668E4,3.880269E2,1.8480464E3,6.2297802E1,3.065042E3,2.0683133E2,2.1142365E2,1.5831503E1,1.0330991E4,4.0676052E1,3.1981888E2,6.820801E1,4.361117E1,1.8686628E1,2.458878E3,6.061641E2,1.759893E2,3.5434345E1,4.0377605E3,6.293231E3,1.6209116E1,2.7402056E1,1.5015016E3,9.573762E2,5.770884E1,1.18280464E2,1.8159376E1,1.727497E1],"tree_param":{"num_deleted":"0","num_feature":"14","num_nodes":"35","size_leaf_vector":"0"}},{"base_weights":[-8.0897965E-2,7.4687165E-1,-7.767522E-1,9.47515E-1,4.8530382E-1,-8.552602E-1,1.014314E0,1.0111275E0,-1.1289399E0,1.4813302E-1,1.8026997E0,-1.1073581E0,-7.639946E-1,8.9539707E-1,1.6137433E0,1.4491454E0,9.6067435E-1,-3.92376E-1,-1.4673781E0,1.6643143E0,-2.3707221E-1,-7.776677E-1,-1.2398833E0,-5.681823E-1,-1.069508E0,1.2393343E0,2.9879254E-1,9.4160926E-1,1.5255458E0,-2.8703418E-1,1.5236572E0,2.0639731E-1,1.317994E0],"categories":[],"categories_nodes":[],"categories_segments":[],"categories_sizes":[],"default_left":[1,1,1,1,1,1,1,1,1,1,0,1,1,1,0,0,1,0,0,0,1,0,0,0,0,0,1,0,0,0,0,0,0],"id":7,"left_children":[1,3,5,7,9,11,13,15,17,19,-1,21,23,25,-1,-1,27,-1,-1,-1,29,-1,-1,-1,-1,-1,31,-1,-1,-1,-1,-1,-1],"loss_changes":[9.285434E3,3.8532715E2,1.2332051E3,5.5229834E2,1.4207922E3,1.911875E2,2.3136017E1,8.628711E1,2.9741302E1,1.4904441E3,0E0,9.51145E1,3.6759155E2,6.317517E1,0E0,0E0,3.597412E1,0E0,0E0,0E0,1.7980176E2,0E0,0E0,0E0,0E0,0E0,1.0313874E1,0E0,0E0,0E0,0E0,0E0,0E0],"parents":[2147483647,0,0,1,1,2,2,3,3,4,4,5,5,6,6,7,7,8,8,9,9,11,11,12,12,13,13,16,16,20,20,26,26],"right_children":[2,4,6,8,10,12,14,16,18,20,-1,22,24,26,-1,-1,28,-1,-1,-1,30,-1,-1,-1,-1,-1,32,-1,-1,-1,-1,-1,-1],"split_conditions":[4.5E0,5E-1,5E-1,5E-1,5E-1,5E-1,1.5E0,2.5E0,3.5E0,2.5E0,9.0134986E-2,5.5E0,7.5E0,7.5E0,8.0687165E-2,7.245728E-2,5E-1,-1.96188E-2,-7.336891E-2,8.321571E-2,5E-1,-3.8883384E-2,-6.1994165E-2,-2.8409114E-2,-5.34754E-2,6.1966717E-2,5E-1,4.7080465E-2,7.627729E-2,-1.435171E-2,7.6182865E-2,1.0319865E-2,6.58997E-2],"split_indices":[12,2,11,10,10,2,11,12,12,12,0,12,12,12,0,0,11,0,0,0,11,0,0,0,0,0,3,0,0,0,0,0,0],"split_type":[0,0,0,0,0,0,0,0,0,0,0,0,0,0,0,0,0,0,0,0,0,0,0,0,0,0,0,0,0,0,0,0,0],"sum_hessian":[1.611633E4,7.3603564E3,8.755974E3,4.1620815E3,3.1982744E3,8.389344E3,3.6663028E2,4.0394082E3,1.2267356E2,2.548356E3,6.4991864E2,2.2236687E3,6.165675E3,3.1023834E2,5.6391953E1,4.1129034E2,3.628118E3,4.007346E1,8.2600105E1,5.1498303E2,2.0333728E3,6.417193E2,1.5819495E3,3.7611152E3,2.4045593E3,1.9531735E2,1.1492098E2,3.5149937E3,1.13124245E2,1.9789495E3,5.4423363E1,1.07663895E2,7.2570863E0],"tree_param":{"num_deleted":"0","num_feature":"14","num_nodes":"33","size_leaf_vector":"0"}},{"base_weights":[-8.268902E-2,5.4247373E-1,-8.088887E-1,6.517795E-1,-1.066974E0,-6.7706877E-1,-1.3046669E0,-2.8075266E-1,1.3525754E0,-1.5622896E0,1.0417447E0,-1.1091104E0,8.377416E-1,-1.0375637E-1,-1.4856246E0,2.7219817E-1,-1.1513294E0,8.239801E-1,1.6073796E0,-3.3438277E-1,-1.678482E0,7.7144235E-1,1.3496745E0,-1.1973475E0,-2.57417E-1,3.5645568E-1,1.3610022E0,-3.0566037E-1,1.484907E0,-1.5748556E0,3.6316422E-1,5.360782E-1,-1.5013422E0,-1.3154887E0,-9.482016E-1,1.4916558E0,2.4263191E-1,1.4364973E0,1.6730659E0,4.1072825E-1,-1.5631899E0,-1.2434515E-1,-1.7800872E0,1.0765666E0,-3.8248432E-1,-9.600823E-1,-1.2520008E0,8.604853E-1,-1.1062845E0,1.6539282E0,-9.4637144E-1,1.7084144E0,-7.831557E-1,-1.5620936E-1,-5.0261265E-1,1.2638267E0,-6.977716E-1],"categories":[],"categories_nodes":[],"categories_segments":[],"categories_sizes":[],"default_left":[1,1,1,1,1,1,1,1,1,1,1,1,1,1,1,1,1,1,1,1,1,1,0,1,1,1,1,1,0,0,1,0,0,0,0,0,0,0,0,0,0,0,0,0,0,0,0,0,0,0,0,0,0,0,0,0,0],"id":8,"left_children":[1,3,5,7,9,11,13,15,17,19,21,23,25,27,29,31,33,35,37,39,41,43,-1,45,47,49,51,53,-1,-1,55,-1,-1,-1,-1,-1,-1,-1,-1,-1,-1,-1,-1,-1,-1,-1,-1,-1,-1,-1,-1,-1,-1,-1,-1,-1,-1],"loss_changes":[7.278782E3,1.5170596E3,4.8276123E2,5.274198E3,5.763418E2,3.8392917E3,3.3757324E2,1.6681211E3,6.176738E2,6.218225E1,6.488121E0,3.4216455E2,3.2682556E2,6.684111E1,2.2424072E2,9.936095E2,4.215857E1,5.82424E2,2.9752441E1,3.8985035E1,6.348755E1,2.238208E1,0E0,5.0983887E1,4.1095193E2,1.1546305E3,4.6694238E2,5.205366E0,0E0,0E0,6.278917E1,0E0,0E0,0E0,0E0,0E0,0E0,0E0,0E0,0E0,0E0,0E0,0E0,0E0,0E0,0E0,0E0,0E0,0E0,0E0,0E0,0E0,0E0,0E0,0E0,0E0,0E0],"parents":[2147483647,0,0,1,1,2,2,3,3,4,4,5,5,6,6,7,7,8,8,9,9,10,10,11,11,12,12,13,13,14,14,15,15,16,16,17,17,18,18,19,19,20,20,21,21,23,23,24,24,25,25,26,26,27,27,30,30],"right_children":[2,4,6,8,10,12,14,16,18,20,22,24,26,28,30,32,34,36,38,40,42,44,-1,46,48,50,52,54,-1,-1,56,-1,-1,-1,-1,-1,-1,-1,-1,-1,-1,-1,-1,-1,-1,-1,-1,-1,-1,-1,-1,-1,-1,-1,-1,-1,-1],"split_conditions":[7.5E0,5E-1,5E-1,5E-1,3.090425E0,3.5779104E0,5E-1,2.0640426E0,2.8761947E0,2.029407E0,3.6857922E0,3.4733524E0,3.8112493E0,5E-1,3.8240938E0,4.5E0,6.5E0,3.5E0,4.5E0,5E-1,5E-1,1.5E0,6.748372E-2,8.5E0,1.35E1,1.25E1,1.65E1,1.35E1,7.4245356E-2,-7.874278E-2,1.65E1,2.680391E-2,-7.506711E-2,-6.577443E-2,-4.7410082E-2,7.458279E-2,1.2131596E-2,7.182487E-2,8.365329E-2,2.0536413E-2,-7.8159496E-2,-6.2172576E-3,-8.900436E-2,5.382833E-2,-1.9124215E-2,-4.8004117E-2,-6.260004E-2,4.3024268E-2,-5.5314224E-2,8.269641E-2,-4.7318574E-2,8.542072E-2,-3.9157785E-2,-7.8104683E-3,-2.5130633E-2,6.319134E-2,-3.488858E-2],"split_indices":[1,0,0,9,5,5,9,5,5,5,5,5,5,3,5,1,1,1,1,9,9,9,0,1,1,1,1,1,0,0,1,0,0,0,0,0,0,0,0,0,0,0,0,0,0,0,0,0,0,0,0,0,0,0,0,0,0],"split_type":[0,0,0,0,0,0,0,0,0,0,0,0,0,0,0,0,0,0,0,0,0,0,0,0,0,0,0,0,0,0,0,0,0,0,0,0,0,0,0,0,0,0,0,0,0,0,0,0,0,0,0,0,0,0,0,0,0],"sum_hessian":[1.6028815E4,8.613816E3,7.4149995E3,8.0671855E3,5.46631E2,5.8614595E3,1.55354E3,3.4617607E3,4.605425E3,4.4311392E2,1.03517044E2,4.561164E3,1.3002955E3,2.0392279E2,1.3496173E3,2.1178552E3,1.3439055E3,1.5008164E3,3.1046082E3,3.905045E1,4.0406348E2,5.9032898E1,4.4484146E1,4.1321367E3,4.2902704E2,6.79165E2,6.211305E2,1.8241742E2,2.1505375E1,1.287812E3,6.1805294E1,1.8448214E3,2.730339E2,7.369165E2,6.06989E2,6.9700525E2,8.0381116E2,8.7515674E2,2.2294514E3,2.5087986E1,1.3962465E1,2.5128809E1,3.789347E2,4.6862217E1,1.2170683E1,7.809174E2,3.3512195E3,1.8510751E2,2.4391951E2,3.400502E2,3.391148E2,5.349131E2,8.621744E1,1.06043594E2,7.637382E1,3.327168E1,2.8533617E1],"tree_param":{"num_deleted":"0","num_feature":"14","num_nodes":"57","size_leaf_vector":"0"}},{"base_weights":[-7.576012E-2,-3.6106727E-1,1.1012099E0,1.7136237E-1,-5.664039E-1,6.7212254E-1,1.4168373E0,-6.9093704E-2,1.0307225E0,-1.0825213E0,-1.9059092E-1,-4.3265632E-1,7.6865655E-1,-1.04403265E-1,1.4402455E0,5.0737E-1,-1.3453295E0,-9.133664E-1,1.6969788E0,-1.2471293E0,-9.9504226E-1,-1.4001861E0,-7.631511E-2,-8.501076E-1,-7.681465E-2,6.13392E-1,9.445608E-1,7.7912337E-1,-8.2469684E-1,1.2949969E0,1.5358434E0,7.3140794E-1,-1.0402548E0,-1.5087945E0,-1.2378718E0,1.5531175E0,-1.7205364E0,1.7199076E0,2.4097895E-2,-1.064878E0,-1.3358227E0,-6.5284747E-1,-1.0356518E0,-1.6307911E0,-1.2768376E0,7.140802E-1,-1.9154425E-1,-5.8914214E-1,-9.7769326E-1,3.868899E-1,-1.8353873E-1,9.632769E-1,3.8774118E-1,1.174389E0,7.909979E-1,1.0896631E0,1.3840139E0],"categories":[],"categories_nodes":[],"categories_segments":[],"categories_sizes":[],"default_left":[1,1,1,1,1,1,1,1,1,1,1,1,1,1,1,1,1,1,1,1,1,1,1,1,1,1,1,0,0,1,0,0,0,0,0,0,0,0,0,0,0,0,0,0,0,0,0,0,0,0,0,0,0,0,0,0,0],"id":9,"left_children":[1,3,5,7,9,11,13,15,17,19,21,23,25,27,29,31,33,35,37,39,41,43,45,47,49,51,53,-1,-1,55,-1,-1,-1,-1,-1,-1,-1,-1,-1,-1,-1,-1,-1,-1,-1,-1,-1,-1,-1,-1,-1,-1,-1,-1,-1,-1,-1],"loss_changes":[5.348356E3,1.4017605E3,4.1875537E2,7.3780597E2,1.7940474E3,1.4158337E2,6.4125E1,2.054626E3,1.0142556E3,5.3421875E1,7.400314E2,1.5723093E1,3.188733E1,1.9684748E1,2.0200928E1,6.685318E2,1.1253418E1,4.04529E2,2.2070312E1,1.8645508E1,3.399121E1,8.690918E0,4.461478E2,3.2513428E-1,3.1048E0,5.057254E1,1.7919495E1,0E0,0E0,9.758301E0,0E0,0E0,0E0,0E0,0E0,0E0,0E0,0E0,0E0,0E0,0E0,0E0,0E0,0E0,0E0,0E0,0E0,0E0,0E0,0E0,0E0,0E0,0E0,0E0,0E0,0E0,0E0],"parents":[2147483647,0,0,1,1,2,2,3,3,4,4,5,5,6,6,7,7,8,8,9,9,10,10,11,11,12,12,13,13,14,14,15,15,16,16,17,17,18,18,19,19,20,20,21,21,22,22,23,23,24,24,25,25,26,26,29,29],"right_children":[2,4,6,8,10,12,14,16,18,20,22,24,26,28,30,32,34,36,38,40,42,44,46,48,50,52,54,-1,-1,56,-1,-1,-1,-1,-1,-1,-1,-1,-1,-1,-1,-1,-1,-1,-1,-1,-1,-1,-1,-1,-1,-1,-1,-1,-1,-1,-1],"split_conditions":[3.5902348E0,2.3531399E0,3.7965894E0,5E-1,5E-1,5E-1,5E-1,5E-1,2.3064017E0,2.7508144E0,2.6646078E0,3.6640153E0,3.6905951E0,3.8432388E0,3.944374E0,2.0526266E0,1.9874687E0,1.5243975E0,5E-1,5E-1,2.8073726E0,2.420655E0,2.8458953E0,3.6226966E0,3.6809084E0,3.6415253E0,3.7362618E0,3.895617E-2,-4.1234843E-2,5E-1,7.679217E-2,3.6570396E-2,-5.201274E-2,-7.543973E-2,-6.189359E-2,7.7655874E-2,-8.602682E-2,8.599538E-2,1.2048947E-3,-5.32439E-2,-6.679114E-2,-3.2642376E-2,-5.178259E-2,-8.153956E-2,-6.384188E-2,3.5704013E-2,-9.577213E-3,-2.9457107E-2,-4.8884664E-2,1.9344496E-2,-9.176937E-3,4.8163846E-2,1.9387059E-2,5.8719452E-2,3.95499E-2,5.4483157E-2,6.9200695E-2],"split_indices":[5,5,5,9,9,9,9,2,5,5,5,5,5,5,5,5,5,5,2,2,5,5,5,5,5,5,5,0,0,2,0,0,0,0,0,0,0,0,0,0,0,0,0,0,0,0,0,0,0,0,0,0,0,0,0,0,0],"split_type":[0,0,0,0,0,0,0,0,0,0,0,0,0,0,0,0,0,0,0,0,0,0,0,0,0,0,0,0,0,0,0,0,0,0,0,0,0,0,0,0,0,0,0,0,0,0,0,0,0,0,0,0,0,0,0,0,0],"sum_hessian":[1.5923156E4,1.2817549E4,3.1056072E3,3.5673633E3,9.250186E3,1.3190155E3,1.7865917E3,2.7887664E3,7.785971E2,3.8958494E3,5.3543364E3,1.0534942E2,1.2136661E3,2.6905012E1,1.7596866E3,1.9218234E3,8.66943E2,1.9849902E2,5.80098E2,1.3423373E3,2.553512E3,4.6016516E2,4.8941714E3,4.7070362E1,5.8279053E1,6.49722E2,5.6394415E2,1.1947628E1,1.4957383E1,7.1042523E2,1.0492614E3,1.6797745E3,2.4204883E2,3.33147E2,5.33796E2,4.8456726E1,1.500423E2,5.721402E2,7.957872E0,4.4829636E2,8.940409E2,2.7477176E2,2.2787402E3,1.5156169E2,3.086035E2,6.212878E2,4.2728833E3,1.940275E1,2.7667612E1,9.746086E0,4.853297E1,2.5200008E2,3.977219E2,2.2029524E2,3.436489E2,2.2319398E2,4.8723126E2],"tree_param":{"num_deleted":"0","num_feature":"14","num_nodes":"57","size_leaf_vector":"0"}},{"base_weights":[-7.2538234E-2,-1.2647721E-1,1.1850929E0,-3.7606245E-1,8.119997E-1,1.0570415E0,1.4421855E0,-4.3402117E-1,1.324651E0,4.7509497E-1,1.4309944E0,9.393051E-1,1.5330008E0,-4.9656466E-1,5.547349E-1,6.69918E-1,1.4961289E0,4.525574E-1,7.467956E-1,1.4601147E0,9.635959E-1,8.5263175E-1,1.3640937E0,4.4244504E-1,9.010109E-1,6.120139E-1,1.1508232E0,1.0885575E0,5.4286575E-1],"categories":[],"categories_nodes":[],"categories_segments":[],"categories_sizes":[],"default_left":[1,1,1,1,1,1,0,1,1,1,1,1,0,0,0,0,0,1,1,0,1,0,0,0,0,0,0,0,0],"id":10,"left_children":[1,3,5,7,9,11,-1,13,15,17,19,21,-1,-1,-1,-1,-1,23,25,-1,27,-1,-1,-1,-1,-1,-1,-1,-1],"loss_changes":[1.0709185E3,3.5460886E3,1.8075134E1,1.1798191E3,6.617136E2,2.159317E1,0E0,7.157837E2,4.2074585E1,1.1834534E1,1.2185791E1,1.0669373E1,0E0,0E0,0E0,0E0,0E0,7.730316E0,6.8324585E0,0E0,2.427826E0,0E0,0E0,0E0,0E0,0E0,0E0,0E0,0E0],"parents":[2147483647,0,0,1,1,2,2,3,3,4,4,5,5,7,7,8,8,9,9,10,10,11,11,17,17,18,18,20,20],"right_children":[2,4,6,8,10,12,-1,14,16,18,20,22,-1,-1,-1,-1,-1,24,26,-1,28,-1,-1,-1,-1,-1,-1,-1,-1],"split_conditions":[5E-1,5E-1,5E-1,3.5E0,5E-1,1.5E0,7.2109275E-2,5E-1,4.5E0,5E-1,5E-1,5E-1,7.6650046E-2,-2.4828233E-2,2.7736744E-2,3.34959E-2,7.4806444E-2,2.5E0,1.5E0,7.3005736E-2,2.5E0,4.263159E-2,6.8204686E-2,2.2122253E-2,4.5050543E-2,3.0600695E-2,5.754116E-2,5.4427873E-2,2.7143288E-2],"split_indices":[11,7,7,8,8,11,0,10,8,10,10,8,0,0,0,0,0,7,7,0,7,0,0,0,0,0,0,0,0],"split_type":[0,0,0,0,0,0,0,0,0,0,0,0,0,0,0,0,0,0,0,0,0,0,0,0,0,0,0,0,0],"sum_hessian":[1.5782173E4,1.5134924E4,6.4724854E2,1.1956446E4,3.1784775E3,4.391372E2,2.0811133E2,1.1563907E4,3.9253873E2,2.0606238E3,1.1178539E3,3.5698755E2,8.2149666E1,1.0876983E4,6.869239E2,8.362816E1,3.0891058E2,1.9080504E3,1.5257336E2,1.0480927E3,6.976121E1,3.016824E2,5.5305157E1,1.8700774E3,3.7973053E1,1.1836457E2,3.4208797E1,5.115523E1,1.8605972E1],"tree_param":{"num_deleted":"0","num_feature":"14","num_nodes":"29","size_leaf_vector":"0"}},{"base_weights":[-7.122271E-2,5.2176356E-1,-7.5448644E-1,-4.3326497E-2,1.4731588E0,-1.0801475E0,5.550447E-1,9.0836626E-1,-5.373951E-1,1.317306E0,1.5303266E0,-1.0916301E0,1.8514042E0,1.5741793E0,-4.034179E-1,-5.966562E-1,1.1359061E0,1.4595896E0,-1.0105648E0,-3.5151377E-1,1.4518076E0,1.5926013E0,2.749629E-1,-1.024771E0,-1.3212509E0,1.1522945E0,1.6787119E0,2.834858E-1,-9.974906E-1,9.1742384E-1,-1.4439745E0,1.5336768E-1,1.223516E0,1.6237382E0,1.2605605E0,-1.2096732E0,-5.961557E-1,-8.6947525E-1,6.554558E-1,1.6385065E0,1.4148084E0,9.659724E-1,-3.478955E-1,-8.0513E-1,-1.0647863E0,-1.3666794E0,-1.141684E0,7.7360916E-1,1.5072937E0,1.7163872E0,1.4243374E0,-5.2151835E-1,8.9831275E-1,-1.1074624E0,-6.1687505E-1],"categories":[],"categories_nodes":[],"categories_segments":[],"categories_sizes":[],"default_left":[1,1,1,1,1,1,1,1,1,1,1,1,0,1,1,1,1,1,1,1,0,1,1,1,1,1,1,1,1,0,0,0,0,0,0,0,0,0,0,0,0,0,0,0,0,0,0,0,0,0,0,0,0,0,0],"id":11,"left_children":[1,3,5,7,9,11,13,15,17,19,21,23,-1,25,27,29,31,33,35,37,-1,39,41,43,45,47,49,51,53,-1,-1,-1,-1,-1,-1,-1,-1,-1,-1,-1,-1,-1,-1,-1,-1,-1,-1,-1,-1,-1,-1,-1,-1,-1,-1],"loss_changes":[6.393847E3,4.5424277E3,3.1281787E3,2.4940645E3,2.3734375E1,2.0165234E2,1.4290131E3,6.2215356E2,3.302167E3,1.941084E2,1.7800928E2,8.688428E1,0E0,2.7106934E1,3.0861853E2,3.0971542E2,1.3509204E2,1.7494507E1,2.3139136E2,3.5417637E1,0E0,1.2865723E1,4.8401566E1,3.80083E1,7.333008E0,1.7244156E1,1.9665527E-1,1.7494307E2,1.5422974E1,0E0,0E0,0E0,0E0,0E0,0E0,0E0,0E0,0E0,0E0,0E0,0E0,0E0,0E0,0E0,0E0,0E0,0E0,0E0,0E0,0E0,0E0,0E0,0E0,0E0,0E0],"parents":[2147483647,0,0,1,1,2,2,3,3,4,4,5,5,6,6,7,7,8,8,9,9,10,10,11,11,13,13,14,14,15,15,16,16,17,17,18,18,19,19,21,21,22,22,23,23,24,24,25,25,26,26,27,27,28,28],"right_children":[2,4,6,8,10,12,14,16,18,20,22,24,-1,26,28,30,32,34,36,38,-1,40,42,44,46,48,50,52,54,-1,-1,-1,-1,-1,-1,-1,-1,-1,-1,-1,-1,-1,-1,-1,-1,-1,-1,-1,-1,-1,-1,-1,-1,-1,-1],"split_conditions":[7.5E0,2.9156914E0,3.594474E0,3.5E0,4.5E0,5E-1,1.25E1,3.5E0,2.5E0,3.5E0,5E-1,5E-1,9.257021E-2,9.5E0,1.65E1,2.5E0,2.5E0,4.5E0,6.5E0,3.5E0,7.259038E-2,4.5E0,6.5E0,5.5E0,9.5E0,5.5E0,1.15E1,1.05E1,2.25E1,4.5871194E-2,-7.2198726E-2,7.6683844E-3,6.11758E-2,8.118691E-2,6.302803E-2,-6.048366E-2,-2.9807786E-2,-4.347376E-2,3.277279E-2,8.1925325E-2,7.0740424E-2,4.8298623E-2,-1.7394776E-2,-4.02565E-2,-5.3239316E-2,-6.8333976E-2,-5.7084203E-2,3.868046E-2,7.536469E-2,8.5819356E-2,7.1216874E-2,-2.6075918E-2,4.491564E-2,-5.537312E-2,-3.0843753E-2],"split_indices":[1,5,5,1,1,6,1,12,12,12,0,0,0,1,1,1,1,1,1,1,0,12,1,12,12,12,1,12,1,0,0,0,0,0,0,0,0,0,0,0,0,0,0,0,0,0,0,0,0,0,0,0,0,0,0],"split_type":[0,0,0,0,0,0,0,0,0,0,0,0,0,0,0,0,0,0,0,0,0,0,0,0,0,0,0,0,0,0,0,0,0,0,0,0,0,0,0,0,0,0,0,0,0,0,0,0,0,0,0,0,0,0,0],"sum_hessian":[1.5776808E4,8.446576E3,7.330231E3,5.300248E3,3.1463281E3,5.870701E3,1.4595299E3,1.8106431E3,3.489605E3,8.577458E2,2.2885823E3,5.8490806E3,2.1620897E1,7.068039E2,7.52726E2,2.3731049E2,1.5733326E3,6.676111E2,2.8219941E3,6.367926E1,7.940665E2,2.1798306E3,1.0875168E2,4.538855E3,1.3102253E3,1.4531763E2,5.6148627E2,3.4949524E2,4.0323077E2,8.505016E1,1.5226031E2,1.2934802E2,1.4439846E3,3.5774402E2,3.0986707E2,1.9034008E3,9.1859326E2,4.2295723E1,2.1383533E1,1.7189999E3,4.6083078E2,5.110915E1,5.7642532E1,7.063731E2,3.832482E3,1.0346823E3,2.7554306E2,7.352596E1,7.179166E1,4.7869846E2,8.278784E1,1.5140231E2,1.9809293E2,3.096741E2,9.355668E1],"tree_param":{"num_deleted":"0","num_feature":"14","num_nodes":"55","size_leaf_vector":"0"}},{"base_weights":[-6.784465E-2,-3.0232942E-1,7.9833287E-1,-1.3667618E-1,-1.247579E0,5.097839E-1,1.3643804E0,-1.8760163E-1,1.2617364E0,-1.3097229E0,1.5054874E0,6.061415E-1,-6.1227375E-1,1.2156976E0,1.3962736E0,-2.3443393E-1,1.1148466E0,6.874458E-1,1.4170833E0,-1.3254267E0,-1.3937335E-1,5.5257684E-1,1.4019566E0,-8.35206E-1,4.295794E-1,1.0276154E0,1.4878393E0,6.093285E-1,1.1597265E0,-1.3420392E0,-5.629771E-1,5.362912E-1,1.1092317E0,-8.998282E-1,3.4112713E-1,1.1896461E-1,1.1838557E0],"categories":[],"categories_nodes":[],"categories_segments":[],"categories_sizes":[],"default_left":[1,1,1,1,1,1,1,1,1,1,0,1,1,0,0,0,1,1,0,1,0,1,0,1,1,0,0,0,0,0,0,0,0,0,0,0,0],"id":12,"left_children":[1,3,5,7,9,11,13,15,17,19,-1,21,23,-1,-1,-1,25,27,-1,29,-1,31,-1,33,35,-1,-1,-1,-1,-1,-1,-1,-1,-1,-1,-1,-1],"loss_changes":[3.1621948E3,1.9180192E3,5.401736E2,7.429625E2,3.1644116E2,2.3863092E2,1.6481934E0,6.142427E2,3.0545654E1,3.233545E1,0E0,8.467566E1,4.138526E1,0E0,0E0,0E0,8.063751E0,1.4376373E0,0E0,2.0634766E1,0E0,1.5896545E1,0E0,1.16805725E1,7.102409E0,0E0,0E0,0E0,0E0,0E0,0E0,0E0,0E0,0E0,0E0,0E0,0E0],"parents":[2147483647,0,0,1,1,2,2,3,3,4,4,5,5,6,6,7,7,8,8,9,9,11,11,12,12,16,16,17,17,19,19,21,21,23,23,24,24],"right_children":[2,4,6,8,10,12,14,16,18,20,-1,22,24,-1,-1,-1,26,28,-1,30,-1,32,-1,34,36,-1,-1,-1,-1,-1,-1,-1,-1,-1,-1,-1,-1],"split_conditions":[5E-1,5E-1,5E-1,3.5E0,4.5E0,5E-1,1.5E0,5E-1,4.5E0,1.5E0,7.527437E-2,5E-1,1.5E0,6.0784884E-2,6.981368E-2,-1.1721697E-2,1.5E0,5E-1,7.0854165E-2,5E-1,-6.9686673E-3,2.5E0,7.009783E-2,5E-1,2.5E0,5.1380772E-2,7.439197E-2,3.0466426E-2,5.7986327E-2,-6.710196E-2,-2.8148854E-2,2.681456E-2,5.5461586E-2,-4.499141E-2,1.7056357E-2,5.9482306E-3,5.9192784E-2],"split_indices":[7,0,8,8,8,0,8,11,8,8,0,11,7,0,0,0,11,11,0,11,0,7,0,11,7,0,0,0,0,0,0,0,0,0,0,0,0],"split_type":[0,0,0,0,0,0,0,0,0,0,0,0,0,0,0,0,0,0,0,0,0,0,0,0,0,0,0,0,0,0,0,0,0,0,0,0,0],"sum_hessian":[1.5565095E4,1.2250228E4,3.3148677E3,1.0425562E4,1.8246654E3,2.1982588E3,1.1166089E3,1.0060979E4,3.6458347E2,1.7854481E3,3.9217346E1,2.02534E3,1.7291893E2,2.1158649E2,9.0502246E2,9.713428E3,3.475503E2,8.007055E1,2.8451294E2,1.7614623E3,2.3985765E1,1.9009082E3,1.2443173E2,1.4284593E2,3.007301E1,2.8797934E2,5.957095E1,7.281819E1,7.2523503E0,1.7222849E3,3.9177406E1,1.8508651E3,5.0043068E1,1.359335E2,6.912426E0,2.3035069E1,7.0379395E0],"tree_param":{"num_deleted":"0","num_feature":"14","num_nodes":"37","size_leaf_vector":"0"}},{"base_weights":[-6.481878E-2,5.0572175E-1,-7.3221314E-1,9.7252536E-1,3.1306627E-1,-9.127325E-1,-6.2453973E-1,6.2437606E-1,1.253165E0,-6.070002E-1,9.2516893E-1,-1.1556517E0,-6.1962473E-1,6.386389E-2,-8.6132467E-1,1.5932187E0,5.749884E-1,2.8477105E-1,-1.0275037E0,1.7001039E-1,1.0094074E0,-1.0562046E0,-1.2151647E0,-2.8523493E-1,-8.079269E-1,5.4404892E-2,1.2017298E0,-8.7641793E-1,1.6860334E0,-6.4092433E-1,7.087195E-1,-1.1785114E0,-7.8178394E-1,1.0924959E0,7.8915256E-1,-8.581567E-1,-7.489081E-1,-8.8613987E-1,1.356126E0],"categories":[],"categories_nodes":[],"categories_segments":[],"categories_sizes":[],"default_left":[1,1,1,1,1,1,1,1,0,1,1,1,1,1,1,0,1,0,1,0,1,0,0,0,1,0,0,1,0,0,0,0,0,0,0,0,0,0,0],"id":13,"left_children":[1,3,5,7,9,11,13,15,-1,17,19,21,23,25,27,-1,29,-1,31,-1,33,-1,-1,-1,35,-1,-1,37,-1,-1,-1,-1,-1,-1,-1,-1,-1,-1,-1],"loss_changes":[5.9002085E3,7.5053906E2,1.3751514E2,2.3658691E2,3.3331294E3,1.8803345E2,7.304397E2,5.0244476E1,0E0,8.87425E2,2.2559912E2,5.810913E0,7.571619E1,1.2103048E1,1.3104639E2,0E0,1.7053009E2,0E0,5.7608765E1,0E0,5.6585693E1,0E0,0E0,0E0,8.4783936E-1,0E0,0E0,7.4315186E1,0E0,0E0,0E0,0E0,0E0,0E0,0E0,0E0,0E0,0E0,0E0],"parents":[2147483647,0,0,1,1,2,2,3,3,4,4,5,5,6,6,7,7,9,9,10,10,11,11,12,12,13,13,14,14,16,16,18,18,20,20,24,24,27,27],"right_children":[2,4,6,8,10,12,14,16,-1,18,20,22,24,26,28,-1,30,-1,32,-1,34,-1,-1,-1,36,-1,-1,38,-1,-1,-1,-1,-1,-1,-1,-1,-1,-1,-1],"split_conditions":[7.5E0,3.5E0,1.05E1,5E-1,5E-1,5E-1,1.15E1,1.5E0,6.265825E-2,4.5E0,4.5E0,8.5E0,8.5E0,5E-1,5E-1,7.966094E-2,2.5E0,1.4238553E-2,6.5E0,8.500519E-3,6.5E0,-5.281023E-2,-6.0758233E-2,-1.4261747E-2,9.5E0,2.7202447E-3,6.008649E-2,5E-1,8.430167E-2,-3.2046217E-2,3.5435975E-2,-5.892557E-2,-3.90892E-2,5.4624796E-2,3.945763E-2,-4.2907834E-2,-3.7445407E-2,-4.4306993E-2,6.7806296E-2],"split_indices":[1,1,1,9,9,9,1,1,0,1,1,1,1,3,6,0,1,0,1,0,1,0,0,0,1,0,0,3,0,0,0,0,0,0,0,0,0,0,0],"split_type":[0,0,0,0,0,0,0,0,0,0,0,0,0,0,0,0,0,0,0,0,0,0,0,0,0,0,0,0,0,0,0,0,0,0,0,0,0,0,0],"sum_hessian":[1.5491236E4,8.351802E3,7.139434E3,2.4373926E3,5.914409E3,2.6614722E3,4.477962E3,1.090889E3,1.3465035E3,2.362752E3,3.551657E3,1.4519291E3,1.2095432E3,1.1463174E3,3.3316445E3,4.978125E1,1.0411078E3,7.5724774E2,1.6055043E3,3.5715506E2,3.194502E3,5.582537E2,8.936753E2,4.377467E2,7.717965E2,1.1390322E3,7.285185E0,3.3133638E3,1.8280748E1,1.0233369E2,9.387741E2,9.894416E2,6.1606274E2,2.3134185E3,8.8108344E2,4.0139835E2,3.7039813E2,3.3002434E3,1.3120426E1],"tree_param":{"num_deleted":"0","num_feature":"14","num_nodes":"39","size_leaf_vector":"0"}},{"base_weights":[-6.3314125E-2,-2.3084639E-1,9.4376904E-1,1.1671175E-2,-3.8621607E-1,1.0481757E0,8.4517294E-1,-1.7604622E-1,5.791619E-1,-4.741878E-1,3.2412964E-1,7.1007323E-1,1.2880166E0,4.944068E-1,1.3325508E0,-1.8465987E-1,1.6593643E0,5.6705433E-1,1.017846E0,-4.831688E-1,1.7183899E0,1.9012739E-1,8.7913144E-1,1.3103151E0,9.2433697E-1,4.834703E-1,1.2360508E0,9.5523834E-1,1.3558569E0,-2.6871642E-1,1.2966223E0,2.1320602E-1,1.1877636E0],"categories":[],"categories_nodes":[],"categories_segments":[],"categories_sizes":[],"default_left":[1,1,1,1,1,1,1,1,1,1,1,0,1,1,0,0,0,0,0,0,0,0,0,1,1,1,0,0,0,0,0,0,0],"id":14,"left_children":[1,3,5,7,9,11,13,15,17,19,21,-1,23,25,-1,-1,-1,-1,-1,-1,-1,-1,-1,27,29,31,-1,-1,-1,-1,-1,-1,-1],"loss_changes":[2.6028318E3,4.9842126E2,2.0689087E1,5.506187E2,5.041239E2,8.391504E1,1.9381085E2,6.1864807E1,5.511261E0,1.4281592E2,6.571029E1,0E0,2.360962E0,4.0480804E0,0E0,0E0,0E0,0E0,0E0,0E0,0E0,0E0,0E0,6.5039062E0,1.9772411E1,1.2523927E2,0E0,0E0,0E0,0E0,0E0,0E0,0E0],"parents":[2147483647,0,0,1,1,2,2,3,3,4,4,5,5,6,6,7,7,8,8,9,9,10,10,12,12,13,13,23,23,24,24,25,25],"right_children":[2,4,6,8,10,12,14,16,18,20,22,-1,24,26,-1,-1,-1,-1,-1,-1,-1,-1,-1,28,30,32,-1,-1,-1,-1,-1,-1,-1],"split_conditions":[5E-1,5E-1,5E-1,5E-1,5E-1,5E-1,5E-1,5E-1,2.5E0,5E-1,1.5E0,3.5503663E-2,2.5E0,5E-1,6.662754E-2,-9.232993E-3,8.296822E-2,2.8352717E-2,5.08923E-2,-2.415844E-2,8.591949E-2,9.50637E-3,4.3956574E-2,2.5E0,2.5E0,3.5E0,6.1802544E-2,4.7761917E-2,6.779285E-2,-1.3435821E-2,6.4831115E-2,1.0660301E-2,5.938818E-2],"split_indices":[8,2,2,7,7,7,7,6,7,6,7,0,7,6,0,0,0,0,0,0,0,0,0,8,8,8,0,0,0,0,0,0,0],"split_type":[0,0,0,0,0,0,0,0,0,0,0,0,0,0,0,0,0,0,0,0,0,0,0,0,0,0,0,0,0,0,0,0,0],"sum_hessian":[1.5422868E4,1.3224553E4,2.198316E3,5.164483E3,8.06007E3,1.0578489E3,1.1404669E3,3.8816836E3,1.2827992E3,7.1725957E3,8.8747406E2,4.424572E2,6.153916E2,6.6563965E2,4.748273E2,3.8653965E3,1.6287188E1,1.253029E3,2.9770153E1,7.1449346E3,2.7661451E1,7.1718005E2,1.70294E2,5.746752E2,4.071643E1,6.593552E2,6.284422E0,7.05741E1,5.041011E2,9.752055E0,3.0964376E1,4.7848837E2,1.8086687E2],"tree_param":{"num_deleted":"0","num_feature":"14","num_nodes":"33","size_leaf_vector":"0"}},{"base_weights":[-5.5400975E-2,-5.608192E-1,3.2387426E-1,-5.951229E-1,7.66284E-1,2.297084E-1,1.3243693E0,-6.991024E-2,-1.0338515E0,8.055045E-1,-0E0,1.6051748E-1,1.1551709E0,1.6304824E-1,1.527436E0,4.5670014E-2,-1.228698E0,1.044661E0,6.1229825E-1,3.840219E-1,2.3139935E-2,7.4550635E-1,1.437706E0],"categories":[],"categories_nodes":[],"categories_segments":[],"categories_sizes":[],"default_left":[1,1,1,1,1,1,1,1,0,1,0,1,1,0,0,0,0,0,0,0,0,0,0],"id":15,"left_children":[1,3,5,7,9,11,13,15,-1,17,-1,19,21,-1,-1,-1,-1,-1,-1,-1,-1,-1,-1],"loss_changes":[2.9370022E3,2.9991797E2,8.238782E2,1.4754121E3,4.928932E0,5.1193002E2,1.7677917E2,3.9091415E2,0E0,5.860359E0,0E0,2.2863768E2,6.202179E1,0E0,0E0,0E0,0E0,0E0,0E0,0E0,0E0,0E0,0E0],"parents":[2147483647,0,0,1,1,2,2,3,3,4,4,5,5,6,6,7,7,9,9,11,11,12,12],"right_children":[2,4,6,8,10,12,14,16,-1,18,-1,20,22,-1,-1,-1,-1,-1,-1,-1,-1,-1,-1],"split_conditions":[5E-1,5E-1,5E-1,5E-1,5E-1,1.5E0,5E-1,5E-1,-5.1692575E-2,5E-1,-0E0,5E-1,5E-1,8.152412E-3,7.6371804E-2,2.2835007E-3,-6.1434902E-2,5.223305E-2,3.0614913E-2,1.9201096E-2,1.1569968E-3,3.7275318E-2,7.18853E-2],"split_indices":[9,11,10,2,10,9,2,10,0,2,0,2,2,0,0,0,0,0,0,0,0,0,0],"split_type":[0,0,0,0,0,0,0,0,0,0,0,0,0,0,0,0,0,0,0,0,0,0,0],"sum_hessian":[1.5317396E4,6.5663945E3,8.751002E3,6.4020884E3,1.6430609E2,8.000555E3,7.5044714E2,2.9150083E3,3.4870798E3,1.5610182E2,8.204268E0,7.446298E3,5.542572E2,1.123017E2,6.3814545E2,2.6522969E3,2.6271152E2,6.558598E1,9.051584E1,2.8329507E3,4.613347E3,2.2934596E2,3.2491125E2],"tree_param":{"num_deleted":"0","num_feature":"14","num_nodes":"23","size_leaf_vector":"0"}},{"base_weights":[-5.4499142E-2,-5.374232E-1,3.0993208E-1,2.5443754E-1,-9.137126E-1,-1.4112119E-2,1.03036E0,6.703417E-1,-1.1599851E0,-9.70999E-1,7.063512E-1,-5.6799203E-2,9.202033E-1,9.9961156E-1,1.3035325E0,4.8727453E-1,1.5258368E0,-9.0928726E-2,1.0277315E0,-1.2674096E0,1.4733033E0,9.7313255E-1,1.2102195E0,5.99637E-1,4.0625125E-1,7.433985E-2,-1.8165801E-1,9.4480777E-1,1.3648123E0,9.147024E-1,1.0085446E0],"categories":[],"categories_nodes":[],"categories_segments":[],"categories_sizes":[],"default_left":[1,1,1,1,1,1,1,0,0,0,1,1,1,1,0,1,0,1,1,0,0,1,0,0,0,0,0,0,0,0,0],"id":16,"left_children":[1,3,5,7,9,11,13,-1,-1,-1,15,17,19,21,-1,23,-1,25,27,-1,-1,29,-1,-1,-1,-1,-1,-1,-1,-1,-1],"loss_changes":[2.6899673E3,1.9592496E3,2.0337078E3,1.2480289E3,4.1500342E2,2.3972765E2,1.9865234E1,0E0,0E0,0E0,2.5834305E1,2.1291454E2,3.2151062E2,1.1022949E1,0E0,5.4109573E-1,0E0,8.365089E1,2.095398E0,0E0,0E0,2.4660645E0,0E0,0E0,0E0,0E0,0E0,0E0,0E0,0E0,0E0],"parents":[2147483647,0,0,1,1,2,2,3,3,4,4,5,5,6,6,10,10,11,11,12,12,13,13,15,15,17,17,18,18,21,21],"right_children":[2,4,6,8,10,12,14,-1,-1,-1,16,18,20,22,-1,24,-1,26,28,-1,-1,30,-1,-1,-1,-1,-1,-1,-1,-1,-1],"split_conditions":[5E-1,2.0526266E0,3.594474E0,5E-1,5E-1,1.5E0,5E-1,3.3517085E-2,-5.7999253E-2,-4.854995E-2,1.5E0,5E-1,5E-1,1.5E0,6.517663E-2,5E-1,7.6291844E-2,5E-1,1.5E0,-6.337048E-2,7.3665164E-2,5E-1,6.0510974E-2,2.998185E-2,2.0312563E-2,3.7169927E-3,-9.082901E-3,4.7240388E-2,6.824061E-2,4.573512E-2,5.042723E-2],"split_indices":[9,5,5,2,11,9,11,0,0,0,11,11,2,9,0,2,0,2,11,0,0,2,0,0,0,0,0,0,0,0,0],"split_type":[0,0,0,0,0,0,0,0,0,0,0,0,0,0,0,0,0,0,0,0,0,0,0,0,0,0,0,0,0,0,0],"sum_hessian":[1.5280525E4,6.5715703E3,8.708955E3,2.1169846E3,4.4545854E3,6.008286E3,2.7006694E3,1.636811E3,4.8017355E2,4.3032817E3,1.5130359E2,5.7476714E3,2.6061465E2,2.4361401E3,2.645292E2,1.2200004E2,2.9303555E1,5.5741797E3,1.7349153E2,5.2036583E1,2.0857806E2,2.1744683E3,2.6167188E2,4.5234035E1,7.6766E1,1.9753062E3,3.5988738E3,1.455804E2,2.7911133E1,8.418653E2,1.332603E3],"tree_param":{"num_deleted":"0","num_feature":"14","num_nodes":"31","size_leaf_vector":"0"}},{"base_weights":[-5.5992678E-2,6.322637E-1,-6.3415796E-1,1.4189922E0,5.1382816E-1,-6.9892085E-1,8.374601E-1,-8.9182407E-1,1.4506965E0,-3.56192E-1,6.42534E-1,-5.652473E-1,-9.067068E-1,1.0892324E0,2.909649E-1,-7.663191E-1,1.1976593E0,3.701708E-1,1.439195E0,-7.402349E-1,3.9972126E-1,-1.1034234E0,-3.6479482E-1,1.3169695E0,9.171587E-1,-1.9134263E-2,9.405502E-1,1.608392E0,-9.5792377E-1,3.42424E-1,1.2825838E0,7.7654254E-1,2.0106591E-1,1.4681314E0,3.0695432E-1,-9.020051E-1,-1.3894211E-1,2.0199662E-1,1.2177961E0,-1.1099353E0,-5.470028E-1,-1.4420213E-1,-8.432223E-1,7.6323915E-1,1.28529E0,-2.8008875E-1,1.0846037E0,4.8647687E-1,1.0398494E0],"categories":[],"categories_nodes":[],"categories_segments":[],"categories_sizes":[],"default_left":[1,1,1,1,1,1,1,0,0,1,1,1,1,1,1,1,1,1,1,1,1,1,1,0,1,1,1,0,0,0,0,0,0,0,0,0,0,0,0,0,0,0,0,0,0,0,0,0,0],"id":17,"left_children":[1,3,5,7,9,11,13,-1,-1,15,17,19,21,23,25,27,29,31,33,35,37,39,41,-1,43,45,47,-1,-1,-1,-1,-1,-1,-1,-1,-1,-1,-1,-1,-1,-1,-1,-1,-1,-1,-1,-1,-1,-1],"loss_changes":[6.028229E3,6.427671E2,7.8581323E2,6.885034E1,6.739606E2,2.1789648E2,4.7095078E1,0E0,0E0,4.9648737E2,1.1357671E3,8.1200256E2,3.2781445E2,6.660492E0,2.2805395E1,2.8304138E2,1.0785721E1,2.6813623E2,4.263623E1,3.9537207E2,1.1887142E2,6.814209E0,8.667175E1,0E0,5.880043E0,2.3009537E1,4.8234558E-1,0E0,0E0,0E0,0E0,0E0,0E0,0E0,0E0,0E0,0E0,0E0,0E0,0E0,0E0,0E0,0E0,0E0,0E0,0E0,0E0,0E0,0E0],"parents":[2147483647,0,0,1,1,2,2,3,3,4,4,5,5,6,6,9,9,10,10,11,11,12,12,13,13,14,14,15,15,16,16,17,17,18,18,19,19,20,20,21,21,22,22,24,24,25,25,26,26],"right_children":[2,4,6,8,10,12,14,-1,-1,16,18,20,22,24,26,28,30,32,34,36,38,40,42,-1,44,46,48,-1,-1,-1,-1,-1,-1,-1,-1,-1,-1,-1,-1,-1,-1,-1,-1,-1,-1,-1,-1,-1,-1],"split_conditions":[4.5E0,2.5E0,5E-1,3.5E0,3.5E0,7.5E0,1.25E1,-4.4591203E-2,7.253482E-2,5E-1,5E-1,5E-1,5E-1,5.5E0,5E-1,1.5E0,1.5E0,3.5E0,6.5E0,1.05E1,1.5E0,2.45E1,1.65E1,6.584848E-2,5E-1,1.5E0,1.45E1,8.04196E-2,-4.7896188E-2,1.7121201E-2,6.4129196E-2,3.882713E-2,1.0053296E-2,7.340657E-2,1.5347716E-2,-4.5100253E-2,-6.9471053E-3,1.0099831E-2,6.0889807E-2,-5.5496763E-2,-2.735014E-2,-7.2101066E-3,-4.216112E-2,3.816196E-2,6.42645E-2,-1.4004438E-2,5.4230183E-2,2.4323843E-2,5.1992472E-2],"split_indices":[12,12,11,1,12,12,1,0,0,7,7,7,7,12,7,1,7,1,1,1,7,1,1,0,7,11,1,0,0,0,0,0,0,0,0,0,0,0,0,0,0,0,0,0,0,0,0,0,0],"split_type":[0,0,0,0,0,0,0,0,0,0,0,0,0,0,0,0,0,0,0,0,0,0,0,0,0,0,0,0,0,0,0,0,0,0,0,0,0,0,0,0,0,0,0,0,0,0,0,0,0],"sum_hessian":[1.5145105E4,6.9141E3,8.231006E3,9.016865E2,6.0124136E3,7.885116E3,3.4588947E2,1.1426669E1,8.902599E2,7.742642E2,5.2381494E3,4.803095E3,3.0820208E3,2.3531137E2,1.1057807E2,6.1343164E2,1.6083257E2,3.905864E3,1.3322854E3,4.066284E3,7.368115E2,2.2595403E3,8.224804E2,9.5297874E1,1.400135E2,7.6057076E1,3.4521E1,4.465655E1,5.687751E2,1.5543456E1,1.4528911E2,1.1454606E3,2.7604033E3,1.2984204E3,3.3865013E1,3.2033083E3,8.6297565E2,5.9549854E2,1.4131297E2,2.231258E3,2.8282204E1,5.648514E2,2.5762906E2,1.0325831E2,3.675519E1,6.2793915E1,1.3263163E1,8.492401E0,2.6028597E1],"tree_param":{"num_deleted":"0","num_feature":"14","num_nodes":"49","size_leaf_vector":"0"}},{"base_weights":[-5.0002832E-2,4.5679158E-1,-6.444084E-1,2.34175E-1,1.2947943E0,-8.0906284E-1,-9.630426E-3,1.6065542E-1,8.9955115E-1,1.4742441E0,1.0708263E0,-7.0852095E-1,-1.0084764E0,1.3796118E-1,-6.112125E-1,3.828348E-1,-1.5773535E-3,-8.684259E-1,1.2026907E0,1.2636973E0,1.5327642E0,9.002038E-1,1.3020451E0,-9.0677947E-1,-3.9095038E-1,-1.0184858E0,-2.4400859E-1,2.1606212E-2,8.2387817E-1,-8.2807004E-1,-2.2373247E-1,1.3240334E0,3.6167556E-1,-1.9141747E-1,5.943118E-2,1.0334808E0,-1.4573762E0,1.3657074E0,-1.3478259E0,1.242787E0,6.9186467E-1,-7.264006E-1,-1.0187013E0,-1.3840951E-1,-8.029396E-1,-1.029E0,-3.6777055E-1,-6.023188E-1,4.339914E-1,-1.5679325E-1,8.1692874E-1,1.1045356E0,-4.6595582E-1,-8.701312E-1,9.909684E-2,-4.7927043E-1,1.21383846E-1],"categories":[],"categories_nodes":[],"categories_segments":[],"categories_sizes":[],"default_left":[1,1,1,1,1,1,1,1,1,1,1,1,1,1,1,1,1,1,1,0,0,1,0,1,1,1,1,1,1,1,1,0,0,0,0,0,0,0,0,0,0,0,0,0,0,0,0,0,0,0,0,0,0,0,0,0,0],"id":18,"left_children":[1,3,5,7,9,11,13,15,17,19,21,23,25,27,29,31,33,35,37,-1,-1,39,-1,41,43,45,47,49,51,53,55,-1,-1,-1,-1,-1,-1,-1,-1,-1,-1,-1,-1,-1,-1,-1,-1,-1,-1,-1,-1,-1,-1,-1,-1,-1,-1],"loss_changes":[4.523632E3,1.5113796E3,7.222283E2,3.1301776E2,6.4944824E1,1.0841821E2,1.26788994E2,2.0808873E2,3.4346997E2,7.4119873E0,2.7580444E1,2.2929236E2,1.3412109E1,9.135887E1,2.3165123E1,4.7390778E1,3.8693535E1,1.0872154E2,2.3010492E2,0E0,0E0,2.9947632E1,0E0,4.374048E1,1.4623575E2,1.1485718E1,6.9689336E0,1.3967514E2,6.1206703E1,7.24897E0,9.311792E0,0E0,0E0,0E0,0E0,0E0,0E0,0E0,0E0,0E0,0E0,0E0,0E0,0E0,0E0,0E0,0E0,0E0,0E0,0E0,0E0,0E0,0E0,0E0,0E0,0E0,0E0],"parents":[2147483647,0,0,1,1,2,2,3,3,4,4,5,5,6,6,7,7,8,8,9,9,10,10,11,11,12,12,13,13,14,14,15,15,16,16,17,17,18,18,21,21,23,23,24,24,25,25,26,26,27,27,28,28,29,29,30,30],"right_children":[2,4,6,8,10,12,14,16,18,20,22,24,26,28,30,32,34,36,38,-1,-1,40,-1,42,44,46,48,50,52,54,56,-1,-1,-1,-1,-1,-1,-1,-1,-1,-1,-1,-1,-1,-1,-1,-1,-1,-1,-1,-1,-1,-1,-1,-1,-1,-1],"split_conditions":[7.5E0,5E-1,5E-1,5E-1,3.5E0,1.25E1,1.65E1,4.5E0,5.5E0,2.5E0,1.5E0,1.05E1,5E-1,1.5E0,1.5E0,1.5E0,5.5E0,2.5E0,6.5E0,6.3184865E-2,7.6638214E-2,5.5E0,6.510226E-2,8.5E0,1.15E1,2.45E1,1.55E1,1.55E1,1.35E1,5E-1,2.25E1,6.620167E-2,1.808378E-2,-9.570873E-3,2.971559E-3,5.167404E-2,-7.286882E-2,6.828537E-2,-6.73913E-2,6.213935E-2,3.4593236E-2,-3.632003E-2,-5.0935067E-2,-6.9204755E-3,-4.014698E-2,-5.1450003E-2,-1.8388528E-2,-3.0115942E-2,2.169957E-2,-7.839663E-3,4.0846437E-2,5.522678E-2,-2.3297792E-2,-4.350656E-2,4.9548424E-3,-2.3963522E-2,6.069192E-3],"split_indices":[1,7,7,10,1,1,1,1,1,1,7,1,10,7,7,1,1,1,1,0,0,1,0,1,1,1,1,1,1,10,1,0,0,0,0,0,0,0,0,0,0,0,0,0,0,0,0,0,0,0,0,0,0,0,0,0,0],"split_type":[0,0,0,0,0,0,0,0,0,0,0,0,0,0,0,0,0,0,0,0,0,0,0,0,0,0,0,0,0,0,0,0,0,0,0,0,0,0,0,0,0,0,0,0,0,0,0,0,0,0,0,0,0,0,0,0,0],"sum_hessian":[1.5012616E4,8.103667E3,6.908949E3,6.40488E3,1.6987872E3,5.485392E3,1.4235571E3,5.76997E3,6.349095E2,9.3667993E2,7.621073E2,3.6531338E3,1.8322585E3,1.1442122E3,2.793449E2,2.434203E3,3.3357676E3,9.233453E1,5.4257495E2,2.139209E2,7.2275903E2,4.4439523E2,3.1771207E2,2.2465762E3,1.4065576E3,1.8077933E3,2.446517E1,9.8015344E2,1.6405875E2,1.7748256E2,1.0186233E2,5.0708916E1,2.383494E3,8.1064606E2,2.5251216E3,2.143495E1,7.089958E1,5.1088965E2,3.1685328E1,1.6411757E2,2.8027765E2,8.6629144E2,1.3802847E3,8.738316E2,5.327261E2,1.777752E3,3.0041466E1,1.624875E1,8.216419E0,8.017845E2,1.7836897E2,1.3504E2,2.9018755E1,1.7000131E2,7.48126E0,5.824656E1,4.3615772E1],"tree_param":{"num_deleted":"0","num_feature":"14","num_nodes":"57","size_leaf_vector":"0"}},{"base_weights":[-5.0337013E-2,-2.6934063E-1,9.1900426E-1,-5.2143914E-1,-5.5401557E-4,5.737354E-1,1.1992004E0,-7.3949575E-1,6.251829E-1,9.135546E-1,-1.3547835E-1,-1.8118587E-1,6.396497E-1,-1.0574215E-1,1.2226355E0,-3.5611865E-1,-8.911476E-1,1.5288643E0,-5.581994E-1,-8.66164E-1,1.5439681E0,-1.2747452E0,-2.623914E-2,-4.1501826E-1,5.937905E-1,5.0548565E-1,7.9058075E-1,8.15054E-1,-7.634655E-1,1.0966004E0,1.3135906E0,-3.6970758E-1,1.1135198E0,-9.359283E-1,4.750315E-1,-6.467362E-1,1.081153E0,-8.564082E-2,1.0041915E0,-5.645707E-1,6.624144E-1,4.548441E-1,1.0462831E0,7.4362814E-1,1.1969935E0,1.0692984E0,1.2774321E0],"categories":[],"categories_nodes":[],"categories_segments":[],"categories_sizes":[],"default_left":[1,1,1,1,1,1,1,1,1,1,1,1,1,1,1,1,1,0,1,0,0,0,1,1,0,1,1,0,0,1,0,0,0,0,0,0,0,0,0,0,0,0,0,0,0,0,0],"id":19,"left_children":[1,3,5,7,9,11,13,15,17,19,21,23,25,27,29,31,33,-1,35,-1,-1,-1,37,39,-1,41,43,-1,-1,45,-1,-1,-1,-1,-1,-1,-1,-1,-1,-1,-1,-1,-1,-1,-1,-1,-1],"loss_changes":[3.1645332E3,8.238823E2,2.6421875E2,1.5696976E3,7.262646E2,6.1715668E1,4.668628E1,3.0579858E2,1.0750125E3,8.524641E2,6.384685E2,1.8702213E1,2.207663E1,1.8490316E1,1.3936279E1,3.066655E1,2.319878E2,0E0,6.46302E1,0E0,0E0,0E0,2.8684012E2,1.3394448E1,0E0,1.5531662E1,8.153473E0,0E0,0E0,1.7486572E-1,0E0,0E0,0E0,0E0,0E0,0E0,0E0,0E0,0E0,0E0,0E0,0E0,0E0,0E0,0E0,0E0,0E0],"parents":[2147483647,0,0,1,1,2,2,3,3,4,4,5,5,6,6,7,7,8,8,9,9,10,10,11,11,12,12,13,13,14,14,15,15,16,16,18,18,22,22,23,23,25,25,26,26,29,29],"right_children":[2,4,6,8,10,12,14,16,18,20,22,24,26,28,30,32,34,-1,36,-1,-1,-1,38,40,-1,42,44,-1,-1,46,-1,-1,-1,-1,-1,-1,-1,-1,-1,-1,-1,-1,-1,-1,-1,-1,-1],"split_conditions":[3.5899577E0,5E-1,3.7969906E0,5E-1,2.337337E0,5E-1,5E-1,2.0505123E0,1.6887219E0,2.3109121E0,2.6856554E0,1.5E0,3.6901884E0,3.8432388E0,3.944374E0,5E-1,5E-1,7.644322E-2,5E-1,-4.3308202E-2,7.719841E-2,-6.3737266E-2,1.5E0,5E-1,2.9689524E-2,5E-1,5E-1,4.07527E-2,-3.8173277E-2,5E-1,6.5679535E-2,-1.848538E-2,5.567599E-2,-4.6796415E-2,2.3751575E-2,-3.2336812E-2,5.4057654E-2,-4.282041E-3,5.0209578E-2,-2.8228536E-2,3.3120718E-2,2.2742204E-2,5.231416E-2,3.7181407E-2,5.9849676E-2,5.346492E-2,6.387161E-2],"split_indices":[5,9,5,7,5,9,9,5,5,5,5,7,5,5,5,11,11,0,11,0,0,0,9,11,0,11,11,0,0,11,0,0,0,0,0,0,0,0,0,0,0,0,0,0,0,0,0],"split_type":[0,0,0,0,0,0,0,0,0,0,0,0,0,0,0,0,0,0,0,0,0,0,0,0,0,0,0,0,0,0,0,0,0,0,0,0,0,0,0,0,0,0,0,0,0,0,0],"sum_hessian":[1.4902679E4,1.2157481E4,2.7451968E3,6.272329E3,5.8851523E3,1.2326852E3,1.5125116E3,5.2707686E3,1.0015608E3,7.5535565E2,5.129797E3,9.858366E1,1.1341014E3,2.6484335E1,1.4860272E3,1.4960635E3,3.7747048E3,5.676101E2,4.339507E2,1.9733974E2,5.5801587E2,4.468892E2,4.682907E3,7.654565E1,2.203801E1,6.0535583E2,5.287456E2,1.0772565E1,1.5711769E1,6.3429987E2,8.5172736E2,1.4839076E3,1.2155966E1,3.6555852E3,1.1911974E2,4.1292197E2,2.102876E1,4.4294897E3,2.5341786E2,6.813326E1,8.412382E0,5.5705853E2,4.829729E1,4.792802E2,4.9465416E1,5.635887E2,7.071121E1],"tree_param":{"num_deleted":"0","num_feature":"14","num_nodes":"47","size_leaf_vector":"0"}},{"base_weights":[-4.8017316E-2,1.051462E-1,-1.0562601E0,-2.9237177E-2,8.78474E-1,-1.1448873E0,1.2595547E0,-1.9981235E-1,5.1644284E-1,-1.0160414E0,1.2278777E0,-1.1921183E0,-3.9062265E-1,1.1909005E-1,1.4028318E0,-2.9426855E-1,4.6341646E-1,5.028445E-1,1.0977502E0,-1.2239063E0,-8.415955E-1,-7.821497E-1,5.641137E-1,-8.677147E-1,-2.2056645E-1,1.4899566E0,-7.19007E-1,1.2548108E0,4.2011082E-1,4.4275776E-2,1.2043338E0,-3.8901648E-1,-1.2401915E0,-1.0277687E0,-2.8758636E-1,-8.917442E-1,1.581498E-1,2.2370507E-1,9.702635E-1],"categories":[],"categories_nodes":[],"categories_segments":[],"categories_sizes":[],"default_left":[1,1,1,1,1,1,1,1,1,0,0,1,1,0,0,1,1,1,1,1,1,1,1,0,0,0,0,0,0,0,0,0,0,0,0,0,0,0,0],"id":20,"left_children":[1,3,5,7,9,11,13,15,17,-1,-1,19,21,-1,-1,23,25,27,29,31,33,35,37,-1,-1,-1,-1,-1,-1,-1,-1,-1,-1,-1,-1,-1,-1,-1,-1],"loss_changes":[2.280061E3,1.3321675E3,4.0251123E2,1.01676904E3,1.2587454E3,6.57583E1,1.139006E1,5.2161914E2,1.9299805E1,0E0,0E0,1.7397217E1,4.3396996E1,0E0,0E0,3.0745447E2,1.262326E3,1.5716125E2,6.2365494E0,2.0808105E1,1.5099281E1,8.757084E0,4.167633E0,0E0,0E0,0E0,0E0,0E0,0E0,0E0,0E0,0E0,0E0,0E0,0E0,0E0,0E0,0E0,0E0],"parents":[2147483647,0,0,1,1,2,2,3,3,4,4,5,5,6,6,7,7,8,8,11,11,12,12,15,15,16,16,17,17,18,18,19,19,20,20,21,21,22,22],"right_children":[2,4,6,8,10,12,14,16,18,-1,-1,20,22,-1,-1,24,26,28,30,32,34,36,38,-1,-1,-1,-1,-1,-1,-1,-1,-1,-1,-1,-1,-1,-1,-1,-1],"split_conditions":[5E-1,5E-1,3.5E0,3.3742785E0,3.1814194E0,3.7032528E0,4.5E0,5E-1,2.5E0,-5.080207E-2,6.1393887E-2,5E-1,5E-1,5.9545026E-3,7.014159E-2,1.9649279E0,1.6887219E0,3.3816004E0,3.5399396E0,2.0272927E0,3.4681482E0,3.9362202E0,1.5E0,-4.3385737E-2,-1.1028322E-2,7.4497834E-2,-3.595035E-2,6.274054E-2,2.1005541E-2,2.213789E-3,6.021669E-2,-1.9450825E-2,-6.2009573E-2,-5.138844E-2,-1.4379318E-2,-4.458721E-2,7.90749E-3,1.1185254E-2,4.8513174E-2],"split_indices":[0,8,8,5,5,5,8,7,7,0,0,7,7,0,0,5,5,5,5,5,5,5,7,0,0,0,0,0,0,0,0,0,0,0,0,0,0,0,0],"split_type":[0,0,0,0,0,0,0,0,0,0,0,0,0,0,0,0,0,0,0,0,0,0,0,0,0,0,0,0,0,0,0,0,0,0,0,0,0,0,0],"sum_hessian":[1.4760693E4,1.2815557E4,1.9451361E3,1.0919789E4,1.8957678E3,1.8744543E3,7.068175E1,8.320362E3,2.5994272E3,2.945539E2,1.601214E3,1.7627782E3,1.1167623E2,8.375369E0,6.2306377E1,7.2842163E3,1.0361455E3,2.5438223E3,5.5604847E1,1.611378E3,1.5140016E2,7.952867E1,3.2147564E1,8.2697284E2,6.4572437E3,5.543992E2,4.8174628E2,2.4921002E2,2.2946123E3,5.4551454E0,5.01497E1,3.1899517E1,1.5794785E3,1.1190424E2,3.949592E1,7.141471E1,8.113958E0,1.9310528E1,1.2837036E1],"tree_param":{"num_deleted":"0","num_feature":"14","num_nodes":"39","size_leaf_vector":"0"}},{"base_weights":[-5.460799E-2,9.263344E-2,-1.0261481E0,-7.058938E-2,6.801882E-1,-1.1195904E0,-2.7293563E-1,-1.11684665E-1,1.1359302E0,4.4036484E-1,1.1831264E0,-1.1680541E0,1.3702718E0,-6.072946E-1,1.1340089E0,-1.3023758E-1,2.1195626E0,-1.547988E-1,2.24117E-1],"categories":[],"categories_nodes":[],"categories_segments":[],"categories_sizes":[],"default_left":[1,1,1,1,1,1,1,1,0,0,0,0,0,0,0,1,0,0,0],"id":21,"left_children":[1,3,5,7,9,11,13,15,-1,-1,-1,-1,-1,-1,-1,17,-1,-1,-1],"loss_changes":[2.098258E3,1.2217137E3,1.3511597E2,4.9448587E2,3.3284485E2,2.1031982E2,1.0284996E2,3.995563E2,0E0,0E0,0E0,0E0,0E0,0E0,0E0,8.331807E1,0E0,0E0,0E0],"parents":[2147483647,0,0,1,1,2,2,3,3,4,4,5,5,6,6,7,7,15,15],"right_children":[2,4,6,8,10,12,14,16,-1,-1,-1,-1,-1,-1,-1,18,-1,-1,-1],"split_conditions":[5E-1,5E-1,5E-1,3.5E0,5E-1,4.5E0,5E-1,5E-1,5.679651E-2,2.2018243E-2,5.9156325E-2,-5.8402706E-2,6.8513595E-2,-3.0364731E-2,5.6700446E-2,5E-1,1.0597813E-1,-7.73994E-3,1.120585E-2],"split_indices":[0,7,7,8,8,8,8,13,0,0,0,0,0,0,0,8,0,0,0],"split_type":[0,0,0,0,0,0,0,0,0,0,0,0,0,0,0,0,0,0,0],"sum_hessian":[1.4663926E4,1.2735507E4,1.928419E3,9.967987E3,2.7675193E3,1.7146027E3,2.1381625E2,9.641486E3,3.2650113E2,1.8766155E3,8.9090375E2,1.682947E3,3.1655647E1,1.7373589E2,4.008037E1,9.56389E3,7.759606E1,8.945278E3,6.1861176E2],"tree_param":{"num_deleted":"0","num_feature":"14","num_nodes":"19","size_leaf_vector":"0"}},{"base_weights":[-4.022368E-2,-2.3942922E-1,8.6839914E-1,4.5115536E-1,-8.4546655E-1,1.3170071E0,-4.1092923E-1,-5.5453565E-2,9.328183E-1,-8.5760397E-1,1.0142379E0,1.334013E0,6.0083556E-1,-9.619399E-1,1.0952474E0,1.1121225E0,-2.622284E-1,1.5986077E0,8.0172E-1,-6.428213E-1,-9.3612176E-1,3.1514233E-1,1.1430612E0,1.2670531E0,1.5603774E0,3.2977566E-2,1.2454288E0,-4.3935272E-1,-1.0223857E0,1.2085083E0,-3.7525383E-1,-1.7955874E0,1.5274398E0,2.4751425E-1,-7.6563185E-1,-1.5630823E0,1.6513069E0,3.536794E-1,1.3995101E0,-9.2829674E-1,1.2796415E0,-1.0104864E0,-4.1143528E-1,7.689164E-2,1.3148005E0,1.0097921E0,1.2960434E0,1.5877957E0,1.1762933E0,-3.1203702E-1,1.1426445E0,-7.0880175E-1,9.753827E-1,-4.631868E-2,-1.2775762E0,-5.014335E-2,1.3486899E0,-1.2376888E0,8.353373E-1],"categories":[],"categories_nodes":[],"categories_segments":[],"categories_sizes":[],"default_left":[1,1,1,1,1,1,1,1,1,1,1,1,1,1,1,1,1,1,1,1,1,0,1,1,1,1,0,1,1,1,1,0,0,0,0,0,0,0,0,0,0,0,0,0,0,0,0,0,0,0,0,0,0,0,0,0,0,0,0],"id":22,"left_children":[1,3,5,7,9,11,13,15,17,19,21,23,25,27,29,31,33,35,37,39,41,-1,43,45,47,49,-1,51,53,55,57,-1,-1,-1,-1,-1,-1,-1,-1,-1,-1,-1,-1,-1,-1,-1,-1,-1,-1,-1,-1,-1,-1,-1,-1,-1,-1,-1,-1],"loss_changes":[2.6366868E3,5.0011826E3,1.5044877E3,1.3631548E3,1.4537646E2,2.182959E1,5.6769666E2,6.581603E2,2.4713379E2,1.0528955E2,2.927906E0,2.4457764E1,1.7641968E1,1.4752319E1,3.1540314E1,5.0076965E2,5.9471185E2,8.330591E1,6.40714E2,9.3516437E2,1.7953784E2,0E0,6.010891E0,8.129883E0,4.4458008E-1,1.1541119E1,0E0,2.2522167E1,1.10980286E2,3.0409454E1,1.7331001E1,0E0,0E0,0E0,0E0,0E0,0E0,0E0,0E0,0E0,0E0,0E0,0E0,0E0,0E0,0E0,0E0,0E0,0E0,0E0,0E0,0E0,0E0,0E0,0E0,0E0,0E0,0E0,0E0],"parents":[2147483647,0,0,1,1,2,2,3,3,4,4,5,5,6,6,7,7,8,8,9,9,10,10,11,11,12,12,13,13,14,14,15,15,16,16,17,17,18,18,19,19,20,20,22,22,23,23,24,24,25,25,27,27,28,28,29,29,30,30],"right_children":[2,4,6,8,10,12,14,16,18,20,22,24,26,28,30,32,34,36,38,40,42,-1,44,46,48,50,-1,52,54,56,58,-1,-1,-1,-1,-1,-1,-1,-1,-1,-1,-1,-1,-1,-1,-1,-1,-1,-1,-1,-1,-1,-1,-1,-1,-1,-1,-1,-1],"split_conditions":[3.594694E0,4.5E0,8.5E0,5E-1,4.5E0,7.5E0,5E-1,2.5E0,2.5E0,5.5E0,5.5E0,6.5E0,5E-1,9.5E0,1.45E1,1.960964E0,1.9201119E0,2.4329104E0,3.0570204E0,3.18931E0,3.4733524E0,1.5757117E-2,2.6623795E0,3.5E0,1.5E0,3.8160045E0,6.2271442E-2,3.8110676E0,5E-1,3.804157E0,5E-1,-8.977937E-2,7.637199E-2,1.2375712E-2,-3.8281593E-2,-7.815412E-2,8.2565345E-2,1.768397E-2,6.997551E-2,-4.6414837E-2,6.398208E-2,-5.052432E-2,-2.0571765E-2,3.844582E-3,6.574003E-2,5.0489604E-2,6.480217E-2,7.938979E-2,5.8814663E-2,-1.5601851E-2,5.7132225E-2,-3.5440087E-2,4.8769135E-2,-2.315934E-3,-6.387881E-2,-2.5071676E-3,6.74345E-2,-6.188444E-2,4.1766863E-2],"split_indices":[5,12,12,9,8,12,8,12,12,12,8,12,8,12,12,5,5,5,5,5,5,0,5,12,9,5,0,5,9,5,9,0,0,0,0,0,0,0,0,0,0,0,0,0,0,0,0,0,0,0,0,0,0,0,0,0,0,0,0],"split_type":[0,0,0,0,0,0,0,0,0,0,0,0,0,0,0,0,0,0,0,0,0,0,0,0,0,0,0,0,0,0,0,0,0,0,0,0,0,0,0,0,0,0,0,0,0,0,0,0,0,0,0,0,0,0,0,0,0,0,0],"sum_hessian":[1.4563163E4,1.1945768E4,2.617395E3,5.583579E3,6.362189E3,1.9378795E3,6.7951544E2,2.7220803E3,2.8614985E3,6.322059E3,4.012959E1,1.8911086E3,4.6770844E1,4.9808725E2,1.8142819E2,4.0815408E2,2.3139263E3,4.6694482E2,2.3945537E3,1.6977023E3,4.624357E3,7.4373903E0,3.26922E1,1.4699307E3,4.2117795E2,2.6065634E1,2.0705208E1,5.3525093E1,4.4456213E2,1.6884756E2,1.2580626E1,5.0150932E1,3.5800317E2,1.1501305E3,1.1637957E3,6.6845737E0,4.6026025E2,1.3706267E3,1.02392706E3,1.4791437E3,2.1855865E2,4.0485125E3,5.7584436E2,5.0179777E0,2.7674221E1,1.5647533E2,1.3134553E3,3.870216E2,3.4156353E1,2.0911404E1,5.1542306E0,4.5859413E1,7.66568E0,9.2710945E1,3.518512E2,1.6978024E1,1.5186954E2,7.36884E0,5.211785E0],"tree_param":{"num_deleted":"0","num_feature":"14","num_nodes":"59","size_leaf_vector":"0"}},{"base_weights":[-4.3073826E-2,4.2651084E-1,-5.942545E-1,5.18347E-1,-8.782505E-1,-4.9106112E-1,-1.0021939E0,4.998363E-1,2.0751004E0,-1.0326699E0,1.2284398E0,8.237028E-1,3.6094272E-1,1.4416429E0,2.2128317E0,-1.0394324E0,1.3707689E-2,8.390039E-1,-1.7166552E-3,2.7485603E-1,9.367617E-1,-1.067773E0,9.9724424E-1],"categories":[],"categories_nodes":[],"categories_segments":[],"categories_sizes":[],"default_left":[1,1,1,1,0,0,1,1,1,1,0,1,1,0,0,1,0,0,0,0,0,0,0],"id":23,"left_children":[1,3,5,7,-1,-1,9,11,13,15,-1,17,19,-1,-1,21,-1,-1,-1,-1,-1,-1,-1],"loss_changes":[3.7208508E3,9.310093E2,2.7726685E2,2.066864E2,0E0,0E0,9.314038E1,3.2185278E2,6.2976074E-1,9.444946E0,0E0,2.7246948E1,2.4832349E2,0E0,0E0,7.7629395E1,0E0,0E0,0E0,0E0,0E0,0E0,0E0],"parents":[2147483647,0,0,1,1,2,2,3,3,6,6,7,7,8,8,9,9,11,11,12,12,15,15],"right_children":[2,4,6,8,-1,-1,10,12,14,16,-1,18,20,-1,-1,22,-1,-1,-1,-1,-1,-1,-1],"split_conditions":[7.5E0,5E-1,5E-1,5E-1,-4.3912526E-2,-2.4553057E-2,5E-1,3.5E0,5E0,2.45E1,6.142199E-2,5E-1,5E-1,7.208215E-2,1.1064159E-1,5E-1,6.8538444E-4,4.1950196E-2,-8.583276E-5,1.3742802E-2,4.6838086E-2,-5.338865E-2,4.9862213E-2],"split_indices":[1,0,0,13,0,0,3,1,1,1,0,10,10,0,0,10,0,0,0,0,0,0,0],"split_type":[0,0,0,0,0,0,0,0,0,0,0,0,0,0,0,0,0,0,0,0,0,0,0],"sum_hessian":[1.43718545E4,7.7604883E3,6.6113657E3,7.251379E3,5.0910938E2,5.2803003E3,1.3310653E3,7.1688433E3,8.2535576E1,1.3142286E3,1.6836706E1,2.1484927E3,5.0203506E3,1.8966146E1,6.3569427E1,1.3058977E3,8.330921E0,2.1094766E3,3.9015896E1,4.3701313E3,6.502195E2,1.2889622E3,1.6935507E1],"tree_param":{"num_deleted":"0","num_feature":"14","num_nodes":"23","size_leaf_vector":"0"}},{"base_weights":[-3.97032E-2,-8.2044676E-2,9.9727315E-1,-5.029741E-1,2.446817E-1,7.009242E-1,1.117193E0,-5.1456547E-1,1.9602048E0,1.9974005E-1,9.240191E-1,6.335604E-1,1.179912E0,3.265758E-1,-8.5925025E-1,8.3096653E-1,-4.994361E-1,-1.1474632E0,1.0706394E0,9.189092E-1,5.418556E-1,8.293377E-1,1.1916713E0,-5.0544864E-1,1.4318933E0,3.295376E-1,1.4718161E0],"categories":[],"categories_nodes":[],"categories_segments":[],"categories_sizes":[],"default_left":[1,1,1,1,1,1,0,1,0,1,1,1,0,0,0,1,1,0,0,0,1,0,0,0,0,0,0],"id":24,"left_children":[1,3,5,7,9,11,-1,13,-1,15,17,19,-1,-1,-1,21,23,-1,-1,-1,25,-1,-1,-1,-1,-1,-1],"loss_changes":[6.262349E2,1.8849055E3,1.8136353E1,1.728761E2,2.3510138E2,3.7054672E0,0E0,1.7294097E3,0E0,3.1962393E3,1.4766107E2,2.8024406E0,0E0,0E0,0E0,5.7373047E-2,4.125891E1,0E0,0E0,0E0,2.2387833E1,0E0,0E0,0E0,0E0,0E0,0E0],"parents":[2147483647,0,0,1,1,2,2,3,3,4,4,5,5,7,7,9,9,10,10,11,11,15,15,16,16,20,20],"right_children":[2,4,6,8,10,12,-1,14,-1,16,18,20,-1,-1,-1,22,24,-1,-1,-1,26,-1,-1,-1,-1,-1,-1],"split_conditions":[5E-1,5E-1,5E-1,5E-1,1.5E0,5E-1,5.585965E-2,4.5E0,9.801024E-2,7.5E0,3.5E0,7.5E0,5.89956E-2,1.632879E-2,-4.2962514E-2,5E-1,5E-1,-5.7373162E-2,5.353197E-2,4.594546E-2,1.5E0,4.1466888E-2,5.9583563E-2,-2.5272433E-2,7.159467E-2,1.647688E-2,7.359081E-2],"split_indices":[11,9,9,6,9,3,0,1,0,1,1,1,0,0,0,6,6,0,0,0,11,0,0,0,0,0,0],"split_type":[0,0,0,0,0,0,0,0,0,0,0,0,0,0,0,0,0,0,0,0,0,0,0,0,0,0,0],"sum_hessian":[1.425908E4,1.3701562E4,5.575194E2,5.9872593E3,7.714302E3,1.6479573E2,3.9272366E2,5.960831E3,2.6428083E1,7.2381934E3,4.7610834E2,1.487325E2,1.606323E1,1.7325847E3,4.2282466E3,3.8038174E3,3.4343762E3,3.0524044E1,4.455843E2,3.1520933E1,1.1721157E2,3.793562E3,1.0255276E1,3.4252412E3,9.135018E0,9.7717964E1,1.9493607E1],"tree_param":{"num_deleted":"0","num_feature":"14","num_nodes":"27","size_leaf_vector":"0"}},{"base_weights":[-3.4861304E-2,-2.2633195E-1,8.4594923E-1,-1.0054305E-1,-1.0364422E0,9.6331745E-1,-2.4241029E-1,-1.1855696E-1,1.9749334E0,-1.0852169E0,4.6881297E-1,9.3337893E-1,1.2422986E0,-2.8568655E-1,1.7967783E-1,-1.267737E-1,1.6985786E0,-2.3445626E-1,4.040062E-1],"categories":[],"categories_nodes":[],"categories_segments":[],"categories_sizes":[],"default_left":[1,1,1,1,1,1,1,1,0,0,0,0,0,0,0,1,0,0,0],"id":25,"left_children":[1,3,5,7,9,11,13,15,-1,-1,-1,-1,-1,-1,-1,17,-1,-1,-1],"loss_changes":[2.3887979E3,1.1853345E3,3.236184E2,3.7691135E2,1.15868774E2,1.6535889E1,4.6381187E0,1.4941745E2,0E0,0E0,0E0,0E0,0E0,0E0,0E0,5.686362E2,0E0,0E0,0E0],"parents":[2147483647,0,0,1,1,2,2,3,3,4,4,5,5,6,6,7,7,15,15],"right_children":[2,4,6,8,10,12,14,16,-1,-1,-1,-1,-1,-1,-1,18,-1,-1,-1],"split_conditions":[3.5902348E0,5E-1,5E-1,5E-1,5E-1,5E-1,5E-1,5E-1,9.874667E-2,-5.4260846E-2,2.344065E-2,4.6668947E-2,6.211493E-2,-1.4284328E-2,8.983891E-3,3.338441E0,8.492893E-2,-1.1722813E-2,2.020031E-2],"split_indices":[5,0,0,13,11,11,11,6,0,0,0,0,0,0,0,5,0,0,0],"split_type":[0,0,0,0,0,0,0,0,0,0,0,0,0,0,0,0,0,0,0],"sum_hessian":[1.4160383E4,1.1633164E4,2.5272183E3,1.007167E4,1.5614949E3,2.2815037E3,2.4571463E2,9.986923E3,8.474664E1,1.5130907E3,4.8404175E1,2.0685674E3,2.1293616E2,2.2366565E2,2.2048979E1,9.943874E3,4.304881E1,8.267833E3,1.6760408E3],"tree_param":{"num_deleted":"0","num_feature":"14","num_nodes":"19","size_leaf_vector":"0"}},{"base_weights":[-3.4332838E-2,1.14512354E-1,-1.3537566E-1,4.342441E-3,1.163763E0,-2.4856456E-1,7.0357597E-1,5.4973984E-1,-8.466849E-1,3.9053482E-1,-6.029883E-1,5.598543E-1,8.943522E-1,5.458513E-1,1.3633646E0,-8.6022806E-1,1.4580233E0,3.850938E-1,1.3688685E0,-6.120107E-1,1.6998757E0,5.4020303E-1,9.909242E-1,-8.798871E-1,-5.32692E-1],"categories":[],"categories_nodes":[],"categories_segments":[],"categories_sizes":[],"default_left":[1,1,1,1,0,1,1,1,1,1,1,0,0,1,0,1,0,0,0,0,0,0,0,0,0],"id":26,"left_children":[1,3,5,7,-1,9,11,13,15,17,19,-1,-1,21,-1,23,-1,-1,-1,-1,-1,-1,-1,-1,-1],"loss_changes":[2.1122282E2,6.56301E2,7.946892E2,2.3871545E3,0E0,1.6704696E3,2.6131744E1,8.237549E0,6.514575E1,1.2776306E1,1.005271E2,0E0,0E0,6.6271973E0,0E0,1.1788208E1,0E0,0E0,0E0,0E0,0E0,0E0,0E0,0E0,0E0],"parents":[2147483647,0,0,1,1,2,2,3,3,5,5,6,6,7,7,8,8,9,9,10,10,13,13,15,15],"right_children":[2,4,6,8,-1,10,12,14,16,18,20,-1,-1,22,-1,24,-1,-1,-1,-1,-1,-1,-1,-1,-1],"split_conditions":[5E-1,3.5E0,5E-1,4.5E0,5.818815E-2,4.5E0,6.5E0,5E-1,5E-1,5E-1,5E-1,2.7992716E-2,4.471761E-2,2.5E0,6.816823E-2,5E-1,7.290117E-2,1.925469E-2,6.8443425E-2,-3.0600537E-2,8.499379E-2,2.7010152E-2,4.954621E-2,-4.3994356E-2,-2.6634602E-2],"split_indices":[2,8,8,12,0,12,12,6,6,6,6,0,0,8,0,8,0,0,0,0,0,0,0,0,0],"split_type":[0,0,0,0,0,0,0,0,0,0,0,0,0,0,0,0,0,0,0,0,0,0,0,0,0],"sum_hessian":[1.4040114E4,5.676646E3,8.363468E3,5.1391465E3,5.374999E2,7.3705776E3,9.928901E2,3.1324685E3,2.0066779E3,2.6291643E3,4.741413E3,5.710682E2,4.2182196E2,3.1210168E3,1.1451542E1,1.9962441E3,1.0433663E1,2.6174966E3,1.166778E1,4.7244155E3,1.6997839E1,3.0864995E3,3.45174E1,1.879742E3,1.1650222E2],"tree_param":{"num_deleted":"0","num_feature":"14","num_nodes":"25","size_leaf_vector":"0"}},{"base_weights":[-3.9188854E-2,-1.9406733E-1,5.8030283E-1,-2.3213696E-1,8.7017274E-1,5.461833E-1,1.1626947E0,-6.8257743E-1,1.4504954E-1,5.2615684E-1,1.0503569E0,5.0948846E-1,7.1622074E-1,-7.256648E-1,1.8526171E0,9.010727E-2,9.160033E-1,6.2550056E-1,4.2899355E-1,-2.9324403E-1,9.1077226E-1,-2.2776237E-1,-5.0892526E-1,8.473906E-1,1.1060888E0],"categories":[],"categories_nodes":[],"categories_segments":[],"categories_sizes":[],"default_left":[1,1,1,1,1,1,0,1,1,0,0,1,1,0,0,0,0,0,0,1,1,0,0,0,0],"id":27,"left_children":[1,3,5,7,9,11,-1,13,15,-1,-1,17,19,-1,-1,-1,-1,-1,-1,21,23,-1,-1,-1,-1],"loss_changes":[1.3379833E3,4.523336E2,5.398108E1,1.8305029E3,2.2640228E1,1.5611633E1,0E0,5.389175E2,2.4814377E2,0E0,0E0,1.9694336E1,9.151608E1,0E0,0E0,0E0,0E0,0E0,0E0,7.7119493E-1,2.742157E0,0E0,0E0,0E0,0E0],"parents":[2147483647,0,0,1,1,2,2,3,3,4,4,5,5,7,7,8,8,11,11,12,12,19,19,20,20],"right_children":[2,4,6,8,10,12,-1,14,16,-1,-1,18,20,-1,-1,-1,-1,-1,-1,22,24,-1,-1,-1,-1],"split_conditions":[5E-1,5E-1,5E-1,5E-1,5E-1,1.5E0,5.8134735E-2,5E-1,1.5E0,2.6307842E-2,5.2517843E-2,5E-1,5E-1,-3.628324E-2,9.2630856E-2,4.5053638E-3,4.5800164E-2,3.127503E-2,2.1449678E-2,2.5E0,2.5E0,-1.1388118E-2,-2.5446264E-2,4.236953E-2,5.5304438E-2],"split_indices":[7,11,11,9,9,7,0,13,9,0,0,9,9,0,0,0,0,0,0,7,7,0,0,0,0],"split_type":[0,0,0,0,0,0,0,0,0,0,0,0,0,0,0,0,0,0,0,0,0,0,0,0,0],"sum_hessian":[1.3941235E4,1.1154137E4,2.7870994E3,1.0770515E4,3.8362146E2,2.6366765E3,1.5042279E2,4.907987E3,5.8625283E3,1.3474852E2,2.4887294E2,2.1757263E3,4.609503E2,4.8274087E3,8.0578125E1,5.474733E3,3.8779526E2,8.851843E2,1.2905419E3,7.423587E1,3.8671442E2,6.045666E1,1.3779208E1,3.0041617E2,8.629825E1],"tree_param":{"num_deleted":"0","num_feature":"14","num_nodes":"25","size_leaf_vector":"0"}},{"base_weights":[-3.949742E-2,3.787639E-1,-5.3688353E-1,7.254817E-1,2.4183865E-1,-5.8805543E-1,6.181642E-1,2.6243588E-1,1.223509E0,-5.897049E-1,1.085485E0,-7.8431964E-1,6.292888E-1,4.7261265E-1,1.3221675E0,5.578378E-1,-1.2970425E0,1.2562205E0,2.0312288E-1,2.0697858E-2,-8.845285E-1,7.2560453E-1,1.208239E0,-7.942104E-1,1.6822948E0,1.1970963E0,-9.310198E-1,7.294829E-1,7.244265E-2,6.6898274E-1,-1.9080517E0,-1.1840981E0,-1.6847663E0,1.4772749E0,1.0110294E0,1.1154783E0,-3.3919364E-1,-1.4760928E0,2.0172866E-1,-9.8391855E-1,-2.7910048E-1,-1.3516752E0,1.1407887E0,9.1263324E-1,1.3930373E0,-9.0568745E-1,-2.687815E-1,9.02296E-1,1.3239664E0,-9.7326547E-1,6.296519E-1,1.6346838E-1,1.2365395E0,-3.779519E-2,9.174169E-1],"categories":[],"categories_nodes":[],"categories_segments":[],"categories_sizes":[],"default_left":[1,1,1,1,1,1,1,1,1,1,1,1,1,1,0,1,1,1,1,1,1,1,1,1,0,1,1,1,1,0,0,0,0,0,0,0,0,0,0,0,0,0,0,0,0,0,0,0,0,0,0,0,0,0,0],"id":28,"left_children":[1,3,5,7,9,11,13,15,17,19,21,23,25,27,-1,29,31,33,35,37,39,41,43,45,-1,47,49,51,53,-1,-1,-1,-1,-1,-1,-1,-1,-1,-1,-1,-1,-1,-1,-1,-1,-1,-1,-1,-1,-1,-1,-1,-1,-1,-1],"loss_changes":[2.8783623E3,3.5635388E2,3.7428015E2,4.896161E2,3.7833352E3,1.4472136E3,2.6136147E1,5.102492E2,3.352112E1,4.889436E2,1.1630713E2,1.2977881E2,7.477379E2,2.3060852E1,0E0,2.573613E2,3.4510193E0,5.051172E1,1.779876E1,2.4067952E2,1.09547485E2,5.9474426E2,1.0608789E2,3.0363818E2,0E0,2.0496887E1,1.6133224E1,3.8879967E1,8.614004E0,0E0,0E0,0E0,0E0,0E0,0E0,0E0,0E0,0E0,0E0,0E0,0E0,0E0,0E0,0E0,0E0,0E0,0E0,0E0,0E0,0E0,0E0,0E0,0E0,0E0,0E0],"parents":[2147483647,0,0,1,1,2,2,3,3,4,4,5,5,6,6,7,7,8,8,9,9,10,10,11,11,12,12,13,13,15,15,16,16,17,17,18,18,19,19,20,20,21,21,22,22,23,23,25,25,26,26,27,27,28,28],"right_children":[2,4,6,8,10,12,14,16,18,20,22,24,26,28,-1,30,32,34,36,38,40,42,44,46,-1,48,50,52,54,-1,-1,-1,-1,-1,-1,-1,-1,-1,-1,-1,-1,-1,-1,-1,-1,-1,-1,-1,-1,-1,-1,-1,-1,-1,-1],"split_conditions":[7.5E0,3.5E0,5E-1,2.2867785E0,2.8089008E0,3.6901884E0,1.5E0,5E-1,5E-1,4.5E0,5E-1,5E-1,1.65E1,1.25E1,6.6108376E-2,1.6247301E0,1.6247301E0,2.4297638E0,2.615701E0,1.9323936E0,2.6641252E0,3.034894E0,3.0279043E0,3.4752643E0,8.4114745E-2,3.8101306E0,4.110071E0,3.3386877E0,3.7933288E0,3.344914E-2,-9.540259E-2,-5.9204906E-2,-8.423831E-2,7.3863745E-2,5.055147E-2,5.5773914E-2,-1.6959682E-2,-7.380464E-2,1.0086433E-2,-4.9195927E-2,-1.3955024E-2,-6.758376E-2,5.7039436E-2,4.5631662E-2,6.9651864E-2,-4.528437E-2,-1.3439076E-2,4.51148E-2,6.619832E-2,-4.8663273E-2,3.1482596E-2,8.173419E-3,6.1826974E-2,-1.8897596E-3,4.5870844E-2],"split_indices":[1,1,11,5,5,5,11,2,2,1,2,6,1,1,0,5,5,5,5,5,5,5,5,5,0,5,5,5,5,0,0,0,0,0,0,0,0,0,0,0,0,0,0,0,0,0,0,0,0,0,0,0,0,0,0],"split_type":[0,0,0,0,0,0,0,0,0,0,0,0,0,0,0,0,0,0,0,0,0,0,0,0,0,0,0,0,0,0,0,0,0,0,0,0,0,0,0,0,0,0,0,0,0,0,0,0,0,0,0,0,0,0,0],"sum_hessian":[1.3831764E4,7.5136606E3,6.318103E3,2.1245688E3,5.389092E3,6.0510903E3,2.6701236E2,1.1026364E3,1.02193243E3,2.7142568E3,2.674835E3,5.2116455E3,8.394449E2,2.2415364E2,4.285872E1,9.281682E2,1.744682E2,9.8964606E2,3.228639E1,8.8450275E2,1.829754E3,6.840443E2,1.9907906E3,5.192222E3,1.942346E1,6.15859E2,2.2358588E2,1.3536604E2,8.87876E1,8.8957056E2,3.859762E1,1.4158902E2,3.2879173E1,5.149397E2,4.747064E2,1.13174095E1,2.0968979E1,9.383127E1,7.906715E2,1.570515E3,2.5923895E2,1.1315365E2,5.708906E2,7.7057965E2,1.2202109E3,4.282081E3,9.1014087E2,1.9041513E2,4.2544385E2,2.1848848E2,5.097408E0,6.530722E1,7.005882E1,8.012628E1,8.661318E0],"tree_param":{"num_deleted":"0","num_feature":"14","num_nodes":"55","size_leaf_vector":"0"}},{"base_weights":[-2.972061E-2,-3.9256945E-1,2.4601498E-1,-3.6078936E-1,-9.47539E-1,6.1307468E-2,1.0746007E0,-3.929418E-1,6.370418E-1,-1.1313163E0,1.3842643E0,4.2813343E-1,-1.1809422E0,1.1398222E0,2.0607963E-1,-4.0408123E-1,1.6679723E0,-1.1454862E0,-2.941455E-1,4.2528832E-1,1.2523378E0,1.0950145E0,1.2000954E0,-3.939405E-1,1.2489676E0,-3.7927738E-1,-9.897141E-1,3.4893388E-1,1.1433634E0,1.1100551E0,8.887327E-1],"categories":[],"categories_nodes":[],"categories_segments":[],"categories_sizes":[],"default_left":[1,1,1,1,1,1,1,1,0,1,0,1,0,1,1,1,0,0,0,1,0,1,0,0,0,0,0,0,0,0,0],"id":29,"left_children":[1,3,5,7,9,11,13,15,-1,17,-1,19,-1,21,23,25,-1,-1,-1,27,-1,29,-1,-1,-1,-1,-1,-1,-1,-1,-1],"loss_changes":[1.361685E3,1.0283301E2,1.1832908E3,1.7891449E2,1.3890881E2,2.8835276E3,7.923413E1,1.2495099E2,0E0,2.6803284E0,0E0,1.0222534E1,0E0,6.812744E-1,6.426825E1,7.700354E1,0E0,0E0,0E0,2.6615118E2,0E0,2.3291016E-1,0E0,0E0,0E0,0E0,0E0,0E0,0E0,0E0,0E0],"parents":[2147483647,0,0,1,1,2,2,3,3,4,4,5,5,6,6,7,7,9,9,11,11,13,13,14,14,15,15,19,19,21,21],"right_children":[2,4,6,8,10,12,14,16,-1,18,-1,20,-1,22,24,26,-1,-1,-1,28,-1,30,-1,-1,-1,-1,-1,-1,-1,-1,-1],"split_conditions":[5E-1,5E-1,5E-1,5E-1,5E-1,5E-1,5E-1,5E-1,3.1852093E-2,5.5E0,6.921322E-2,5E-1,-5.904711E-2,4.5E0,4.5E0,5E-1,8.339862E-2,-5.727431E-2,-1.4707275E-2,5E-1,6.261689E-2,1.5E0,6.000477E-2,-1.9697025E-2,6.2448382E-2,-1.896387E-2,-4.9485706E-2,1.7446695E-2,5.7168167E-2,5.5502754E-2,4.4436634E-2],"split_indices":[9,8,8,0,0,0,0,6,0,8,0,6,0,8,8,10,0,0,0,10,0,9,0,0,0,0,0,0,0,0,0],"split_type":[0,0,0,0,0,0,0,0,0,0,0,0,0,0,0,0,0,0,0,0,0,0,0,0,0,0,0,0,0,0,0],"sum_hessian":[1.3605922E4,5.874718E3,7.731204E3,5.5598174E3,3.1490015E2,6.3237817E3,1.4074225E3,5.3875312E3,1.7228622E2,2.9288913E2,2.2011032E1,4.8832036E3,1.4405781E3,1.3084264E3,9.899612E1,5.3602153E3,2.7316002E1,2.8717245E2,5.7166758E0,4.869548E3,1.3655998E1,7.734373E2,5.3498914E2,6.3570053E1,3.5426064E1,5.1457393E3,2.1447609E2,4.4043364E3,4.652114E2,7.122572E2,6.1180115E1],"tree_param":{"num_deleted":"0","num_feature":"14","num_nodes":"31","size_leaf_vector":"0"}},{"base_weights":[-2.9432122E-2,4.8775074E-1,-4.71687E-1,4.651377E-1,1.1739272E0,-5.25035E-1,7.1547556E-1,1.2930583E0,3.334578E-1,-4.3273798E-1,-9.2978865E-1,8.487548E-1,1.4036694E-1,1.301785E0,-7.683281E-2,4.1336396E-1,-8.341533E-1,-4.4179335E-1,1.5335203E0,7.511769E-1,1.3579117E0,-8.118643E-2,9.608399E-1,1.200255E0,1.3873215E0,5.14618E-1,2.6639923E-1,-6.849843E-2,-1.1879869E0,-8.342624E-1,-2.6811963E-1,6.022251E-1,8.012338E-1,1.2806514E-1,-1.8026671E-1],"categories":[],"categories_nodes":[],"categories_segments":[],"categories_sizes":[],"default_left":[1,1,1,1,0,1,1,1,1,1,0,1,1,1,0,1,1,1,0,1,0,1,0,0,0,0,0,0,0,0,0,0,0,0,0],"id":30,"left_children":[1,3,5,7,-1,9,11,13,15,17,-1,19,21,23,-1,25,27,29,-1,31,-1,33,-1,-1,-1,-1,-1,-1,-1,-1,-1,-1,-1,-1,-1],"loss_changes":[3.0809878E3,9.508716E1,4.6059863E2,6.546703E2,0E0,2.5869727E2,2.365651E1,1.0179443E1,4.8504834E2,1.0208496E2,0E0,1.0348358E1,1.1411033E1,3.527832E0,0E0,7.1979614E1,8.996265E1,3.8381274E2,0E0,5.1595306E-1,0E0,1.0904905E0,0E0,0E0,0E0,0E0,0E0,0E0,0E0,0E0,0E0,0E0,0E0,0E0,0E0],"parents":[2147483647,0,0,1,1,2,2,3,3,5,5,6,6,7,7,8,8,9,9,11,11,12,12,13,13,15,15,16,16,17,17,19,19,21,21],"right_children":[2,4,6,8,-1,10,12,14,16,18,-1,20,22,24,-1,26,28,30,-1,32,-1,34,-1,-1,-1,-1,-1,-1,-1,-1,-1,-1,-1,-1,-1],"split_conditions":[4.5E0,5E-1,5E-1,2.5E0,5.869636E-2,5E-1,5E-1,5E-1,5E-1,5E-1,-4.6489432E-2,1.5E0,1.5E0,5E-1,-3.8416404E-3,5E-1,5E-1,5E-1,7.667602E-2,5E-1,6.7895584E-2,5E-1,4.8041996E-2,6.0012754E-2,6.9366075E-2,2.5730899E-2,1.3319962E-2,-3.4249218E-3,-5.9399344E-2,-4.171312E-2,-1.34059815E-2,3.0111257E-2,4.0061694E-2,6.403257E-3,-9.013335E-3],"split_indices":[12,11,11,12,0,0,0,0,0,6,0,11,11,2,0,2,2,2,0,2,0,2,0,0,0,0,0,0,0,0,0,0,0,0,0],"split_type":[0,0,0,0,0,0,0,0,0,0,0,0,0,0,0,0,0,0,0,0,0,0,0,0,0,0,0,0,0,0,0,0,0,0,0],"sum_hessian":[1.346617E4,6.207061E3,7.2591094E3,6.0124224E3,1.9463866E2,6.94808E3,3.110292E2,8.225219E2,5.1899004E3,5.661466E3,1.2866141E3,2.5159705E2,5.9432182E1,8.174867E2,5.0352483E0,4.8587656E3,3.3113492E2,5.6371064E3,2.4359566E1,2.1545332E2,3.614372E1,4.8118813E1,1.1313367E1,3.8807892E2,4.2940778E2,2.8734004E3,1.9853652E3,1.0550471E2,2.256302E2,1.726766E3,3.9103403E3,6.1251102E1,1.5420222E2,1.4950308E1,3.3168507E1],"tree_param":{"num_deleted":"0","num_feature":"14","num_nodes":"35","size_leaf_vector":"0"}},{"base_weights":[-2.9179871E-2,-3.8928777E-1,2.469041E-1,3.0083746E-1,-6.803615E-1,7.703863E-1,-3.807135E-1,1.2838473E0,2.7093205E-1,-7.513782E-1,-2.4943846E-1,7.1655977E-1,1.1542038E0,-1.6456697E-2,-7.7230436E-1,3.2267377E-1,-1.1754631E0,-8.1033444E-1,7.669003E-1,-3.2262862E-1,2.975729E-1,9.379436E-1,-9.1910064E-1,-1.0021389E0,1.245666E0,3.487421E-1,-1.0293318E0,-1.0400592E0,1.0819212E0,-4.69531E-1,3.7129563E-1,-8.648672E-1,-1.5587685E0,-9.431628E-1,-7.631531E-1,6.6210914E-1,1.2250849E0,-4.102994E-1,-1.8521523E-1,4.9962875E-1,-1.0301491E0,1.0939122E0,8.6236495E-1,-1.0089426E0,9.053971E-1,9.323485E-2,-1.6396574E0,1.2889941E0,-8.345535E-1,-1.426334E-1,9.2854965E-1,-1.0863053E0,5.918193E-1,-7.9367304E-1,-1.1659681E0,1.1366712E0,3.7983668E-1],"categories":[],"categories_nodes":[],"categories_segments":[],"categories_sizes":[],"default_left":[1,1,1,1,1,1,1,0,1,1,1,1,1,1,1,1,1,1,1,1,1,1,1,1,1,1,1,1,1,0,0,0,0,0,0,0,0,0,0,0,0,0,0,0,0,0,0,0,0,0,0,0,0,0,0,0,0],"id":31,"left_children":[1,3,5,7,9,11,13,-1,15,17,19,21,23,25,27,29,31,33,35,37,39,41,43,45,47,49,51,53,55,-1,-1,-1,-1,-1,-1,-1,-1,-1,-1,-1,-1,-1,-1,-1,-1,-1,-1,-1,-1,-1,-1,-1,-1,-1,-1,-1,-1],"loss_changes":[1.3291587E3,1.1658861E3,2.4868384E3,4.9782135E1,1.244259E2,8.341431E1,4.909487E2,0E0,1.2596574E2,3.1478308E2,2.3441044E1,1.3142428E3,1.01930786E2,6.6132904E2,8.2584467E2,6.2660797E1,3.9885025E0,1.9527344E1,4.521736E0,5.971554E0,1.9594807E1,3.5563232E1,7.28233E1,1.55254345E1,4.586322E1,3.746839E2,4.5097504E1,4.2954834E1,7.066803E0,0E0,0E0,0E0,0E0,0E0,0E0,0E0,0E0,0E0,0E0,0E0,0E0,0E0,0E0,0E0,0E0,0E0,0E0,0E0,0E0,0E0,0E0,0E0,0E0,0E0,0E0,0E0,0E0],"parents":[2147483647,0,0,1,1,2,2,3,3,4,4,5,5,6,6,8,8,9,9,10,10,11,11,12,12,13,13,14,14,15,15,16,16,17,17,18,18,19,19,20,20,21,21,22,22,23,23,24,24,25,25,26,26,27,27,28,28],"right_children":[2,4,6,8,10,12,14,-1,16,18,20,22,24,26,28,30,32,34,36,38,40,42,44,46,48,50,52,54,56,-1,-1,-1,-1,-1,-1,-1,-1,-1,-1,-1,-1,-1,-1,-1,-1,-1,-1,-1,-1,-1,-1,-1,-1,-1,-1,-1,-1],"split_conditions":[5E-1,4.5E0,7.5E0,1.5E0,1.45E1,5E-1,1.15E1,6.419237E-2,5E-1,5E-1,2.25E1,5E-1,5.5E0,5E-1,5E-1,2.5E0,1.5E0,6.5E0,5E-1,1.75E1,5E-1,3.5E0,2.5E0,3.5E0,6.5E0,1.05E1,1.5E0,1.35E1,1.65E1,-2.347655E-2,1.8564781E-2,-4.324336E-2,-7.793843E-2,-4.715814E-2,-3.8157653E-2,3.310546E-2,6.1254244E-2,-2.051497E-2,-9.260762E-3,2.4981437E-2,-5.1507454E-2,5.4695614E-2,4.311825E-2,-5.0447132E-2,4.5269858E-2,4.6617426E-3,-8.198287E-2,6.4449705E-2,-4.1727673E-2,-7.1316697E-3,4.6427485E-2,-5.4315265E-2,2.9590964E-2,-3.968365E-2,-5.8298405E-2,5.683356E-2,1.8991834E-2],"split_indices":[9,1,1,1,1,10,1,0,8,0,1,0,1,0,8,1,8,1,8,1,8,1,8,1,1,1,8,1,1,0,0,0,0,0,0,0,0,0,0,0,0,0,0,0,0,0,0,0,0,0,0,0,0,0,0,0,0],"split_type":[0,0,0,0,0,0,0,0,0,0,0,0,0,0,0,0,0,0,0,0,0,0,0,0,0,0,0,0,0,0,0,0,0,0,0,0,0,0,0,0,0,0,0,0,0,0,0,0,0,0,0,0,0,0,0,0,0],"sum_hessian":[1.336505E4,5.7997437E3,7.565306E3,1.7203784E3,4.079365E3,4.1246934E3,3.4406125E3,4.821797E1,1.6721605E3,3.5007222E3,5.7864276E2,3.6226484E3,5.0204517E2,1.7837305E3,1.6568821E3,1.6159753E3,5.618513E1,3.3708281E3,1.2989415E2,5.112418E2,6.740098E1,3.191587E3,4.310615E2,1.957324E1,4.8247192E2,1.3119213E3,4.7180923E2,1.4486285E3,2.0825351E2,9.232572E1,1.5236497E3,3.4777874E1,2.1407257E1,8.7299854E2,2.4978296E3,1.09873436E2,2.0020718E1,3.0924295E2,2.0199884E2,5.9646534E1,7.754442E0,1.032528E3,2.1590588E3,4.117356E2,1.932589E1,7.771325E0,1.1801915E1,4.7342004E2,9.051879E0,7.108367E2,6.010846E2,4.56488E2,1.5321215E1,4.9512997E2,9.534986E2,1.9190775E2,1.6345768E1],"tree_param":{"num_deleted":"0","num_feature":"14","num_nodes":"57","size_leaf_vector":"0"}},{"base_weights":[-2.4232203E-2,8.7220274E-2,-8.177468E-1,4.2523167E-1,-3.8078567E-1,-9.0759236E-1,-1.5107104E-1,2.5709447E-1,1.13888E0,-7.929089E-1,-2.102696E-1,-3.1758696E-1,-1.0348755E0,4.9658275E-1,-5.0074214E-1,2.2982575E-1,2.8238678E-1,1.1669048E0,1.0396446E0,-8.002614E-1,-1.5845187E-1,-4.0765512E-1,5.5361724E-1,3.6363578E-1,8.474645E-1,-6.3696516E-1,2.7041614E-1,2.1514429E-1,1.0174351E0,2.4081036E-1,1.2090557E0,-8.6106735E-1,6.012074E-1,-4.4579652E-1,5.666466E-1,5.07392E-1,1.1847522E0,-7.0354205E-1,3.6832446E-1],"categories":[],"categories_nodes":[],"categories_segments":[],"categories_sizes":[],"default_left":[1,1,1,1,1,1,1,1,1,1,1,0,0,1,1,1,1,0,0,1,0,1,1,0,0,1,0,0,0,0,0,0,0,0,0,0,0,0,0],"id":32,"left_children":[1,3,5,7,9,11,13,15,17,19,21,-1,-1,23,25,27,29,-1,-1,31,-1,33,35,-1,-1,37,-1,-1,-1,-1,-1,-1,-1,-1,-1,-1,-1,-1,-1],"loss_changes":[1.1713795E3,1.8374645E3,9.732605E1,8.085244E2,3.4187738E2,1.0711951E2,4.4943172E1,3.5853577E0,9.2736816E-1,6.296509E0,5.203906E2,0E0,0E0,2.5145855E0,1.3884575E1,2.9971283E1,1.0801726E2,0E0,0E0,1.2102429E2,0E0,1.0237384E2,1.930835E1,0E0,0E0,7.9107475E0,0E0,0E0,0E0,0E0,0E0,0E0,0E0,0E0,0E0,0E0,0E0,0E0,0E0],"parents":[2147483647,0,0,1,1,2,2,3,3,4,4,5,5,6,6,7,7,8,8,9,9,10,10,13,13,14,14,15,15,16,16,19,19,21,21,22,22,25,25],"right_children":[2,4,6,8,10,12,14,16,18,20,22,-1,-1,24,26,28,30,-1,-1,32,-1,34,36,-1,-1,38,-1,-1,-1,-1,-1,-1,-1,-1,-1,-1,-1,-1,-1],"split_conditions":[5E-1,7.5E0,5E-1,5E-1,5E-1,5E-1,5E-1,5E-1,5E-1,2.5E0,5E-1,-1.5879348E-2,-5.1743776E-2,1.5E0,1.5E0,5E-1,5E-1,5.834524E-2,5.198223E-2,5E-1,-7.9225935E-3,5E-1,5E-1,1.818179E-2,4.2373225E-2,5E-1,1.3520807E-2,1.0757214E-2,5.0871756E-2,1.2040518E-2,6.0452785E-2,-4.305337E-2,3.006037E-2,-2.2289826E-2,2.8332328E-2,2.53696E-2,5.923761E-2,-3.5177104E-2,1.8416224E-2],"split_indices":[0,1,7,7,2,2,2,2,2,7,7,0,0,7,7,11,11,0,0,11,0,11,11,0,0,11,0,0,0,0,0,0,0,0,0,0,0,0,0],"split_type":[0,0,0,0,0,0,0,0,0,0,0,0,0,0,0,0,0,0,0,0,0,0,0,0,0,0,0,0,0,0,0,0,0,0,0,0,0,0,0],"sum_hessian":[1.3240592E4,1.1611379E4,1.629213E3,6.7422617E3,4.869117E3,1.4349563E3,1.9425671E2,5.4589756E3,1.2832865E3,1.4226948E3,3.446422E3,2.5601343E2,1.1789429E3,6.771328E1,1.2654344E2,2.6384626E3,2.8205127E3,9.831206E2,3.0016592E2,1.4057241E3,1.6970697E1,2.7395867E3,7.0683545E2,5.2267235E1,1.5446042E1,1.0795176E2,1.8591684E1,2.5928047E3,4.5657967E1,2.7019148E3,1.1859787E2,1.3480773E3,5.764691E1,2.6375222E3,1.0206461E2,6.6210803E2,4.4727444E1,1.0190288E2,6.0488825E0],"tree_param":{"num_deleted":"0","num_feature":"14","num_nodes":"39","size_leaf_vector":"0"}},{"base_weights":[-3.4292366E-2,-6.8388045E-2,8.5245985E-1,-8.067574E-2,1.8047248E0,7.705229E-1,1.2496884E0,5.6508426E-2,-1.7523807E-1,1.2883329E0,1.997191E0],"categories":[],"categories_nodes":[],"categories_segments":[],"categories_sizes":[],"default_left":[1,1,1,1,1,0,0,0,0,0,0],"id":33,"left_children":[1,3,5,7,9,-1,-1,-1,-1,-1,-1],"loss_changes":[3.9588348E2,2.9034747E2,1.3651611E1,1.6257028E2,2.6964417E0,0E0,0E0,0E0,0E0,0E0,0E0],"parents":[2147483647,0,0,1,1,2,2,3,3,4,4],"right_children":[2,4,6,8,10,-1,-1,-1,-1,-1,-1],"split_conditions":[5E-1,5E-1,1.5E0,5E-1,5E-1,3.8526144E-2,6.248442E-2,2.8254213E-3,-8.761904E-3,6.441665E-2,9.985955E-2],"split_indices":[11,13,11,2,2,0,0,0,0,0,0],"split_type":[0,0,0,0,0,0,0,0,0,0,0],"sum_hessian":[1.3090541E4,1.2607731E4,4.8280948E2,1.2527518E4,8.021379E1,4.053322E2,7.7477264E1,5.111652E3,7.4158657E3,2.6098364E1,5.411543E1],"tree_param":{"num_deleted":"0","num_feature":"14","num_nodes":"11","size_leaf_vector":"0"}},{"base_weights":[-2.7019484E-2,7.973446E-2,-7.952635E-1,-5.2098002E-2,5.805635E-1,-8.7863445E-1,8.3251673E-1,-8.086979E-2,8.0539435E-1,5.5069035E-1,1.123619E0,-9.0806496E-1,3.7109174E-2,-8.805588E-2,1.5261327E0,7.177204E-1,1.218006E0,5.2132994E-1,6.890726E-1,-9.280732E-1,3.5541496E-1,-1.9501932E-1,6.4020085E-1,-1.1608449E-1,1.1712912E0,6.8190527E-1,1.0257612E0,3.4507957E-1,1.0740501E0,4.5397672E-1,1.0551109E0,-9.3487483E-1,-5.311829E-1],"categories":[],"categories_nodes":[],"categories_segments":[],"categories_sizes":[],"default_left":[1,1,1,1,1,1,0,1,1,1,0,1,1,1,0,1,0,1,1,1,0,0,0,0,0,0,0,0,0,0,0,0,0],"id":34,"left_children":[1,3,5,7,9,11,-1,13,15,17,-1,19,21,23,-1,25,-1,27,29,31,-1,-1,-1,-1,-1,-1,-1,-1,-1,-1,-1,-1,-1],"loss_changes":[1.0716036E3,7.575375E2,2.178086E2,2.2414789E2,3.737982E1,4.1052612E1,0E0,1.0163223E2,8.727554E0,8.384277E0,0E0,3.788977E1,7.163381E0,3.0912082E2,0E0,1.169899E0,0E0,1.8242255E2,3.2499268E1,2.7695312E0,0E0,0E0,0E0,0E0,0E0,0E0,0E0,0E0,0E0,0E0,0E0,0E0,0E0],"parents":[2147483647,0,0,1,1,2,2,3,3,4,4,5,5,7,7,8,8,9,9,11,11,12,12,13,13,15,15,17,17,18,18,19,19],"right_children":[2,4,6,8,10,12,-1,14,16,18,-1,20,22,24,-1,26,-1,28,30,32,-1,-1,-1,-1,-1,-1,-1,-1,-1,-1,-1,-1,-1],"split_conditions":[5E-1,5E-1,1.5E0,5E-1,5E-1,5E-1,4.162584E-2,5E-1,1.5E0,1.5E0,5.618095E-2,1.5E0,5E-1,4.5E0,7.630663E-2,1.5E0,6.09003E-2,5E-1,2.5E0,5E-1,1.7770749E-2,-9.750966E-3,3.2010045E-2,-5.804225E-3,5.8564562E-2,3.4095265E-2,5.1288065E-2,1.7253978E-2,5.3702503E-2,2.2698836E-2,5.2755546E-2,-4.6743743E-2,-2.6559144E-2],"split_indices":[0,7,8,11,11,11,0,6,11,7,0,7,7,8,0,8,0,8,8,8,0,0,0,0,0,0,0,0,0,0,0,0,0],"split_type":[0,0,0,0,0,0,0,0,0,0,0,0,0,0,0,0,0,0,0,0,0,0,0,0,0,0,0,0,0,0,0,0,0],"sum_hessian":[1.3061834E4,1.1469687E4,1.5921467E3,9.080922E3,2.388765E3,1.5155079E3,7.663875E1,8.787983E3,2.9293872E2,2.2682048E3,1.2056022E2,1.4684407E3,4.7067265E1,8.750805E3,3.7178635E1,2.4632048E2,4.661822E1,1.8796578E3,3.885469E2,1.4461498E3,2.2290945E1,3.4843533E1,1.2223732E1,8.562137E3,1.8866786E2,2.2671313E2,1.9607351E1,1.4277948E3,4.5186307E2,2.3948576E2,1.4906114E2,1.4188713E3,2.7278387E1],"tree_param":{"num_deleted":"0","num_feature":"14","num_nodes":"33","size_leaf_vector":"0"}},{"base_weights":[-2.7261775E-2,-1.2477878E-1,6.81343E-1,-1.6296026E-1,4.8472643E-1,7.4073946E-1,6.3350356E-1,2.245664E-2,-2.8532374E-1,-5.3648114E-1,1.3071253E0,2.5067464E-1,1.1451683E0,5.280683E-1,1.1668206E0,1.838195E-3,7.4089575E-1,-3.2137227E-1,7.028891E-1,-5.5276895E-1,-4.7316894E-2,2.0975788E-1,1.0282302E0,5.0227445E-1,9.893936E-1,6.441334E-1,1.1504709E0,6.024822E-1,1.2144158E0],"categories":[],"categories_nodes":[],"categories_segments":[],"categories_sizes":[],"default_left":[1,1,1,1,1,1,1,1,1,1,0,1,0,1,0,0,1,0,1,0,0,0,0,0,0,0,0,0,0],"id":35,"left_children":[1,3,5,7,9,11,13,15,17,19,-1,21,-1,23,-1,-1,25,-1,27,-1,-1,-1,-1,-1,-1,-1,-1,-1,-1],"loss_changes":[8.9961505E2,2.664555E2,3.3990479E0,2.444212E2,5.6836884E2,1.3600784E2,4.847754E1,6.3380096E1,2.3159155E2,2.297554E0,0E0,9.45277E0,0E0,7.7153015E0,0E0,0E0,3.0693054E0,0E0,1.0112717E1,0E0,0E0,0E0,0E0,0E0,0E0,0E0,0E0,0E0,0E0],"parents":[2147483647,0,0,1,1,2,2,3,3,4,4,5,5,6,6,7,7,8,8,9,9,11,11,13,13,16,16,18,18],"right_children":[2,4,6,8,10,12,14,16,18,20,-1,22,-1,24,-1,-1,26,-1,28,-1,-1,-1,-1,-1,-1,-1,-1,-1,-1],"split_conditions":[5E-1,5E-1,5E-1,5E-1,5E-1,4.5E0,4.5E0,5E-1,5E-1,5E-1,6.535627E-2,5E-1,5.7258416E-2,5E-1,5.8341034E-2,9.190975E-5,1.5E0,-1.6068613E-2,1.5E0,-2.7638448E-2,-2.3658448E-3,1.04878945E-2,5.141151E-2,2.5113722E-2,4.946968E-2,3.220667E-2,5.7523545E-2,3.0124111E-2,6.072079E-2],"split_indices":[8,10,2,2,2,8,8,11,11,11,0,11,0,11,0,0,11,0,11,0,0,0,0,0,0,0,0,0,0],"split_type":[0,0,0,0,0,0,0,0,0,0,0,0,0,0,0,0,0,0,0,0,0,0,0,0,0,0,0,0,0],"sum_hessian":[1.3015185E4,1.1442303E4,1.5728817E3,1.0769307E4,6.7299677E2,6.8782886E2,8.8505286E2,4.28185E3,6.487456E3,3.0046738E2,3.7252936E2,3.125657E2,3.7526318E2,7.4244196E2,1.4261084E2,4.1644785E3,1.1737183E2,6.260532E3,2.2692413E2,2.9033557E2,1.0131828E1,2.994748E2,1.3090916E1,7.0729E2,3.515202E1,9.930136E1,1.8070477E1,1.9349448E2,3.3429657E1],"tree_param":{"num_deleted":"0","num_feature":"14","num_nodes":"29","size_leaf_vector":"0"}},{"base_weights":[-2.2896383E-2,-5.748002E-2,4.9155045E-1,-6.908223E-2,1.6888351E0,1.2066897E-1,-1.9854578E-1,1.1869572E0,1.8905923E0,5.6017745E-1,-2.3781705E-1,-9.339978E-1,9.191696E-2,3.5400668E-1,1.1142368E0,-5.8687603E-1,6.835885E-1,-1.0010089E0,-7.0107037E-1,-5.8793567E-2,9.071475E-1],"categories":[],"categories_nodes":[],"categories_segments":[],"categories_sizes":[],"default_left":[1,1,0,1,1,1,1,0,0,1,1,1,1,0,0,0,0,0,0,0,0],"id":36,"left_children":[1,3,-1,5,7,9,11,-1,-1,13,15,17,19,-1,-1,-1,-1,-1,-1,-1,-1],"loss_changes":[2.30157E2,2.456929E2,0E0,2.9594598E2,3.3079681E0,7.7011194E2,1.5299684E3,0E0,0E0,2.4987396E2,8.666956E2,3.007605E1,6.3111676E2,0E0,0E0,0E0,0E0,0E0,0E0,0E0,0E0],"parents":[2147483647,0,0,1,1,3,3,4,4,5,5,6,6,9,9,10,10,11,11,12,12],"right_children":[2,4,-1,6,8,10,12,-1,-1,14,16,18,20,-1,-1,-1,-1,-1,-1,-1,-1],"split_conditions":[5E-1,5E-1,2.4577523E-2,5E-1,5E-1,2.3540673E0,2.8452477E0,5.9347864E-2,9.452962E-2,2.3030436E0,3.6131082E0,2.672887E0,3.6901884E0,1.7700335E-2,5.5711843E-2,-2.9343802E-2,3.4179427E-2,-5.0050445E-2,-3.5053518E-2,-2.9396785E-3,4.5357376E-2],"split_indices":[10,13,0,2,2,5,5,0,0,5,5,5,5,0,0,0,0,0,0,0,0],"split_type":[0,0,0,0,0,0,0,0,0,0,0,0,0,0,0,0,0,0,0,0,0],"sum_hessian":[1.2933653E4,1.2120804E4,8.1284894E2,1.2042772E4,7.8031906E1,4.883915E3,7.1588574E3,2.6463888E1,5.156802E1,2.1936392E3,2.690276E3,2.0256987E3,5.133158E3,1.6012552E3,5.9238385E2,1.9517305E3,7.3854553E2,1.56767E3,4.5802872E2,4.333722E3,7.9943604E2],"tree_param":{"num_deleted":"0","num_feature":"14","num_nodes":"21","size_leaf_vector":"0"}},{"base_weights":[-2.4681957E-2,4.294173E-1,-4.1749844E-1,4.926911E-1,-6.767118E-1,-3.3912978E-1,-7.8433055E-1,5.242759E-1,4.5151755E-1,-3.5042785E-2,-1.0037503E0,-7.010587E-1,-1.80283E-1,-1.8501773E-1,-9.05744E-1,5.846459E-1,-9.8828024E-1,1.3164982E0,2.5613502E-1,-2.530146E-1,3.518503E-2,-4.1371793E-1,-8.1951743E-1,-1.719525E-2,-4.7929642E-1,-3.3338985E-1,1.7327845E0,-7.322574E-1,-9.418313E-1,1.1637638E0,5.0301605E-1,-3.7784815E-1,-1.2545897E0,-1.85718E-2,1.2764515E0,-3.208233E-1,-1.2097338E0,-9.0669024E-1,-2.366189E-1,-2.587763E-1,4.1218844E-1,-6.924757E-1,-1.5408799E-1,-4.2542765E-1,-6.434019E-2,-9.483066E-1,-3.2762077E-2],"categories":[],"categories_nodes":[],"categories_segments":[],"categories_sizes":[],"default_left":[1,1,1,1,1,1,1,1,1,1,0,1,1,1,1,1,1,0,1,0,0,1,1,1,1,1,0,0,1,0,0,0,0,0,0,0,0,0,0,0,0,0,0,0,0,0,0],"id":37,"left_children":[1,3,5,7,9,11,13,15,17,19,-1,21,23,25,27,29,31,-1,33,-1,-1,35,37,39,41,43,-1,-1,45,-1,-1,-1,-1,-1,-1,-1,-1,-1,-1,-1,-1,-1,-1,-1,-1,-1,-1],"loss_changes":[2.292478E3,4.1784375E2,1.9745764E2,6.7630615E0,6.766763E1,3.2630603E2,8.7693054E1,2.912735E2,4.155829E2,1.74361E0,0E0,5.8157227E1,1.9263252E2,5.983207E1,4.755005E0,1.4317627E2,1.8825363E1,0E0,5.6426056E2,0E0,0E0,3.677722E1,6.166266E1,2.656693E2,9.6366455E1,4.6899548E0,0E0,0E0,4.7006836E0,0E0,0E0,0E0,0E0,0E0,0E0,0E0,0E0,0E0,0E0,0E0,0E0,0E0,0E0,0E0,0E0,0E0,0E0],"parents":[2147483647,0,0,1,1,2,2,3,3,4,4,5,5,6,6,7,7,8,8,9,9,11,11,12,12,13,13,14,14,15,15,16,16,18,18,21,21,22,22,23,23,24,24,25,25,28,28],"right_children":[2,4,6,8,10,12,14,16,18,20,-1,22,24,26,28,30,32,-1,34,-1,-1,36,38,40,42,44,-1,-1,46,-1,-1,-1,-1,-1,-1,-1,-1,-1,-1,-1,-1,-1,-1,-1,-1,-1,-1],"split_conditions":[4.5E0,5E-1,5E-1,5E-1,5E-1,5E-1,5E-1,5E-1,2.5E0,3.5E0,-5.0187517E-2,5.5E0,7.5E0,5E-1,5.5E0,2.5E0,3.5E0,6.582491E-2,5E-1,-1.265073E-2,1.7592516E-3,5E-1,5E-1,6.5E0,1.05E1,9.5E0,8.6639225E-2,-3.6612872E-2,1.65E1,5.818819E-2,2.5150804E-2,-1.8892407E-2,-6.2729485E-2,-9.2859E-4,6.3822575E-2,-1.6041165E-2,-6.0486693E-2,-4.5334514E-2,-1.18309455E-2,-1.2938815E-2,2.0609422E-2,-3.4623783E-2,-7.7043995E-3,-2.1271383E-2,-3.2170096E-3,-4.741533E-2,-1.6381039E-3],"split_indices":[12,0,0,2,2,2,2,10,12,12,0,12,12,10,12,12,12,0,10,0,0,10,10,12,12,12,0,0,12,0,0,0,0,0,0,0,0,0,0,0,0,0,0,0,0,0,0],"split_type":[0,0,0,0,0,0,0,0,0,0,0,0,0,0,0,0,0,0,0,0,0,0,0,0,0,0,0,0,0,0,0,0,0,0,0,0,0,0,0,0,0,0,0,0,0,0,0],"sum_hessian":[1.2847817E4,5.9588706E3,6.8889473E3,5.637584E3,3.2128662E2,5.679682E3,1.2092649E3,3.1756233E3,2.4619607E3,1.093181E2,2.119685E2,1.7301399E3,3.9495425E3,2.0470169E2,1.0045632E3,3.0549841E3,1.2063918E2,4.514321E2,2.0105287E3,2.571689E1,8.360121E1,5.0792224E2,1.2222177E3,2.5572292E3,1.3923132E3,1.915841E2,1.3117574E1,1.8078885E2,8.2377435E2,3.7399088E2,2.6809932E3,3.8227535E1,8.2411644E1,1.5855151E3,4.2501352E2,4.574677E2,5.0454533E1,1.0620978E3,1.6011992E2,1.6371558E3,9.2007355E2,8.3946466E2,5.528485E2,1.4160802E2,4.997609E1,8.177531E2,6.021224E0],"tree_param":{"num_deleted":"0","num_feature":"14","num_nodes":"47","size_leaf_vector":"0"}},{"base_weights":[-2.4488416E-2,4.113924E-1,-3.9990863E-1,1.1927094E0,2.8673294E-1,-5.347697E-1,5.627077E-1,-1.7580533E0,1.3900415E0,-1.11040704E-1,1.1054463E0,-7.252679E-1,9.212461E-2,-7.631318E-1,1.0674506E0,-8.6584616E-1,2.4470316E-2,-1.1906872E0,1.1309845E0,-6.131887E-1,-8.693518E-1,1.4031287E0,-6.6939044E-1,-9.194627E-1,2.9798207E-1,-8.0866057E-1,1.1940334E0,1.3572508E0,-1.0680768E0,1.6828974E-1,-3.1434396E-1,4.6689388E-1,1.198311E0,-6.698518E-1,-8.986626E-3,-4.611431E-1,-1.0223317E0,1.1820387E0,1.5408833E0,3.889934E-1,-8.1808764E-1,-1.0677662E0,-1.9248407E-1,9.37352E-1,-4.403951E-1,-6.100432E-1,-1.2063644E0,1.2135508E0,4.093741E-1],"categories":[],"categories_nodes":[],"categories_segments":[],"categories_sizes":[],"default_left":[1,1,1,1,1,1,1,0,0,1,1,1,1,1,1,1,1,0,1,1,1,1,1,1,1,1,1,0,0,0,0,0,0,0,0,0,0,0,0,0,0,0,0,0,0,0,0,0,0],"id":38,"left_children":[1,3,5,7,9,11,13,-1,-1,15,17,19,21,23,25,27,29,-1,31,33,35,37,39,41,43,45,47,-1,-1,-1,-1,-1,-1,-1,-1,-1,-1,-1,-1,-1,-1,-1,-1,-1,-1,-1,-1,-1,-1],"loss_changes":[2.0741538E3,5.7043475E2,8.846658E2,4.7434082E2,1.648508E3,7.1365625E2,5.6226294E2,0E0,0E0,3.4869452E2,9.974231E1,7.2783936E1,1.3936395E3,3.9110703E1,1.4626898E2,2.3613754E2,1.409627E2,0E0,7.1950195E1,8.840515E1,1.2378577E2,1.1705688E1,1.396597E2,2.1334091E1,1.5619371E1,1.4704056E0,7.574524E0,0E0,0E0,0E0,0E0,0E0,0E0,0E0,0E0,0E0,0E0,0E0,0E0,0E0,0E0,0E0,0E0,0E0,0E0,0E0,0E0,0E0,0E0],"parents":[2147483647,0,0,1,1,2,2,3,3,4,4,5,5,6,6,9,9,10,10,11,11,12,12,13,13,14,14,15,15,16,16,18,18,19,19,20,20,21,21,22,22,23,23,24,24,25,25,26,26],"right_children":[2,4,6,8,10,12,14,-1,-1,16,18,20,22,24,26,28,30,-1,32,34,36,38,40,42,44,46,48,-1,-1,-1,-1,-1,-1,-1,-1,-1,-1,-1,-1,-1,-1,-1,-1,-1,-1,-1,-1,-1,-1],"split_conditions":[4.5E0,2.5E0,5E-1,1.960964E0,3.0346007E0,3.4733524E0,3.3359272E0,-8.7902665E-2,6.950208E-2,3.5E0,5E-1,5E-1,7.5E0,8.5E0,5E-1,4.0563905E-1,2.4048245E0,-5.953436E-2,3.5E0,1.05E1,5.5E0,6.5E0,3.5072536E0,3.18931E0,2.9407105E0,3.7474177E0,1.15E1,6.786254E-2,-5.3403843E-2,8.414487E-3,-1.57172E-2,2.3344694E-2,5.991555E-2,-3.349259E-2,-4.493313E-4,-2.3057155E-2,-5.1116586E-2,5.9101935E-2,7.704417E-2,1.9449672E-2,-4.0904384E-2,-5.338831E-2,-9.624204E-3,4.68676E-2,-2.2019755E-2,-3.0502161E-2,-6.031822E-2,6.067754E-2,2.0468704E-2],"split_indices":[12,12,8,5,5,5,5,0,0,12,9,9,12,12,9,5,5,0,12,12,12,12,5,5,5,5,12,0,0,0,0,0,0,0,0,0,0,0,0,0,0,0,0,0,0,0,0,0,0],"split_type":[0,0,0,0,0,0,0,0,0,0,0,0,0,0,0,0,0,0,0,0,0,0,0,0,0,0,0,0,0,0,0,0,0,0,0,0,0,0,0,0,0,0,0,0,0,0,0,0,0],"sum_hessian":[1.2671218E4,5.8632485E3,6.807969E3,8.0429596E2,5.0589526E3,5.972258E3,8.357114E2,4.93924E1,7.5490356E2,3.4058298E3,1.6531229E3,4.5802695E3,1.3919885E3,2.3009216E2,6.056192E2,5.1685754E2,2.8889722E3,1.7137432E1,1.6359855E3,2.5825645E3,1.9977051E3,5.1089368E2,8.8109485E2,2.008611E2,2.9231066E1,3.7547794E1,5.680714E2,4.2103348E1,4.7475418E2,2.0290048E3,8.599674E2,1.5218875E2,1.4837968E3,2.3607832E3,2.2178122E2,5.469407E2,1.4507644E3,2.0375807E2,3.0713562E2,1.0805883E2,7.73036E2,1.6593523E2,3.4925873E1,1.5449571E1,1.3781494E1,2.8589283E1,8.95851E0,5.5309326E2,1.4978152E1],"tree_param":{"num_deleted":"0","num_feature":"14","num_nodes":"49","size_leaf_vector":"0"}},{"base_weights":[-2.5046943E-2,3.007434E-1,-4.1887873E-1,-1.962111E-1,6.969509E-1,-4.2861128E-1,1.5346867E0,-2.4991673E-1,1.6961379E0,8.785631E-1,-7.7615005E-1,-3.531848E-1,-7.6704985E-1,2.0836371E-1,-8.102743E-1,1.0634534E0,1.8118095E0,7.968668E-1,9.5312077E-1,2.8726566E-1,-8.106419E-1,-2.3311244E-1,-5.009603E-1,-7.7221394E-1,1.0964602E-1,2.0281613E-1,6.8467337E-1,-8.373707E-1,6.801456E-1,7.794066E-1,8.8439256E-1,9.7057575E-1,4.337255E-1,-8.3108795E-1,-3.684256E-1,-8.0358607E-1,3.663779E-1,-5.1546305E-1,6.68856E-1,8.659431E-1,-1.0067844E0],"categories":[],"categories_nodes":[],"categories_segments":[],"categories_sizes":[],"default_left":[1,1,1,1,1,1,0,1,1,1,1,1,1,1,1,0,0,1,1,0,1,1,1,1,0,0,0,0,0,0,0,0,0,0,0,0,0,0,0,0,0],"id":39,"left_children":[1,3,5,7,9,11,-1,13,15,17,19,21,23,25,27,-1,-1,29,31,-1,33,35,37,39,-1,-1,-1,-1,-1,-1,-1,-1,-1,-1,-1,-1,-1,-1,-1,-1,-1],"loss_changes":[1.6045237E3,1.3478474E3,1.0884863E2,3.0938974E2,1.0202561E3,1.4319421E2,0E0,7.5933057E2,2.0084076E0,1.8963379E1,1.5886414E1,8.1528015E1,4.8762207E0,3.9332733E0,5.487085E1,0E0,0E0,9.477539E-1,1.4995239E1,0E0,2.9425964E0,8.7225244E2,3.5714844E1,3.9347565E2,0E0,0E0,0E0,0E0,0E0,0E0,0E0,0E0,0E0,0E0,0E0,0E0,0E0,0E0,0E0,0E0,0E0],"parents":[2147483647,0,0,1,1,2,2,3,3,4,4,5,5,7,7,8,8,9,9,10,10,11,11,12,12,13,13,14,14,17,17,18,18,20,20,21,21,22,22,23,23],"right_children":[2,4,6,8,10,12,-1,14,16,18,20,22,24,26,28,-1,-1,30,32,-1,34,36,38,40,-1,-1,-1,-1,-1,-1,-1,-1,-1,-1,-1,-1,-1,-1,-1,-1,-1],"split_conditions":[7.5E0,5E-1,5E-1,5E-1,5E-1,5E-1,7.6734334E-2,4.5E0,5E0,5.5E0,2.5E0,1.15E1,2.45E1,5E-1,5E-1,5.3172674E-2,9.059048E-2,1.5E0,1.5E0,1.4363283E-2,1.5E0,5E-1,1.5E0,5E-1,5.482301E-3,1.0140806E-2,3.423367E-2,-4.1868534E-2,3.400728E-2,3.8970333E-2,4.4219628E-2,4.8528787E-2,2.1686276E-2,-4.15544E-2,-1.8421281E-2,-4.0179305E-2,1.8318895E-2,-2.5773153E-2,3.3442803E-2,4.3297153E-2,-5.0339222E-2],"split_indices":[1,9,6,13,0,0,0,1,1,1,1,1,1,0,0,0,0,9,9,0,9,9,9,9,0,0,0,0,0,0,0,0,0,0,0,0,0,0,0,0,0],"split_type":[0,0,0,0,0,0,0,0,0,0,0,0,0,0,0,0,0,0,0,0,0,0,0,0,0,0,0,0,0,0,0,0,0,0,0,0,0,0,0,0,0],"sum_hessian":[1.2501332E4,6.8417964E3,5.6595356E3,3.0353633E3,3.8064333E3,5.6330845E3,2.6451275E1,2.9533352E3,8.202812E1,3.3894392E3,4.169941E2,4.6100444E3,1.0230398E3,1.6252365E3,1.3280986E3,1.5963761E1,6.606436E1,1.6290872E3,1.7603519E3,1.2548716E1,4.044454E2,2.546645E3,2.0633994E3,1.01739935E3,5.6404295E0,1.6095516E3,1.5684861E1,1.305311E3,2.2787636E1,1.3756218E3,2.5346533E2,1.7012493E3,5.910265E1,3.8467493E2,1.9770487E1,1.3046393E3,